// List of model parameters:
//
static const float conv_0_weight[16][3][3][3] = {{{{
0.25424665212631226,0.07209968566894531,0.15985938906669617},
{
0.10638390481472015,-0.030201157554984093,-0.2067253440618515},
{
0.1296980381011963,-0.06904435902833939,-0.17297609150409698}
},
{{
0.20946744084358215,0.16654133796691895,0.0912489965558052},
{
-0.22274868190288544,-0.05298507213592529,0.014529557898640633},
{
-0.04283054545521736,0.16199158132076263,-0.23059813678264618}
},
{{
-0.21721304953098297,-0.07765679806470871,-0.301967591047287},
{
-0.2676165699958801,-0.09919433295726776,0.08398952335119247},
{
0.02029498666524887,0.2026548683643341,0.19572433829307556}
}
},
{{{
0.12390730530023575,-0.003135757753625512,0.04984818398952484},
{
0.19405879080295563,-0.04541108012199402,0.05602313578128815},
{
0.04778618738055229,0.07571841031312943,-0.2046728879213333}
},
{{
-0.00699038989841938,-0.23031295835971832,-0.02108975499868393},
{
0.06491338461637497,-0.20673297345638275,0.09011520445346832},
{
0.014636192470788956,-0.10922133177518845,-0.21116149425506592}
},
{{
0.15025387704372406,0.03100273758172989,-0.018136315047740936},
{
-0.0027667677495628595,0.18820790946483612,0.1871272623538971},
{
0.009492379613220692,0.1903565227985382,-0.21397404372692108}
}
},
{{{
-0.1495092660188675,-0.29788780212402344,-0.21102122962474823},
{
-0.05437495931982994,-0.18423119187355042,0.16980482637882233},
{
0.00748656177893281,0.156048983335495,0.08836667239665985}
},
{{
0.21873895823955536,-0.11345012485980988,-0.23105156421661377},
{
0.07549809664487839,-0.16392284631729126,-0.013801287859678268},
{
0.057969361543655396,0.12129649519920349,0.10498764365911484}
},
{{
0.21208886802196503,-0.14417561888694763,-0.16242007911205292},
{
0.14442965388298035,-0.06096938997507095,0.1428404599428177},
{
-0.009223286993801594,0.26109778881073,0.06758687645196915}
}
},
{{{
-0.0364551842212677,0.13251714408397675,0.1835048943758011},
{
0.11944056302309036,-0.03976225107908249,0.10963509231805801},
{
0.21555683016777039,0.06934921443462372,-0.10424482077360153}
},
{{
-0.054586365818977356,0.08486540615558624,-0.13619355857372284},
{
-0.16390037536621094,-0.18940863013267517,-0.07237449288368225},
{
-0.11338741332292557,-0.059594977647066116,-0.2300351858139038}
},
{{
-0.21654002368450165,0.22982122004032135,0.10781911015510559},
{
-0.22571562230587006,0.1835349202156067,0.1169183999300003},
{
0.08363887667655945,0.09500761330127716,-0.2384922057390213}
}
},
{{{
-0.2981303930282593,-0.4217606484889984,-0.2129589021205902},
{
0.16681014001369476,-0.026331430301070213,0.10803434252738953},
{
0.12662670016288757,0.05069208890199661,0.06897492706775665}
},
{{
-0.2982539236545563,-0.8027341365814209,0.029672294855117798},
{
-0.12617792189121246,-0.28534337878227234,-0.16155022382736206},
{
0.17427565157413483,-0.07493416965007782,-0.04138873144984245}
},
{{
-0.43178215622901917,-0.6805112957954407,0.04078449681401253},
{
-0.16358943283557892,-0.2579098045825958,-0.06080370396375656},
{
0.15009517967700958,0.21104435622692108,-0.09991883486509323}
}
},
{{{
0.05906285345554352,0.2276959866285324,0.15557266771793365},
{
0.07777247577905655,-0.1650439351797104,-0.1999807506799698},
{
-0.19208873808383942,-0.11725184321403503,-0.09191698580980301}
},
{{
0.12399879097938538,0.05061846598982811,-0.14029549062252045},
{
-0.16611748933792114,0.14670942723751068,-0.029863588511943817},
{
-0.052287690341472626,0.20295624434947968,0.1257583051919937}
},
{{
0.18451955914497375,0.19953550398349762,0.16548587381839752},
{
-0.2918701171875,-0.18694370985031128,0.1014590784907341},
{
-0.28954827785491943,0.22089754045009613,0.14151135087013245}
}
},
{{{
0.014553033746778965,-0.017534427344799042,-0.022593501955270767},
{
-0.02520366758108139,-0.014984926208853722,-0.013901010155677795},
{
-0.02279285155236721,-0.02040308155119419,-0.02469288930296898}
},
{{
-0.019084854051470757,-0.013979138806462288,-0.01673169806599617},
{
-0.013190453872084618,-0.013595344498753548,-0.008217908442020416},
{
-0.011518854647874832,-0.10262811183929443,-0.048855118453502655}
},
{{
-0.029094122350215912,-0.004519987851381302,-0.010626336559653282},
{
-0.007611370179802179,-0.004739436320960522,-0.0041047437116503716},
{
0.069193035364151,-0.0341118648648262,0.0619165264070034}
}
},
{{{
0.18433775007724762,-0.13543647527694702,0.037733424454927444},
{
-0.010061576962471008,0.00024136069987434894,-0.08335420489311218},
{
0.12197288870811462,0.2068500816822052,-0.027267413213849068}
},
{{
-0.0020217616111040115,0.004799635149538517,-0.2836589217185974},
{
0.03194046393036842,-0.07028559595346451,-0.07956252992153168},
{
0.24098458886146545,0.02664346434175968,-0.10439801961183548}
},
{{
0.2623351216316223,0.05537675693631172,-0.10454324632883072},
{
0.25065329670906067,0.059102218598127365,-0.22410693764686584},
{
-0.05959540605545044,-0.17722921073436737,-0.09427603334188461}
}
},
{{{
-0.1784941554069519,0.21802160143852234,0.1960737258195877},
{
-0.18317219614982605,0.24853666126728058,0.17215511202812195},
{
-0.023718437179923058,-0.0323638916015625,-0.13516907393932343}
},
{{
-0.299665629863739,-0.06662486493587494,0.02074183151125908},
{
-0.007595382630825043,0.0026173924561589956,0.19862021505832672},
{
-0.07372080534696579,0.12809990346431732,-0.13568396866321564}
},
{{
-0.19027526676654816,0.1336614489555359,-0.08527049422264099},
{
-0.20329387485980988,0.2138683944940567,-0.05668894201517105},
{
-0.1416262686252594,0.15643776953220367,0.18693560361862183}
}
},
{{{
0.25533807277679443,0.22670570015907288,0.2723824679851532},
{
0.1287292242050171,-0.04904695600271225,0.14145667850971222},
{
-0.17785780131816864,0.0274423249065876,-0.21359725296497345}
},
{{
-0.153522789478302,-0.1707955300807953,-0.12165158241987228},
{
-0.08765044808387756,-0.22329527139663696,-0.1110050305724144},
{
0.11927085369825363,-0.03484513238072395,-0.12720680236816406}
},
{{
-0.03910559043288231,-0.11073775589466095,-0.07161825895309448},
{
0.09865431487560272,-0.1000872477889061,0.10137015581130981},
{
0.12411312013864517,0.15368472039699554,0.1035742238163948}
}
},
{{{
0.058001283556222916,-0.12848925590515137,0.1202731803059578},
{
0.16086378693580627,0.15956631302833557,-0.16969846189022064},
{
-0.08135446161031723,0.1758241355419159,-0.1792253702878952}
},
{{
-0.14740212261676788,0.17840397357940674,-0.06476226449012756},
{
0.14979182183742523,0.37100690603256226,-0.11116444319486618},
{
0.08245338499546051,0.1926969438791275,-0.1494622826576233}
},
{{
-0.3039078712463379,-0.09307918697595596,-0.04317975044250488},
{
0.12250486016273499,0.18858809769153595,-0.0768924355506897},
{
-0.2202652096748352,-0.0789843201637268,0.12940561771392822}
}
},
{{{
0.11009325087070465,-0.06481357663869858,-0.07037631422281265},
{
0.037089765071868896,-0.18707579374313354,-0.10264506191015244},
{
0.18403494358062744,-0.1577204316854477,0.00338467163965106}
},
{{
0.23372295498847961,0.193209707736969,0.19922871887683868},
{
0.18568171560764313,0.13510195910930634,-0.07818896323442459},
{
-0.029345713555812836,-0.12889504432678223,-0.20689606666564941}
},
{{
0.094190813601017,0.09310030937194824,-0.11388445645570755},
{
-0.009309599176049232,0.11034050583839417,-0.29867225885391235},
{
0.12102600187063217,-0.24914345145225525,0.020762326195836067}
}
},
{{{
0.06563431769609451,0.051826633512973785,0.1475721299648285},
{
-0.27471300959587097,0.06911615282297134,-0.14309248328208923},
{
-0.023572172969579697,0.06196379289031029,-0.18094907701015472}
},
{{
0.18557079136371613,0.09774889796972275,0.230785071849823},
{
-0.09693196415901184,0.23284050822257996,0.14123351871967316},
{
0.08799055963754654,-0.17431117594242096,-0.1862027943134308}
},
{{
0.1859477460384369,0.14551781117916107,-0.2098076194524765},
{
-0.1291983723640442,-0.043865762650966644,-0.15636472404003143},
{
0.10465989261865616,-0.18115730583667755,-0.04038001596927643}
}
},
{{{
-0.09390919655561447,0.04368051514029503,-0.05482325702905655},
{
0.03743012621998787,0.1494913101196289,-0.09482476860284805},
{
0.16913387179374695,0.1221214309334755,-0.20902061462402344}
},
{{
-0.006477392744272947,0.15673096477985382,-0.10436861962080002},
{
-0.2649996876716614,-0.09426803886890411,-0.26041409373283386},
{
0.02681231126189232,-0.1629723161458969,-0.23318712413311005}
},
{{
0.21199357509613037,0.08508908748626709,0.26595354080200195},
{
-0.023187492042779922,0.11572126299142838,0.07126165926456451},
{
0.059815313667058945,0.14104057848453522,0.08173303306102753}
}
},
{{{
-0.133062481880188,-0.19254560768604279,-0.005321070086210966},
{
-0.24447908997535706,-0.031211134046316147,-0.16917423903942108},
{
-0.27769166231155396,0.06658367812633514,-0.12321463227272034}
},
{{
0.07282622158527374,-0.12470179051160812,-0.04989359527826309},
{
0.058078426867723465,0.15754589438438416,-0.031481508165597916},
{
-0.04352366179227829,0.06981263309717178,0.12744124233722687}
},
{{
0.18742594122886658,0.26104533672332764,0.11025653779506683},
{
0.2456062138080597,0.2540319561958313,0.0397719070315361},
{
-0.1649550497531891,0.14581985771656036,-0.16983647644519806}
}
},
{{{
0.1754860281944275,0.21059764921665192,0.10569965839385986},
{
-0.005716002080589533,0.16118228435516357,-0.0026194273959845304},
{
-0.2024799883365631,-0.02569708414375782,0.1757075935602188}
},
{{
0.20503179728984833,0.0323997363448143,-0.2441321611404419},
{
-0.14743271470069885,-0.019226565957069397,-0.16299676895141602},
{
-0.17907953262329102,-0.012370762415230274,-0.012166274711489677}
},
{{
0.24365155398845673,0.11710996180772781,-0.04324770346283913},
{
0.20355653762817383,-0.14829272031784058,-0.1518152803182602},
{
-0.14491617679595947,-0.10162651538848877,0.12605349719524384}
}
}
};
static const float conv_0_bias[16] = {
-0.18602359294891357,0.00788636039942503,0.04519624263048172,0.0887920930981636,0.18425144255161285,
0.0027621854096651077,-0.1536983847618103,0.020019350573420525,0.04110618308186531,0.03513442724943161,
0.06722335517406464,0.06238264590501785,0.05195218324661255,0.05970483273267746,0.09419567883014679,
0.00772919412702322};
static const float conv_1_weight[16][16][3][3] = {{{{
-2.672836690853156e-41,-9.26870652347614e-40,7.608279947128378e-40},
{
1.3978022246563267e-39,-1.1571992783317556e-39,-1.2886676989562456e-39},
{
1.5572699898964908e-39,-1.4018898122767621e-39,-1.6193222884937224e-39}
},
{{
-6.59565833744836e-36,-1.7336724470780204e-40,-8.032901407788084e-40},
{
1.1260119236578039e-37,-1.0071972842181055e-40,-1.8983390296208297e-41},
{
-2.6568044911747544e-36,-5.435342470438457e-40,-6.8068913683656584e-40}
},
{{
-5.045613341540439e-40,6.7181891755738975e-40,-2.1514135322778916e-40},
{
6.110389979657651e-40,-3.1369887811914652e-40,-6.7627925056933564e-40},
{
-4.255673371231253e-40,-2.9261494142491533e-40,-4.475046645821303e-40}
},
{{
3.737865562693947e-40,3.4866267610251503e-40,-1.980343015753118e-40},
{
-7.068079389131161e-40,1.7072019190869246e-40,6.820301794669247e-40},
{
-4.785210047914958e-40,-5.857623762662741e-40,3.643516137090957e-40}
},
{{
6.793382851169567e-40,5.0514007041981006e-40,-8.806011783540729e-40},
{
2.5288672866284244e-40,2.5520868021822866e-40,3.77791467280435e-40},
{
1.3646362926026869e-39,-4.842439077197984e-40,-2.490611838552357e-40}
},
{{
-5.910200481044208e-40,-3.949559721699497e-40,8.116853198785784e-40},
{
4.305699726407649e-40,8.916392063575595e-40,-1.5673943713012376e-40},
{
-3.667296172030549e-40,8.354723613104922e-40,-5.583081367532223e-40}
},
{{
-6.677789740847413e-40,-5.082369400259679e-40,-7.015376553887905e-40},
{
-4.6991142702668416e-40,-1.3818904805939184e-40,-8.925808789255858e-40},
{
-1.0515413741216644e-39,6.404032072856917e-40,1.1513362455570205e-39}
},
{{
1.8130139661280916e-40,-6.8636719821401e-40,2.8438931943932865e-40},
{
4.379436051600421e-40,-5.904272988540114e-40,-3.4939275260242826e-40},
{
-2.425451459961253e-40,3.6728172879799888e-40,1.0939937110983847e-41}
},
{{
-2.509809627513607e-40,5.112104953672652e-40,6.883416277502437e-40},
{
9.943613902848902e-41,-9.132710507513417e-40,-7.863134098835133e-40},
{
-1.0328270331306064e-40,5.467810555856863e-40,8.197455886453747e-40}
},
{{
9.132402221851265e-40,-8.521422078421002e-40,-6.555498423865786e-40},
{
1.0494408277236415e-39,-2.0753370386496973e-40,3.10275505970801e-41},
{
-6.751371923209109e-40,1.4492621081617269e-39,-1.420556509120033e-39}
},
{{
-1.0822508299673427e-40,6.868142124241296e-40,-3.991514597721382e-40},
{
-6.821002443901409e-40,-6.943980397130555e-40,-5.5979211182694225e-40},
{
4.726229395551527e-40,4.384340596225558e-40,-7.157173945492933e-40}
},
{{
7.492728875760154e-40,5.512441911945609e-40,8.77409020452341e-40},
{
4.021838696489371e-40,8.150904751468877e-40,5.328843787149771e-40},
{
-9.579178211231947e-40,4.154821920753796e-40,1.3080000125700708e-40}
},
{{
-4.3616816000574256e-41,-3.4143197602659898e-40,-7.500730289991448e-41},
{
-4.324393047921742e-40,-5.491478486919309e-40,-2.685588506878512e-40},
{
-3.084958569211085e-41,8.400644163780846e-41,-6.740161535494511e-40}
},
{{
1.8138603504005438e-39,-5.6797989875399215e-40,2.216251612222201e-40},
{
-6.10792369436044e-40,9.761865492025973e-41,7.142852675187533e-40},
{
-7.982776961719185e-41,4.853453283127577e-40,-6.55050980133279e-41}
},
{{
-1.120642859707743e-25,5.290198851949126e-25,-6.910125026232468e-40},
{
-3.053797118309283e-24,1.2120563818794967e-24,-5.59497839149434e-40},
{
1.6156160062017633e-23,-1.825738600522741e-26,-3.355100887163623e-40}
},
{{
3.557868774951424e-40,3.431387575561466e-40,-7.0784349847825215e-40},
{
2.3680542748625084e-40,-7.045994925333402e-40,4.984222455818369e-40},
{
-3.228171272265081e-41,-7.47308267129032e-40,7.282043651648917e-40}
}
},
{{{
3.0432026256604905e-13,4.140070952729502e-09,0.0002855915518011898},
{
1.9067346659906725e-11,2.796433662410891e-08,0.0001278169365832582},
{
3.8058090012782486e-10,5.212463705106529e-08,0.000126025261124596}
},
{{
-0.024163775146007538,0.035576242953538895,0.015096276067197323},
{
0.0007054666057229042,-0.035810843110084534,0.043025992810726166},
{
-0.0009319542441517115,0.0019468924729153514,-0.036123886704444885}
},
{{
-0.007908426225185394,-0.0076959701254963875,-0.011935255490243435},
{
-0.0038278261199593544,-0.0033862136770039797,-0.0006072496180422604},
{
-0.0019118626369163394,-0.0023637255653738976,-0.013393650762736797}
},
{{
-0.003271250519901514,-0.018306460231542587,-0.011192736215889454},
{
-0.010721618309617043,-0.02146260067820549,-0.010116389952600002},
{
-0.020060261711478233,-0.04377390444278717,-0.015967270359396935}
},
{{
-2.901844880042587e-17,1.3896465089757726e-09,0.0001196387383970432},
{
-1.46619634988442e-15,-6.164664772322416e-31,9.264790605811868e-07},
{
-4.0310520221277513e-13,7.590133132015372e-41,-7.580654072241887e-20}
},
{{
-0.020879210904240608,0.011743544600903988,0.0027145901694893837},
{
-0.003889187006279826,-0.025528207421302795,-0.02166864462196827},
{
-0.007426052819937468,0.014058546163141727,0.0017791358986869454}
},
{{
-9.636393227530329e-40,1.3558865849914427e-39,-1.276106459522038e-40},
{
-1.5096048226324822e-40,1.6060660050212096e-39,-8.291693208179591e-40},
{
-9.026604187794742e-40,1.801803578413493e-40,-5.681844883297836e-41}
},
{{
0.0015039033023640513,-0.0006580227636732161,-0.009774086065590382},
{
-0.019783612340688705,-0.010344802401959896,0.002898672129958868},
{
-0.005267222877591848,-0.0017633464885875583,-0.013144634664058685}
},
{{
-0.004984979517757893,0.020266536623239517,-0.01380469836294651},
{
-0.0076980069279670715,0.0273732952773571,-0.013344179838895798},
{
-0.0012711749877780676,0.017587881535291672,-0.011772184632718563}
},
{{
-5.47399681138927e-09,2.3119527126080897e-10,-0.0005250359536148608},
{
-5.548043136016645e-10,-1.0766500191383699e-10,-0.0002094804949592799},
{
8.577892736394421e-12,-1.8627970260060023e-12,-0.0004935081815347075}
},
{{
-0.002957836491987109,-0.017671259120106697,-0.029872283339500427},
{
-0.005930144339799881,-0.03153790533542633,0.037099871784448624},
{
-0.016007311642169952,-0.013142973184585571,-0.0064034732058644295}
},
{{
8.02849037251363e-11,-3.6301656303436053e-16,-0.02025793120265007},
{
-6.916733489127982e-14,-5.0922985514218096e-15,-0.022583791986107826},
{
-8.995271026527099e-14,-1.824911817255477e-14,-0.020641520619392395}
},
{{
0.00044009971315972507,0.0011182930320501328,-0.028596658259630203},
{
-0.02933412790298462,-0.0221631471067667,-0.003976475913077593},
{
0.004310038406401873,-0.008472689427435398,-0.02425334043800831}
},
{{
0.0012477439595386386,0.026428168639540672,-0.0004189079045318067},
{
0.0020674450788646936,-0.003319124924018979,-0.04217696934938431},
{
-0.00041324144694954157,-0.011191333644092083,-0.008994842879474163}
},
{{
0.010191723704338074,0.0004578089283313602,0.006124486681073904},
{
-0.018744515255093575,-0.013007250614464283,-0.0035894957836717367},
{
-0.004458029288798571,0.010646423324942589,-0.02929549477994442}
},
{{
0.030445808544754982,-0.018099641427397728,-0.004965291824191809},
{
-0.000881055137142539,0.011807717382907867,-0.00024720406509004533},
{
-0.017075641080737114,-0.0011419100919738412,-0.020199691876769066}
}
},
{{{
-0.016261566430330276,0.17237092554569244,0.07817333191633224},
{
0.21290433406829834,0.11216270923614502,0.04624757915735245},
{
0.1950923204421997,0.07434484362602234,0.13464635610580444}
},
{{
-0.2235473096370697,0.04493490979075432,-0.12997159361839294},
{
0.09067284315824509,0.07738883048295975,0.04033913463354111},
{
-0.037673354148864746,-0.03476966917514801,-0.004010913427919149}
},
{{
0.002722944365814328,0.06469546258449554,-0.044329605996608734},
{
0.008306204341351986,0.045632582157850266,-0.05807887762784958},
{
-0.24970494210720062,-0.0647079348564148,0.1177225187420845}
},
{{
-0.029128868132829666,0.11784836649894714,0.12594151496887207},
{
-0.012448262423276901,0.02959701418876648,0.06723641604185104},
{
0.09824109822511673,0.0338529497385025,0.01844704896211624}
},
{{
0.028511399403214455,0.16496217250823975,0.13840270042419434},
{
0.026845110580325127,0.002718545263633132,0.014125450514256954},
{
0.04746367409825325,-0.1988341361284256,-0.3158957064151764}
},
{{
0.07224364578723907,0.1408575475215912,0.006055469159036875},
{
-0.09797034412622452,-0.24519990384578705,-0.11354824900627136},
{
0.05207715928554535,0.10665803402662277,0.0953575074672699}
},
{{
-1.1584862388229054e-20,-1.468484214228738e-07,4.205593034247645e-30},
{
7.750160929687055e-11,6.316747089840646e-07,6.818097972427495e-06},
{
7.5450248004926834e-06,2.6235344193992205e-05,6.049075684799732e-10}
},
{{
-0.005964316893368959,0.03078886680305004,0.0785069391131401},
{
-0.02470584027469158,0.0701909288764,0.002612763550132513},
{
-0.0902019515633583,0.07169191539287567,0.14369094371795654}
},
{{
0.07680325210094452,-0.10711943358182907,0.12111575156450272},
{
0.12801851332187653,0.2073521614074707,-0.03901461139321327},
{
0.1767301857471466,-0.08116111159324646,-0.17258195579051971}
},
{{
0.06079152226448059,0.09918610751628876,-0.021443193778395653},
{
-0.06625746935606003,-0.07470637559890747,-0.08392703533172607},
{
-0.008730795234441757,-0.14939162135124207,0.016882484778761864}
},
{{
0.09285389631986618,-0.1284991204738617,-0.021433264017105103},
{
-0.051423005759716034,0.13874602317810059,0.11847694963216782},
{
-0.10786056518554688,0.04124439135193825,-0.10093893855810165}
},
{{
0.07359089702367783,-0.11115362495183945,-0.10408011078834534},
{
-0.11813376098871231,-0.21275322139263153,-0.12037382274866104},
{
-0.024821801111102104,0.07421038299798965,-0.09789497405290604}
},
{{
-0.08018502593040466,-0.10966776311397552,0.11745941638946533},
{
-0.11026119440793991,-0.1268775463104248,-0.19484566152095795},
{
-0.01629866659641266,0.03987392038106918,0.015177056193351746}
},
{{
0.007583898492157459,0.16117899119853973,0.13385331630706787},
{
-0.10512110590934753,-0.0052241673693060875,-0.046194806694984436},
{
-0.013829394243657589,-0.03762751445174217,0.11310048401355743}
},
{{
0.0006148004904389381,-0.05819827690720558,-0.0658658891916275},
{
-0.03929153457283974,0.07933175563812256,0.09356459975242615},
{
-0.08672339469194412,0.08694644272327423,0.2026202231645584}
},
{{
0.09339755028486252,-0.059873636811971664,0.00426301546394825},
{
-0.048216789960861206,-0.13753879070281982,-0.12385616451501846},
{
-0.0943269357085228,0.020118601620197296,-0.015490473248064518}
}
},
{{{
1.4819191148895552e-30,-3.303057813979771e-19,-3.254900702885429e-18},
{
5.177797825680199e-40,-9.215919610325024e-41,-1.6250297771389174e-40},
{
-1.8228743429021596e-38,-1.690680610192535e-40,-4.250883733080191e-38}
},
{{
-0.0016215640353038907,0.003389861434698105,-0.03427869826555252},
{
-0.011874674819409847,0.001390116405673325,0.017793385311961174},
{
0.02464256063103676,-0.005993552505970001,0.017628967761993408}
},
{{
0.016790634021162987,-0.0005688840174116194,0.032119158655405045},
{
0.04743166267871857,0.011032216250896454,-0.027691591531038284},
{
-0.011928245425224304,-0.01084666233509779,-0.005801450461149216}
},
{{
-0.001093425089493394,-0.0025121162179857492,-0.0027221476193517447},
{
-0.0003217574558220804,-0.0007970334263518453,-0.002083754865452647},
{
-0.005387142766267061,-0.01255523506551981,-0.013256510719656944}
},
{{
-0.0020230284426361322,-0.003545065177604556,0.024708228185772896},
{
-0.0008470611646771431,-0.0006268838769756258,-0.001134922611527145},
{
6.844025777670266e-40,-5.660727315440461e-40,-3.949839981392362e-40}
},
{{
-0.004494156688451767,-0.011020680889487267,-0.006512104999274015},
{
-0.0030005855951458216,0.007135510910302401,-0.012790840119123459},
{
-0.003393479622900486,0.0046409922651946545,-0.031481605023145676}
},
{{
-8.893915236207825e-40,2.4257036936848313e-40,-3.476439321189509e-40},
{
-5.004443192658576e-40,4.629679931359547e-40,1.0883254588101908e-39},
{
8.361127547086886e-40,4.731358147930956e-40,-1.0740097936986485e-39}
},
{{
-0.0024135936982929707,0.000964956940151751,-0.0002781883522402495},
{
-0.0009608566178940237,-0.00024270811991300434,-0.002434121211990714},
{
-0.004374591168016195,-0.01139175333082676,0.0008105970337055624}
},
{{
-0.0005120582063682377,-0.0010694428347051144,-0.0004039986524730921},
{
0.0030447295866906643,-0.030183063820004463,-0.0148114999756217},
{
-0.008133292198181152,0.008029012940824032,0.002385385101661086}
},
{{
-7.139223019284383e-16,-4.1337448228155344e-15,-7.494316278666702e-11},
{
-6.896344389648035e-13,-1.6439374258989071e-15,-9.113311667807711e-12},
{
-3.1776298783370294e-06,-1.127430778069538e-06,-1.7001617607093067e-06}
},
{{
-0.0008605506736785173,0.02536136843264103,-0.015493002720177174},
{
-0.017597053200006485,0.019935349002480507,0.019821766763925552},
{
-0.05515235662460327,-0.06488443911075592,-0.037987660616636276}
},
{{
-4.777368303621188e-06,2.148785370081896e-06,-4.7724162868689746e-05},
{
4.0836977859726176e-05,-0.00016987173876259476,0.00011004791304003447},
{
-0.002365752588957548,-0.004435885697603226,-0.007585767190903425}
},
{{
0.014050892554223537,-0.021052898839116096,-0.019657889381051064},
{
-0.027181657031178474,-0.005629509221762419,-0.02158300019800663},
{
-0.02813495695590973,-0.012853228487074375,0.010207290761172771}
},
{{
-0.01741153746843338,0.00456221541389823,-0.012240517884492874},
{
-0.0034250798635184765,0.0033385867718607187,-0.02055496536195278},
{
-0.031578876078128815,0.01314632035791874,-0.013208176009356976}
},
{{
-0.011073415167629719,-0.008364584296941757,-0.009158788248896599},
{
-0.016737699508666992,-0.004791341722011566,0.008294097147881985},
{
-0.014406213536858559,0.012027597054839134,-0.02775125950574875}
},
{{
0.005374374333769083,-0.0060487668961286545,-0.0037137200124561787},
{
0.0024719268549233675,-0.011023716069757938,0.00476898904889822},
{
-0.01123007945716381,0.014440512284636497,-0.02806682698428631}
}
},
{{{
-0.13864107429981232,0.0813225507736206,-0.09588964283466339},
{
-0.15246036648750305,-0.3155147433280945,-0.41791945695877075},
{
0.1551365703344345,0.1086469441652298,0.06247211992740631}
},
{{
-0.10211411863565445,0.18111275136470795,-0.007397247478365898},
{
0.06360581517219543,-0.041909314692020416,-0.029808510094881058},
{
-0.11196042597293854,-0.042022861540317535,0.026833174750208855}
},
{{
0.17468667030334473,0.11367083340883255,-0.011102861724793911},
{
0.08717259764671326,0.11723805218935013,0.06454084068536758},
{
0.0015016434481367469,-0.11922354251146317,0.0306041669100523}
},
{{
-0.16566745936870575,0.10448373109102249,0.2775028944015503},
{
0.0930166244506836,-0.26712512969970703,-0.1761254519224167},
{
0.18129779398441315,0.15414288640022278,-0.0332183912396431}
},
{{
0.16570541262626648,0.22940751910209656,0.1435559242963791},
{
-0.031508784741163254,-0.05556517094373703,-0.07815350592136383},
{
-0.1267254501581192,0.09811367839574814,0.16158555448055267}
},
{{
0.10466759651899338,-0.014613877981901169,-0.1624133437871933},
{
-0.0034597276244312525,-0.07137104123830795,-0.18518875539302826},
{
0.07336404919624329,0.10382885485887527,0.142777219414711}
},
{{
2.7162048166218256e-09,9.772413780972933e-12,4.4360366047158095e-08},
{
8.935452469237081e-17,7.138503655378103e-14,4.3078769718096765e-11},
{
5.942248176923317e-39,2.320100220883775e-13,1.5787365859054603e-10}
},
{{
0.19584278762340546,0.05296876281499863,-0.0001350957027170807},
{
-0.084540955722332,-0.26768264174461365,-0.02740727923810482},
{
0.005320461466908455,-0.14335821568965912,0.002147954422980547}
},
{{
-0.2049490511417389,-0.1919776350259781,-0.08122525364160538},
{
0.10269441455602646,0.049767185002565384,0.20810383558273315},
{
0.13013450801372528,0.05685571953654289,-0.15956902503967285}
},
{{
2.0000168660772033e-05,0.23365668952465057,0.1208885982632637},
{
0.008404585532844067,-0.199490487575531,-0.10119535028934479},
{
0.05325736850500107,-0.07767961174249649,-0.1487106829881668}
},
{{
-0.11281538009643555,-0.10745289921760559,-0.09483214467763901},
{
-0.02720130793750286,0.08896881341934204,0.07868627458810806},
{
-0.16174741089344025,0.009663103148341179,-0.06883177161216736}
},
{{
0.05778861790895462,-0.07194525003433228,0.17009194195270538},
{
0.0263654887676239,-0.11680933833122253,-0.08799691498279572},
{
0.06047182157635689,0.07155272364616394,0.12024196237325668}
},
{{
-0.08475320786237717,0.040713388472795486,0.15692226588726044},
{
-0.05438036471605301,-0.06463982164859772,-0.3220349848270416},
{
0.1259765774011612,0.12299270182847977,0.06248999759554863}
},
{{
-0.0977291390299797,0.021108468994498253,0.22750236093997955},
{
-0.13829763233661652,-0.1871589571237564,-0.21154287457466125},
{
0.10569403320550919,0.035013388842344284,-0.005204407032579184}
},
{{
0.07667350023984909,-0.06279726326465607,-0.05845975503325462},
{
-0.02517617866396904,0.10451096296310425,0.07401598244905472},
{
-0.23697853088378906,-0.07982347160577774,0.024762742221355438}
},
{{
0.20209279656410217,-0.18884499371051788,-0.3649885356426239},
{
0.013414713554084301,0.08908240497112274,-0.031621627509593964},
{
-0.0436566099524498,0.11082029342651367,0.17138563096523285}
}
},
{{{
-0.26430416107177734,-0.2057335078716278,0.02172594889998436},
{
0.0886789858341217,0.09372016042470932,0.2351665198802948},
{
0.3012493848800659,0.3360149562358856,0.3477265536785126}
},
{{
-0.08623909205198288,-0.015559688210487366,-0.10189732164144516},
{
-0.09143494814634323,-0.16760514676570892,-0.14356936514377594},
{
-0.017637869343161583,-0.2677667438983917,-0.20377084612846375}
},
{{
-0.019536364823579788,0.03304237127304077,0.027826284989714622},
{
-0.1709081083536148,-0.21019399166107178,-0.10337227582931519},
{
-0.024001996964216232,-0.05484655126929283,0.12182684987783432}
},
{{
-0.05077161639928818,-0.13184280693531036,-0.050003428012132645},
{
0.007472708355635405,0.052171867340803146,-0.037553414702415466},
{
0.05105798691511154,-0.15160849690437317,-0.15994171798229218}
},
{{
0.00309586338698864,0.1435457468032837,0.02804320864379406},
{
-0.04286498203873634,0.02986975573003292,0.09627310931682587},
{
0.030636407434940338,0.014570696279406548,-0.03526968136429787}
},
{{
-0.0437464714050293,-0.06911767274141312,-0.08878669142723083},
{
-0.14553679525852203,-0.08505359292030334,-0.028755497187376022},
{
-0.12252578139305115,-0.030444715172052383,0.18694238364696503}
},
{{
7.930145790960149e-18,4.556462086598575e-40,-1.200460000355003e-21},
{
1.0761659204471542e-24,2.5705419029574444e-41,2.6240712352453473e-36},
{
6.441166482161524e-40,-5.220537428842106e-40,-4.551977931512736e-40}
},
{{
0.0404687225818634,0.14682389795780182,0.1068631112575531},
{
-0.0015670207794755697,-0.1171274334192276,-0.07096008211374283},
{
-0.04509950429201126,-0.05505747348070145,-0.21648521721363068}
},
{{
-0.057424020022153854,-0.12377218157052994,-0.022144509479403496},
{
0.041684966534376144,0.047773685306310654,-0.05930279567837715},
{
0.09183048456907272,-0.07217225432395935,-0.0019560810178518295}
},
{{
-0.4205463230609894,-0.3685208261013031,-0.24578039348125458},
{
-0.12806323170661926,-0.14676661789417267,-0.08909288048744202},
{
0.06246574595570564,0.04863884672522545,0.13194890320301056}
},
{{
-0.13954675197601318,0.04602377489209175,0.06308965384960175},
{
-0.035211071372032166,0.15213093161582947,0.13797976076602936},
{
0.053955722600221634,0.050670355558395386,0.012634890154004097}
},
{{
-0.129700168967247,-0.02722020260989666,0.07024691998958588},
{
-0.11106446385383606,0.009640263393521309,0.17992958426475525},
{
0.022880105301737785,0.22862474620342255,-0.04264170676469803}
},
{{
-0.13258811831474304,-0.03247090056538582,0.1527937799692154},
{
0.09696485847234726,0.20009315013885498,-0.01059915404766798},
{
0.06622636318206787,0.12713558971881866,0.020999548956751823}
},
{{
-0.16798366606235504,-0.21529076993465424,-0.10242930054664612},
{
-0.13298708200454712,-0.07461784034967422,-0.10914240032434464},
{
0.009686747565865517,-0.19203242659568787,-0.0774066150188446}
},
{{
0.0045954203233122826,0.05589297041296959,0.056763797998428345},
{
0.004356370773166418,0.03707356005907059,-0.030684182420372963},
{
-0.02487732470035553,-0.009889517910778522,0.0012560629984363914}
},
{{
0.1405748873949051,-0.00709115993231535,-0.2536543905735016},
{
-0.0532161109149456,-0.044190675020217896,-0.11564968526363373},
{
-0.10345366597175598,-0.08323077857494354,-0.07243454456329346}
}
},
{{{
0.05327266454696655,0.02186598815023899,0.018395695835351944},
{
0.000558599189389497,-0.037502337247133255,0.07676482200622559},
{
-0.04632861167192459,-0.13708414137363434,-0.023824434727430344}
},
{{
0.007914268411695957,0.035064857453107834,0.04285971447825432},
{
-0.09840257465839386,0.004015783313661814,0.06292688846588135},
{
-0.027684103697538376,-0.011400017887353897,-0.028156954795122147}
},
{{
-0.1354086995124817,-0.07409748435020447,-0.1808231770992279},
{
-0.1851511150598526,-0.00028274819487705827,-0.2947346568107605},
{
-0.16335923969745636,-0.006455285474658012,-0.4867146909236908}
},
{{
-0.03107481263577938,-0.032985299825668335,0.129947230219841},
{
-0.09660090506076813,-0.08912356942892075,0.069427490234375},
{
0.038403309881687164,-0.20531021058559418,0.06901805847883224}
},
{{
0.1610392928123474,0.21523351967334747,-0.09857799857854843},
{
0.16511160135269165,0.2335720807313919,-0.06042185425758362},
{
0.11523718386888504,-0.004176525864750147,-0.16516149044036865}
},
{{
-0.11074336618185043,-0.022478634491562843,0.10206359624862671},
{
-0.05765550211071968,-0.02527434565126896,0.09311819076538086},
{
-0.17235887050628662,-0.09497156739234924,0.02235035039484501}
},
{{
5.55726944981936e-41,2.2160554304371955e-40,5.586318366984813e-40},
{
-3.0896949580205027e-40,-3.4299021991892818e-40,-1.0226227777133931e-39},
{
-7.81351412021339e-40,-2.908521079567947e-40,1.671258613476993e-40}
},
{{
0.0022998868953436613,-0.13798195123672485,-0.029889730736613274},
{
-0.11471711099147797,-0.07115090638399124,-0.0569395050406456},
{
-0.14914679527282715,-0.10058391094207764,-0.11569978296756744}
},
{{
-0.06251870840787888,0.024935154244303703,0.2081587314605713},
{
-0.0786675214767456,-0.08156786113977432,0.16642405092716217},
{
0.04081382602453232,-0.09080756455659866,0.20049402117729187}
},
{{
-0.20284071564674377,0.044369716197252274,-0.0766974538564682},
{
-0.19816815853118896,0.2152053713798523,0.0037215196061879396},
{
-0.17063011229038239,0.09381969273090363,0.033219464123249054}
},
{{
0.030445244163274765,-0.11166026443243027,0.04954652488231659},
{
-0.06928349286317825,0.019449492916464806,0.010574226267635822},
{
0.018208665773272514,-0.11615173518657684,-0.022650200873613358}
},
{{
0.0277787484228611,-0.0107799107208848,-0.050003137439489365},
{
0.058461666107177734,0.05831591412425041,0.040966685861349106},
{
-0.0017003591638058424,0.13609394431114197,-0.09719052910804749}
},
{{
0.05151790380477905,-0.10192656517028809,-0.08122001588344574},
{
0.07663938403129578,-0.06959133595228195,0.013674186542630196},
{
0.09417169541120529,-0.03218456357717514,-0.08112411946058273}
},
{{
-0.007104076910763979,1.627695564820897e-05,0.15234385430812836},
{
0.017304228618741035,-0.028480684384703636,0.20931361615657806},
{
0.017611410468816757,-0.08842696994543076,0.020841587334871292}
},
{{
0.02814396098256111,-0.1379675418138504,0.16324204206466675},
{
0.18098773062229156,-0.10860395431518555,0.10417098551988602},
{
0.04932079836726189,-0.13639576733112335,0.008447663858532906}
},
{{
-0.15834274888038635,-0.17574431002140045,0.07901906222105026},
{
0.006127761211246252,-0.13942094147205353,-0.06375385075807571},
{
-0.028859954327344894,-0.13627250492572784,0.017441526055336}
}
},
{{{
-0.016512561589479446,-0.06472519785165787,0.03118789941072464},
{
-0.08836086839437485,0.030057618394494057,0.07066227495670319},
{
0.08974556624889374,0.07706604152917862,0.06987524032592773}
},
{{
-0.011747237294912338,-0.0945485457777977,-0.03455669805407524},
{
-0.11293529719114304,0.02603197656571865,-0.01164527889341116},
{
-0.023958951234817505,0.14865587651729584,-0.059095900505781174}
},
{{
0.06891535967588425,-0.01960376463830471,0.0753384456038475},
{
0.03162955865263939,0.1451256275177002,-0.041002269834280014},
{
0.03757062926888466,0.05012327805161476,0.03215901553630829}
},
{{
0.033470045775175095,0.013316984288394451,-0.06787186115980148},
{
0.006599811837077141,0.061110999435186386,0.21561424434185028},
{
-0.02382175251841545,-0.013242410495877266,0.09942932426929474}
},
{{
0.03676977381110191,0.13480490446090698,0.05568334832787514},
{
-0.11305307596921921,0.10187006741762161,0.1837618499994278},
{
-0.026129400357604027,0.06910735368728638,0.054289963096380234}
},
{{
0.015239293687045574,-0.07474969327449799,0.09645996242761612},
{
-0.11700128763914108,-0.16673707962036133,-0.0830867737531662},
{
-0.032824501395225525,-0.05859297886490822,-0.058927811682224274}
},
{{
-4.2257051973138005e-05,-4.0014285332290456e-05,-0.00019721996795851737},
{
-0.0003250030567869544,-0.00026666861958801746,-0.00027375537320040166},
{
-6.81129859003704e-06,-3.989977059859484e-08,-2.4972823666757904e-06}
},
{{
0.03574206307530403,-0.043283961713314056,0.04375109076499939},
{
0.08163920044898987,0.013479823246598244,0.00532980402931571},
{
0.10874073952436447,0.12458200007677078,0.05085926875472069}
},
{{
-0.08832129091024399,-0.17246383428573608,-0.09129226952791214},
{
-0.12986621260643005,-0.2934926152229309,0.18788133561611176},
{
0.013913118280470371,-0.127163827419281,0.20709626376628876}
},
{{
-0.0026299788150936365,-0.03962363302707672,-0.029683217406272888},
{
-0.12550799548625946,0.061555035412311554,0.12422062456607819},
{
0.07765445858240128,0.0852077528834343,0.13240192830562592}
},
{{
0.11531113088130951,-0.11389540880918503,0.04195675998926163},
{
0.1408163160085678,-0.027593526989221573,0.053457111120224},
{
0.08444157242774963,0.06284236162900925,0.15853290259838104}
},
{{
0.006354099605232477,0.08320502191781998,-0.14642183482646942},
{
0.11027951538562775,-0.020772771909832954,-0.14960841834545135},
{
0.040467388927936554,-0.04700721800327301,-0.10195302963256836}
},
{{
0.054135821759700775,0.007073580287396908,-0.04660281538963318},
{
-0.03025965765118599,-0.08628078550100327,0.006961064413189888},
{
0.05659640580415726,-0.016358891502022743,-0.09529977291822433}
},
{{
0.11112981289625168,-0.05068323016166687,0.0399416908621788},
{
0.09448663145303726,-0.05332811921834946,0.1835489720106125},
{
-0.002038511447608471,-0.07026369124650955,-0.005116152111440897}
},
{{
0.1561000496149063,-0.05848947539925575,0.2785145938396454},
{
0.01808442361652851,0.005692943464964628,-0.002219902817159891},
{
-0.15022103488445282,-0.0830468237400055,-0.1477789282798767}
},
{{
-0.1867820769548416,-0.07361246645450592,0.05403777211904526},
{
0.015248090960085392,-0.08501281589269638,0.010096617043018341},
{
0.15004190802574158,0.14989466965198517,0.14345839619636536}
}
},
{{{
0.07449280470609665,0.0387774296104908,0.049768198281526566},
{
0.11900236457586288,0.11323785036802292,0.0062982263043522835},
{
0.1008196547627449,0.014876498840749264,-0.019970476627349854}
},
{{
-0.02041013538837433,-0.0038085286505520344,-0.02535705268383026},
{
0.1146402433514595,0.002609472256153822,0.053360797464847565},
{
0.09149743616580963,0.013099445961415768,-0.008398791775107384}
},
{{
0.059111230075359344,-4.3941465264651924e-05,0.03794025629758835},
{
0.10338610410690308,0.1806657612323761,-0.01988745480775833},
{
0.056145407259464264,0.012378057464957237,-0.07917828112840652}
},
{{
-0.05024006962776184,0.048404913395643234,0.07379285246133804},
{
-0.06911462545394897,-0.13135291635990143,-0.06102624535560608},
{
0.025228362530469894,0.02136598713696003,-0.014146221801638603}
},
{{
-0.062390077859163284,0.0327947773039341,-0.009172535501420498},
{
-0.19504712522029877,-0.17053310573101044,-0.013113109394907951},
{
-0.25815650820732117,-0.03915094956755638,0.053101349622011185}
},
{{
0.022888120263814926,0.012239446863532066,-0.018487825989723206},
{
0.10535434633493423,-0.02935018017888069,-0.03661172837018967},
{
0.09294009208679199,0.11723881959915161,0.02416953258216381}
},
{{
-0.00014648814976681024,-0.00035439737257547677,-0.0012785749277099967},
{
-1.372867791360477e-05,-9.354124631499872e-05,-0.0003145177033729851},
{
-5.452721173887509e-12,-7.03473940883402e-14,-9.086411267844596e-08}
},
{{
-0.05143171548843384,-0.19838309288024902,-0.11826575547456741},
{
-0.08855981379747391,-0.09465832263231277,-0.05077410861849785},
{
-0.007600024808198214,-0.06215642765164375,-0.06501785665750504}
},
{{
-0.034374404698610306,-0.08871035277843475,0.14056728780269623},
{
-0.030602574348449707,-0.08310160040855408,-0.0286736898124218},
{
0.0004418430617079139,-0.07355355471372604,-0.0013915975578129292}
},
{{
0.14250417053699493,0.24037127196788788,0.16807520389556885},
{
0.08982804417610168,0.10348466038703918,0.2030828595161438},
{
0.0857274979352951,0.037516508251428604,-0.02968689054250717}
},
{{
-0.03809266537427902,-0.07835475355386734,-0.06673584878444672},
{
-0.09401242434978485,-0.12758739292621613,-0.033285513520240784},
{
-0.11009544879198074,-0.09906605631113052,-0.050863392651081085}
},
{{
-0.0080565195530653,0.03248109295964241,0.0017770406557247043},
{
0.10606057941913605,-0.05545125901699066,0.015076941810548306},
{
-0.00966013502329588,-0.11230858415365219,-0.008113490417599678}
},
{{
-0.04924832284450531,0.020860154181718826,-0.052998125553131104},
{
0.0992756113409996,-0.0628671646118164,0.023505698889493942},
{
0.03795269504189491,0.07232192903757095,-0.04374304041266441}
},
{{
0.03083702176809311,0.08194953203201294,0.02024124562740326},
{
0.004936456214636564,0.06988687813282013,-0.0013473604340106249},
{
0.028250668197870255,0.09249773621559143,0.08623898029327393}
},
{{
0.12034227699041367,0.05021077021956444,-0.004329361487179995},
{
0.13959024846553802,0.00949187483638525,0.15073683857917786},
{
0.134389728307724,-0.004588918294757605,0.0011374097084626555}
},
{{
-0.04160967841744423,-0.12622672319412231,0.038966480642557144},
{
0.1058310866355896,-0.03824739530682564,0.012367235496640205},
{
-0.009732410311698914,0.0157974474132061,0.03355565294623375}
}
},
{{{
0.002766446443274617,-0.14307095110416412,-0.00531634408980608},
{
-0.02597843110561371,-0.02100071869790554,-0.007409784477204084},
{
0.05215469375252724,0.0870099663734436,0.0008727668900974095}
},
{{
-0.08169082552194595,-0.0668836310505867,-0.22569400072097778},
{
-0.051179930567741394,0.05044163763523102,-0.06636080890893936},
{
-0.2538679242134094,0.02371032163500786,-0.14864681661128998}
},
{{
0.055666375905275345,0.0704464465379715,-0.06375166773796082},
{
-0.10070063173770905,-0.1759554147720337,-0.22531788051128387},
{
0.08478251844644547,0.0717439204454422,-0.06535869836807251}
},
{{
-0.02137417532503605,-0.05306975916028023,-0.04659079387784004},
{
0.0576113685965538,0.06736215949058533,-0.03727692738175392},
{
-0.06937837600708008,-0.031786683946847916,-0.09396210312843323}
},
{{
0.18972961604595184,0.12333985418081284,0.011322607286274433},
{
0.1622653305530548,0.16737228631973267,-0.032214608043432236},
{
0.15572963654994965,0.15776897966861725,0.1456301361322403}
},
{{
-0.2690041959285736,-0.4916231632232666,-0.20150943100452423},
{
-0.1892406940460205,-0.3745925724506378,-0.14879538118839264},
{
-0.12173622846603394,-0.12540540099143982,0.02786226011812687}
},
{{
1.0016873786563803e-39,6.476381112570007e-41,-1.2942756954104735e-39},
{
2.826068677927075e-40,5.364394729189692e-40,2.954819980829239e-40},
{
4.477568983057088e-41,2.7005123355235712e-40,-2.496889655672532e-40}
},
{{
-0.11653455346822739,0.018232522532343864,-0.20220287144184113},
{
-0.14451219141483307,-0.09240776300430298,-0.23134954273700714},
{
0.10693597793579102,0.18527230620384216,0.16579976677894592}
},
{{
-0.16326002776622772,-0.19704769551753998,-0.01697636768221855},
{
-0.04120033606886864,-0.06777793914079666,-0.008996903896331787},
{
-0.22916536033153534,-0.1776450276374817,-0.04802580922842026}
},
{{
-0.07268830388784409,0.0205189511179924,-0.057395871728658676},
{
0.028716208413243294,0.04987472668290138,0.019638502970337868},
{
-0.09932083636522293,-0.04792987182736397,-0.03873937949538231}
},
{{
-0.14757870137691498,-0.03345528617501259,-0.23167940974235535},
{
-0.058944329619407654,-0.11232815682888031,-0.18898378312587738},
{
-0.0812595784664154,0.0010568260913714767,-0.2307652086019516}
},
{{
-0.08549414575099945,-0.010336576960980892,-0.1248069554567337},
{
-0.054572537541389465,0.08706473559141159,-0.020743826404213905},
{
-0.15404805541038513,-0.15437403321266174,-0.1755254715681076}
},
{{
-0.13330812752246857,-0.14354006946086884,-0.10132963955402374},
{
0.03527316078543663,0.08424090594053268,-0.10308191925287247},
{
-0.02827439084649086,-0.06513647735118866,-0.09613949805498123}
},
{{
-0.06028057634830475,0.06507799029350281,-0.10541179031133652},
{
-0.06786613166332245,0.04247773066163063,-0.07756908982992172},
{
-0.021135354414582253,0.10888547450304031,-0.056265201419591904}
},
{{
0.06502961367368698,0.03126569092273712,-0.17425040900707245},
{
0.11776471138000488,0.10367821902036667,-0.12354625016450882},
{
-0.04581122845411301,-0.03612891584634781,-0.10330657660961151}
},
{{
-0.19363965094089508,-0.22463195025920868,-0.34206801652908325},
{
-0.05449604615569115,-0.06658964604139328,-0.23531019687652588},
{
-0.25879403948783875,-0.2528868019580841,-0.057125721126794815}
}
},
{{{
0.21122458577156067,0.02945525571703911,0.04778335615992546},
{
0.1492146998643875,0.18347075581550598,0.1253945678472519},
{
0.02783386968076229,0.046130210161209106,-0.0323089100420475}
},
{{
0.05205385386943817,-0.046859532594680786,-0.09505681693553925},
{
-0.09589598327875137,0.010915483348071575,0.008229420520365238},
{
-0.00280858320184052,0.05291253700852394,0.03723777458071709}
},
{{
-0.12304604798555374,0.03370736166834831,0.07019689679145813},
{
-0.09236349165439606,0.11171416193246841,-0.16657611727714539},
{
0.027511321008205414,0.08456963300704956,0.033939704298973083}
},
{{
0.10731526464223862,-0.023968152701854706,-0.13065627217292786},
{
-0.1300124078989029,0.013016963377594948,0.09846820682287216},
{
-0.04520828276872635,-0.07181759923696518,-0.04557685926556587}
},
{{
0.06905565410852432,-0.015396433882415295,-0.0700722336769104},
{
0.05908098816871643,0.12093951553106308,-0.03887166082859039},
{
0.01328811701387167,0.1898193359375,-0.09004894644021988}
},
{{
-0.08715448528528214,-0.011147557757794857,0.23444318771362305},
{
-0.0311293825507164,0.06056619808077812,0.035275693982839584},
{
-0.04469064995646477,-0.10933075845241547,-0.12838543951511383}
},
{{
-0.0009456664556637406,-0.0011925746221095324,-0.0016772178933024406},
{
-0.0022486455272883177,-0.0016753444215282798,-0.0024636404123157263},
{
-0.002890855772420764,-0.0034573539160192013,-0.003950187005102634}
},
{{
-0.03629380092024803,-0.09867246448993683,-0.11809587478637695},
{
0.07212146371603012,-0.06201790273189545,-0.09470786154270172},
{
0.018060145899653435,-0.10778100043535233,-0.04882191866636276}
},
{{
0.06871598213911057,-0.0026047087740153074,0.08549298346042633},
{
-0.10445933043956757,0.03447712957859039,0.1805299073457718},
{
-0.016670579090714455,-0.004346213769167662,0.1922547072172165}
},
{{
0.26243457198143005,-0.0025913917925208807,-0.16395534574985504},
{
0.15046252310276031,0.09956094622612,-0.12830545008182526},
{
-0.0020130551420152187,-0.05636337772011757,-0.039695121347904205}
},
{{
0.050519876182079315,-0.09609296172857285,0.11010851711034775},
{
0.008915388025343418,-0.10779950022697449,0.022687863558530807},
{
-0.007255603559315205,0.07126617431640625,0.07233066111803055}
},
{{
0.06355497986078262,0.017471689730882645,-0.19505071640014648},
{
0.023244958370923996,-0.12167076021432877,-0.06916885823011398},
{
-0.11105334013700485,-0.07955652475357056,-0.11213535070419312}
},
{{
0.09918584674596786,0.02522420696914196,-0.02756561152637005},
{
-0.09116999059915543,0.06506196409463882,0.13268376886844635},
{
-0.09327288717031479,-0.1313362568616867,-0.1242930069565773}
},
{{
0.04412660002708435,-0.1721721738576889,-0.13549906015396118},
{
-0.0731213390827179,-0.05459129065275192,-0.029390836134552956},
{
-0.08412998914718628,-0.12375109642744064,-0.03725070506334305}
},
{{
0.0393543615937233,-0.05436062067747116,0.02762148715555668},
{
0.0245346799492836,-0.09175699204206467,-0.004016046412289143},
{
-0.06391910463571548,0.08329465240240097,-0.03792563080787659}
},
{{
-0.042399972677230835,-0.042857635766267776,0.04153643921017647},
{
0.13801787793636322,-0.01858670264482498,-0.08381795138120651},
{
0.046995859593153,-0.017174310982227325,-0.0394720658659935}
}
},
{{{
0.11660503596067429,0.15869541466236115,0.15378719568252563},
{
-0.16233573853969574,-0.12241676449775696,-0.04946043714880943},
{
-0.04129030555486679,-0.037477150559425354,-0.017852352932095528}
},
{{
0.023974236100912094,0.0390910878777504,0.017496511340141296},
{
-0.10578854382038116,-0.09256360679864883,-0.058740321546792984},
{
-0.27106860280036926,-0.25237542390823364,-0.20457050204277039}
},
{{
-0.07924448698759079,-0.10611934959888458,-0.10723358392715454},
{
-0.08831348270177841,-0.1410462111234665,-0.23165345191955566},
{
-0.3370825946331024,-0.29031455516815186,-0.27362582087516785}
},
{{
0.02540726400911808,0.03556256741285324,0.008671647869050503},
{
-0.03240560367703438,-0.08824216574430466,0.0486312061548233},
{
-0.026813896372914314,0.09031664580106735,0.05648406222462654}
},
{{
-0.008721088990569115,-0.03414616733789444,0.05609980225563049},
{
0.16073746979236603,0.25800761580467224,0.2653747797012329},
{
0.17911040782928467,0.14110411703586578,0.10764619708061218}
},
{{
0.1009180098772049,0.14069399237632751,0.09799367189407349},
{
-0.253803551197052,-0.1950545310974121,-0.268915593624115},
{
-0.2784234881401062,-0.26705965399742126,-0.30558446049690247}
},
{{
7.004152153188663e-40,-3.0131840618683677e-40,-5.880549005539095e-40},
{
-8.569921018271284e-41,2.8078658108754955e-40,-1.1209659039397088e-39},
{
6.235511919537214e-40,4.830892377851947e-40,7.104176837572168e-40}
},
{{
-0.11505406349897385,-0.02605195716023445,0.015359941869974136},
{
-0.21719835698604584,-0.2718883156776428,-0.07635129243135452},
{
-0.39943602681159973,-0.3352122902870178,-0.2092917263507843}
},
{{
-0.26702365279197693,-0.41264864802360535,-0.34283044934272766},
{
-0.06620670855045319,-0.1360323280096054,-0.22166737914085388},
{
-0.23455944657325745,-0.2660350501537323,-0.3481675088405609}
},
{{
0.15739326179027557,0.1908481866121292,0.17074543237686157},
{
-0.19404610991477966,-0.27996593713760376,-0.21782831847667694},
{
-0.07563057541847229,0.005532972980290651,0.06481357663869858}
},
{{
-0.13634823262691498,-0.022619005292654037,-0.012812667526304722},
{
-0.05681811645627022,-0.1563492715358734,-0.1256544440984726},
{
-0.12851449847221375,-0.11933945119380951,-0.14576362073421478}
},
{{
0.13276053965091705,0.10967519134283066,0.08590207248926163},
{
-0.13222452998161316,-0.13199657201766968,0.07352453470230103},
{
-0.05135593190789223,0.06193694844841957,0.10584636777639389}
},
{{
0.03937443345785141,0.07149448245763779,-0.018669094890356064},
{
-0.08320683240890503,-0.10412923991680145,-0.04168408736586571},
{
0.06908786296844482,0.04093772917985916,0.11250800639390945}
},
{{
-0.08618780225515366,-0.06966026872396469,0.027215685695409775},
{
-0.12314312905073166,-0.0769801139831543,-0.0366540364921093},
{
0.028174256905913353,-0.014885790646076202,0.01484458427876234}
},
{{
-0.07639496773481369,-0.17107734084129333,-0.08055458217859268},
{
0.07453417032957077,0.12719765305519104,0.06747351586818695},
{
0.1050083115696907,-0.0282424408942461,0.11839151382446289}
},
{{
0.07747328281402588,0.0030904817394912243,0.11711203306913376},
{
-0.17851628363132477,-0.16155245900154114,-0.21488291025161743},
{
-0.20500344038009644,-0.07261043787002563,-0.09237857908010483}
}
},
{{{
4.904348443351854e-40,-7.129862638423242e-40,7.651033563274928e-40},
{
-4.3493081346174375e-40,3.813367523951768e-40,-5.7025000226619836e-40},
{
7.885919211865054e-40,5.61313921959199e-40,-6.110361953688365e-41}
},
{{
-2.349108719624837e-40,-6.2036976847832784e-27,-1.3740432091936994e-40},
{
-1.2768211217388436e-40,-2.7589806731684456e-38,-7.143903649035777e-40},
{
-4.917506635931864e-40,-3.7334157990477643e-29,-2.7583018841923267e-40}
},
{{
-8.341074966062398e-40,5.350017406945719e-40,4.371420624384483e-40},
{
-5.347234953325573e-29,-7.496076844301049e-29,-3.8952734191915535e-40},
{
-2.720635661803474e-27,-9.908167771260208e-20,-2.670966399882118e-21}
},
{{
-1.4134500994814574e-16,-3.7566750302741594e-16,-8.486516569950054e-18},
{
-1.6094531914645047e-28,-4.163191404299678e-33,-3.4496389296384957e-32},
{
-5.615616399912051e-24,6.947124978146826e-36,-4.843794132812986e-39}
},
{{
2.8272317556524644e-40,2.460119583968649e-40,2.058311262308151e-40},
{
-7.808959900204335e-40,3.003262868740948e-41,6.623769685047691e-40},
{
3.24041862084328e-40,8.204602508621804e-41,-1.2976023779647806e-42}
},
{{
-2.7992714069175224e-32,-6.461961751372105e-40,5.239637126910853e-40},
{
3.581802952722092e-40,-2.1181607197194637e-40,4.8547845166686855e-40},
{
-1.6902144799318072e-23,-1.0420756029951502e-40,9.67190213061632e-41}
},
{{
-2.3140902710013597e-40,-9.388265308452334e-40,1.2391037722730768e-39},
{
-9.895255092845052e-40,7.7774867366956e-41,-1.887676549605782e-39},
{
1.1888223807761737e-39,-2.0779995057319145e-40,5.1975841599964655e-40}
},
{{
-3.0091882174103927e-24,-3.484167458134608e-17,-7.919867327789444e-32},
{
1.0447693022175402e-36,-3.4210480844005566e-20,3.873740506469353e-37},
{
-2.2657314609975102e-40,-2.3098478353205724e-19,3.306401294825715e-35}
},
{{
-5.663642646252359e-24,2.532244415927447e-40,1.389723739009494e-40},
{
-4.3146542081984334e-19,-1.3688023529371246e-40,-5.671615404508265e-41},
{
-1.9308012699708692e-20,-8.029440200581202e-41,2.5900900165347756e-40}
},
{{
-6.546262389798853e-19,-1.6246667910741613e-15,-4.796537939646657e-16},
{
-6.637292009710858e-23,-1.8724318839691757e-19,-6.313216272180314e-20},
{
-5.022444833250678e-38,-1.6786773247898526e-27,-2.06837850234752e-25}
},
{{
-2.0907362941472362e-15,-1.629704392977985e-27,3.723852578050699e-40},
{
-2.203441862834183e-15,-1.0725851652447485e-17,6.622802789107307e-40},
{
-1.1450225262301522e-15,-2.13989448651585e-15,-1.694029687370773e-24}
},
{{
-2.5227007326063166e-38,-5.247523646344159e-24,-2.8706720080465338e-40},
{
1.99592545467641e-40,7.452833908480826e-40,7.115681497964275e-40},
{
7.0190339428797925e-40,2.180513322182794e-35,-5.97077861365697e-40}
},
{{
-1.9478889433193552e-40,-1.88964197296852e-25,6.688579739022714e-40},
{
-6.50447714677972e-40,-4.3927343740268636e-40,2.0193972039538506e-40},
{
-6.841993894896995e-40,-3.544374270739976e-40,2.6718417689434855e-40}
},
{{
-6.122447106957294e-25,-1.957332538818882e-19,3.1187158492166696e-40},
{
5.305694336519125e-40,-1.0496145887332177e-39,-6.144833895910755e-40},
{
6.503930640378633e-40,1.528146530378968e-35,-9.768171335115435e-41}
},
{{
7.063763389861041e-40,3.5754550706787005e-40,1.0724302500696615e-38},
{
-4.095112593188916e-40,5.2307809206163204e-40,1.9698072914125932e-33},
{
-4.448124910661843e-28,5.87095011105847e-40,-5.185126616648618e-40}
},
{{
-4.05679382773326e-14,-1.1145792811915675e-13,-2.16506749837997e-18},
{
-8.571127720874992e-23,6.409401888929605e-35,-2.752164196918584e-40},
{
-1.6424129485089607e-21,-3.6889686536322145e-20,-1.6661460304951037e-26}
}
},
{{{
0.28792232275009155,0.3347514271736145,0.21068523824214935},
{
-0.004009520635008812,0.13530144095420837,0.19678424298763275},
{
0.18271920084953308,0.1728830337524414,-0.05740915983915329}
},
{{
-0.006511270068585873,0.00012811229680664837,0.03252514451742172},
{
0.030360009521245956,-0.10432234406471252,-0.029859764501452446},
{
0.01663140580058098,0.0395192876458168,0.036198943853378296}
},
{{
0.049710556864738464,-0.2762850821018219,-0.33702903985977173},
{
0.03051767311990261,-0.31801676750183105,-0.24209679663181305},
{
-0.006000371649861336,-0.043728433549404144,-0.05858911573886871}
},
{{
0.04768935590982437,0.1997036188840866,0.06566394120454788},
{
0.02643558382987976,0.053477682173252106,0.06946833431720734},
{
-0.14462114870548248,-0.08052962273359299,0.09752701967954636}
},
{{
-0.07649415731430054,-0.07665880769491196,-0.188069686293602},
{
0.009513115510344505,0.06020268425345421,-0.11573252826929092},
{
-0.10145673900842667,0.2025841325521469,0.18248024582862854}
},
{{
-0.14988639950752258,-0.18030139803886414,-0.03240572661161423},
{
-0.15052442252635956,-0.0836624950170517,0.09574186056852341},
{
-0.057501647621393204,-0.031291861087083817,0.07016566395759583}
},
{{
1.243592873123589e-08,1.1251726019296119e-40,2.798455369344699e-13},
{
4.41729708366978e-10,2.2013137705924984e-40,1.9338290216236583e-22},
{
2.1138977070525589e-13,7.62308145282971e-32,1.4655036082236728e-12}
},
{{
0.07037778198719025,0.07077859342098236,0.009564963169395924},
{
0.03866279870271683,-0.027713103219866753,-0.034576140344142914},
{
-0.09704370051622391,-0.006064020097255707,-0.15926292538642883}
},
{{
-0.04908081516623497,0.0565902404487133,-0.1705271303653717},
{
0.13439859449863434,0.05158356577157974,-0.12854105234146118},
{
0.09167082607746124,0.05300424247980118,0.01181881409138441}
},
{{
-0.03538283333182335,-0.08795217424631119,-0.1698385328054428},
{
0.06267043948173523,0.1375511735677719,0.03356826305389404},
{
0.0426158644258976,0.20397759974002838,0.07675381004810333}
},
{{
-0.12747763097286224,-0.0911811962723732,0.09820801764726639},
{
-0.0012632686411961913,0.014167075976729393,-0.05771176517009735},
{
0.055873434990644455,0.05523322895169258,0.09540072828531265}
},
{{
-0.08477839082479477,0.019607869908213615,0.206847682595253},
{
-0.05969571694731712,-0.014295916073024273,0.019106818363070488},
{
0.06603303551673889,-0.020784754306077957,-0.07765334844589233}
},
{{
0.09446245431900024,0.15763811767101288,0.051147185266017914},
{
0.07225888967514038,-0.08165465295314789,0.05347881093621254},
{
0.05803152918815613,-0.10215788334608078,-0.07846955955028534}
},
{{
-0.04479936510324478,0.09818773716688156,0.049728669226169586},
{
0.0900665670633316,0.11469395458698273,0.14161129295825958},
{
-0.08069847524166107,-0.10162120312452316,0.16645316779613495}
},
{{
-0.008673639968037605,-0.14663517475128174,0.02123061753809452},
{
-0.016533175483345985,-0.32921358942985535,-0.11818301677703857},
{
-0.03216368332505226,-0.030115224421024323,-0.026279296725988388}
},
{{
0.06255621463060379,-0.1324826329946518,-0.059367477893829346},
{
0.027953360229730606,-0.16505897045135498,-0.1620188057422638},
{
0.07798223942518234,-0.0004013321013189852,-0.22005566954612732}
}
},
{{{
0.1032034158706665,0.1604202687740326,0.17536556720733643},
{
-0.16324837505817413,0.0057007428258657455,-0.14552074670791626},
{
-0.01629444770514965,-0.2112017422914505,-0.045321859419345856}
},
{{
-0.1868448704481125,-0.014646586030721664,-0.02017982117831707},
{
-0.07380694895982742,0.00967784970998764,0.04521899297833443},
{
0.2686521112918854,-0.2723143696784973,0.06919441372156143}
},
{{
-0.09648352116346359,0.06469632685184479,0.05437017232179642},
{
0.2379613220691681,0.05193011835217476,-0.03143254667520523},
{
-0.15594454109668732,-0.40797489881515503,0.10626498609781265}
},
{{
0.0923207625746727,0.03992469236254692,0.009961985982954502},
{
-0.06569244712591171,0.11733363568782806,-0.013628850691020489},
{
-0.07105979323387146,0.02250959910452366,-0.2954416871070862}
},
{{
0.031113404780626297,-0.0611855648458004,0.062162499874830246},
{
0.060685671865940094,0.05634075403213501,0.236817866563797},
{
0.08543488383293152,-0.3210224509239197,-0.15793851017951965}
},
{{
-0.08323390781879425,0.1715216487646103,0.03273092210292816},
{
0.18780775368213654,0.13190914690494537,-0.2705852687358856},
{
-0.04371779039502144,0.0758071020245552,0.12005387246608734}
},
{{
-4.040028294544085e-12,-2.1034695237176493e-05,-1.5617356297070728e-08},
{
-1.0243117273531223e-21,-5.1779543975431705e-24,-4.292980822970916e-16},
{
8.652159522171132e-07,9.219415915140416e-07,-5.501860012486338e-20}
},
{{
-0.009061268530786037,-0.11085942387580872,-0.043232448399066925},
{
0.09544429183006287,-0.015193772502243519,0.032871369272470474},
{
-0.05290694907307625,-0.1789579689502716,0.0037400387227535248}
},
{{
0.0029088554438203573,-0.20277413725852966,-0.03216933086514473},
{
-0.1566503345966339,-0.06784554570913315,-0.10327067971229553},
{
0.09496297687292099,0.13259507715702057,-0.23502826690673828}
},
{{
-0.057320185005664825,0.04893376678228378,0.07121970504522324},
{
0.05501016974449158,0.069212406873703,0.06987293064594269},
{
0.2746486961841583,-0.09417299926280975,0.16392062604427338}
},
{{
0.07001300901174545,0.08189515769481659,-0.09985456615686417},
{
-0.1620190292596817,0.15938085317611694,-0.15871351957321167},
{
0.022308634594082832,0.19167880713939667,-0.01430907566100359}
},
{{
0.2744158208370209,-0.0027978888247162104,0.04412318766117096},
{
-0.06912124902009964,-0.29092320799827576,0.07689188420772552},
{
-0.1613570600748062,-0.061757441610097885,0.10239540785551071}
},
{{
-0.008001916110515594,-0.05460771545767784,0.03514789789915085},
{
-0.2239498794078827,0.12601815164089203,-0.030609112232923508},
{
0.028424205258488655,0.1396574079990387,-0.00744779733940959}
},
{{
0.04632667824625969,0.05312072113156319,0.029881279915571213},
{
-0.1402541846036911,0.2364889234304428,0.13257573544979095},
{
-0.14001795649528503,0.08355313539505005,-0.19411852955818176}
},
{{
0.00577848544344306,0.014917906373739243,-0.052525412291288376},
{
-0.040871310979127884,0.09451620280742645,-0.1959841251373291},
{
-0.0006305557326413691,0.07352215051651001,0.044963523745536804}
},
{{
-0.05418471619486809,-0.00109776109457016,0.0810844674706459},
{
0.06777623295783997,-0.03743033856153488,-0.19148385524749756},
{
-0.06607677042484283,0.12405994534492493,0.14642466604709625}
}
},
{{{
0.10554986447095871,-0.08022536337375641,-0.29130181670188904},
{
0.23317743837833405,-0.1571805328130722,-0.14488467574119568},
{
-0.11775819212198257,-0.20770157873630524,-0.3135226368904114}
},
{{
-0.1591862291097641,-0.07503200322389603,-0.07849001884460449},
{
0.19181647896766663,-0.07105191797018051,0.06093969941139221},
{
0.10031123459339142,-0.08699014782905579,0.0815964788198471}
},
{{
0.04291713982820511,0.09013967216014862,-0.006192909553647041},
{
-0.06068470701575279,-0.1641431748867035,0.21442273259162903},
{
-0.25952693819999695,-0.2397276610136032,0.13839738070964813}
},
{{
-0.09390123188495636,-0.0179028008133173,-0.0963902473449707},
{
0.19106034934520721,0.03481193631887436,-0.11432800441980362},
{
0.09349032491445541,-0.035900015383958817,-0.006894691847264767}
},
{{
-0.028465941548347473,-0.052195675671100616,0.05100877210497856},
{
0.13670305907726288,-0.1164131611585617,-0.0835275873541832},
{
0.15390154719352722,-0.21285869181156158,-0.14266590774059296}
},
{{
-0.06959883123636246,-0.04912234842777252,-0.2119707316160202},
{
-0.0937705785036087,-0.05056624487042427,0.016420576721429825},
{
0.020269863307476044,0.06469137966632843,0.12682832777500153}
},
{{
1.5449560011840768e-17,1.1567185118486141e-19,2.680563240044795e-15},
{
1.599257282158817e-09,7.3011765380215365e-06,1.642631586307175e-09},
{
1.6757752518969937e-07,7.375982931989711e-06,2.3730428973955047e-40}
},
{{
-0.14185485243797302,-0.07492652535438538,-0.1269555240869522},
{
-0.14553417265415192,-0.11392846703529358,-0.022943267598748207},
{
-0.11904982477426529,-0.14414082467556,-0.01819995790719986}
},
{{
-0.13929972052574158,-0.09740221500396729,-0.13646699488162994},
{
0.0010926618706434965,0.02037935145199299,-0.26354965567588806},
{
-0.030110390856862068,-0.20791314542293549,-0.18699227273464203}
},
{{
-0.11246340721845627,-0.005046321079134941,0.10993922501802444},
{
0.05791561305522919,-0.27367135882377625,-0.027368156239390373},
{
0.009371028281748295,-0.10112611204385757,-0.10815829038619995}
},
{{
0.010833553969860077,0.19656457006931305,0.06441426277160645},
{
-0.049012623727321625,0.1258217841386795,0.0876382440328598},
{
0.09518304467201233,0.026032274588942528,-0.06898994743824005}
},
{{
-0.06731107085943222,-0.22561949491500854,-0.10572867840528488},
{
-0.22592830657958984,0.007788837421685457,-0.003033749060705304},
{
-0.14151276648044586,-0.043566640466451645,-0.024209195747971535}
},
{{
-0.08576427400112152,-0.08869167417287827,-0.0488281212747097},
{
0.07300345599651337,0.09208479523658752,-0.06647919863462448},
{
-0.15260876715183258,-0.07626712322235107,0.14793960750102997}
},
{{
-0.07218831777572632,-0.03945048153400421,-0.007369487080723047},
{
0.10198741406202316,0.11722631752490997,-0.025350645184516907},
{
0.09940484166145325,0.01896078698337078,0.07780047506093979}
},
{{
-0.11854903399944305,0.039243750274181366,-0.13438212871551514},
{
-0.06022510305047035,0.038252729922533035,0.10241428017616272},
{
0.07820606976747513,0.07606402784585953,0.21068526804447174}
},
{{
0.16356755793094635,0.0060882046818733215,-0.0861317366361618},
{
0.0123588340356946,0.038994211703538895,0.04942430928349495},
{
-0.19501502811908722,-0.07660768926143646,0.006102982442826033}
}
}
};
static const float conv_1_bias[16] = {
-1.1457344404816605e-12,-0.08363772183656693,0.0458805225789547,-0.07492067664861679,-0.14408843219280243,
0.08158273994922638,-0.08990012854337692,-0.07005731761455536,-0.19129280745983124,0.07228633016347885,
0.11922282725572586,-0.02936939150094986,-9.340087672171649e-06,0.0834571048617363,0.0814119428396225,
0.09873085469007492};
static const float conv_2_weight[16][16][3][3] = {{{{
4.0812677643613865e-40,2.2932529628368496e-40,-8.200524730090619e-40},
{
4.606824753406409e-40,-3.457872116537205e-40,6.920214375175606e-40},
{
5.1555732320360075e-40,1.0216320596991155e-39,-9.957388666753215e-40}
},
{{
0.006571379490196705,0.02771744877099991,-5.084925942355767e-05},
{
0.021282898262143135,0.01717229373753071,-7.085072866175324e-05},
{
0.00536983972415328,0.02477911487221718,-6.132732232799754e-05}
},
{{
0.10600902885198593,0.169892817735672,0.0348186269402504},
{
0.11869404464960098,0.02441420964896679,0.06578398495912552},
{
-0.12310215085744858,-0.2652580142021179,-0.1346697211265564}
},
{{
0.0068648080341517925,0.0015667442930862308,0.005743931978940964},
{
7.246159657370299e-05,0.00014465452113654464,-0.00025343484594486654},
{
-3.345044774505368e-07,-1.1976975429206504e-06,-3.0622677513747476e-06}
},
{{
-0.010770652443170547,-0.10899423807859421,-0.34439462423324585},
{
-0.19701455533504486,-0.1471584141254425,0.029645470902323723},
{
-0.20626090466976166,0.03785480186343193,0.2156551033258438}
},
{{
-0.24030336737632751,-0.02018951065838337,-0.11428113281726837},
{
-0.13138365745544434,0.0470244400203228,-0.02980988472700119},
{
-0.14917024970054626,-0.050953131169080734,0.1004357561469078}
},
{{
-0.07653480768203735,0.00487445667386055,0.3669130504131317},
{
-0.010408018715679646,-0.014764737337827682,0.10184323787689209},
{
0.16102267801761627,0.027487976476550102,-0.13861863315105438}
},
{{
-0.2641206383705139,-0.11073721200227737,0.04415944591164589},
{
-0.13425007462501526,-0.16219642758369446,0.036143988370895386},
{
-0.07154524326324463,0.009171122685074806,-0.006507132668048143}
},
{{
-0.10033728927373886,-0.01995985023677349,-0.059103306382894516},
{
-0.09491613507270813,0.03616804629564285,0.061894819140434265},
{
-0.11320672929286957,-0.10055501759052277,0.04064120724797249}
},
{{
0.06548208743333817,0.040789227932691574,-0.09660744667053223},
{
0.05561764910817146,-0.056131888180971146,-0.12656819820404053},
{
-0.017157046124339104,-0.08964643627405167,-0.1763472706079483}
},
{{
-0.14663301408290863,-0.22897008061408997,-0.03870464488863945},
{
-0.027478676289319992,-0.37524670362472534,-0.333615779876709},
{
0.062499381601810455,0.019950248301029205,-0.07233728468418121}
},
{{
0.21942691504955292,0.15102310478687286,-0.007747691590338945},
{
0.05644436180591583,0.06653109192848206,0.10201824456453323},
{
-0.17111735045909882,-0.09980612248182297,-0.01949714682996273}
},
{{
-7.875101187720466e-40,6.398020502444963e-40,-5.407540708906253e-40},
{
3.954590383186423e-40,7.515457936851502e-40,1.5287605726398024e-40},
{
-6.1240106007308886e-40,1.1054277049982928e-26,2.217881695471776e-25}
},
{{
0.04745174199342728,-0.08708437532186508,0.14726947247982025},
{
-0.08340255916118622,-0.17766575515270233,-0.06604480743408203},
{
0.04539148509502411,0.03296554833650589,0.07034432142972946}
},
{{
0.06156958267092705,0.13430431485176086,-0.054605260491371155},
{
0.025681709870696068,-0.12286726385354996,0.01788846030831337},
{
0.009153232909739017,-0.004886141512542963,0.0984625369310379}
},
{{
0.16222305595874786,0.09779217094182968,-0.03711925819516182},
{
0.11635772138834,0.15744785964488983,-0.13115747272968292},
{
-0.053018342703580856,-0.12247113883495331,-0.08043800294399261}
}
},
{{{
4.030877071584266e-40,-3.567061292877395e-40,5.431376795784418e-40},
{
1.0869087460627584e-39,-3.5978618331232543e-40,-4.568485227422482e-40},
{
-7.429137951449093e-40,6.892174392904467e-40,6.490968629583628e-40}
},
{{
0.0067498101852834225,0.011486075818538666,0.0009000936988741159},
{
-0.006081028375774622,0.001383250579237938,-0.0008212144020944834},
{
0.0040749781765043736,0.013615639880299568,0.0010270532220602036}
},
{{
-0.03519701585173607,0.0011746062664315104,0.15242047607898712},
{
0.03125130757689476,0.00761203421279788,-0.09400827437639236},
{
-0.09125553071498871,-0.013349409215152264,-0.02301146648824215}
},
{{
0.012619249522686005,0.01432102732360363,0.008985253050923347},
{
0.0004168874002061784,0.0008395203039981425,-0.0013247940223664045},
{
-5.67254755878821e-05,7.773633114993572e-05,0.000183188880328089}
},
{{
-0.22908510267734528,-0.08775275945663452,0.004276386462152004},
{
-0.12690730392932892,-0.07615717500448227,0.03195134177803993},
{
-0.20439212024211884,-0.1447323113679886,-0.012452101334929466}
},
{{
-0.0508093535900116,0.01876835525035858,0.02900538221001625},
{
0.06787923723459244,0.1260981261730194,-0.08641012758016586},
{
0.06385170668363571,-0.0638553723692894,-0.08150342106819153}
},
{{
0.10978734493255615,0.1043684259057045,0.051777034997940063},
{
0.06943970918655396,0.06191883981227875,0.056766241788864136},
{
0.035635169595479965,-0.019631654024124146,0.0012246910482645035}
},
{{
-0.1022290512919426,0.11896353960037231,0.026692859828472137},
{
-0.08930462598800659,-0.09385021775960922,0.03502938151359558},
{
-0.25578761100769043,-0.18084730207920074,0.11432632058858871}
},
{{
0.15029491484165192,-0.05951350927352905,-0.008063087239861488},
{
-0.03652690351009369,-0.12718208134174347,-0.012770652770996094},
{
0.030698200687766075,0.03666148707270622,-0.019799206405878067}
},
{{
-0.028578968718647957,-0.16552403569221497,0.06644455343484879},
{
0.2090274691581726,0.036742180585861206,0.14828740060329437},
{
-0.0020648441277444363,-0.13453303277492523,0.07602813839912415}
},
{{
-0.18975019454956055,-0.03272678330540657,-0.35589033365249634},
{
-0.10579930990934372,-0.44446003437042236,-0.33973032236099243},
{
-0.09824015200138092,-0.20210398733615875,-0.10729625821113586}
},
{{
0.024790730327367783,-0.03518323972821236,-0.053966134786605835},
{
-0.14366480708122253,-0.03082757443189621,0.06868302822113037},
{
-0.12964922189712524,-0.015287808142602444,-0.03666507452726364}
},
{{
-4.36808553403939e-40,-5.492543473752196e-40,2.596325794701021e-41},
{
8.485128448194989e-40,-7.316879931472032e-40,-7.444664338433812e-40},
{
-1.7556868459525633e-40,-2.6677359644430137e-40,-2.65024775960824e-40}
},
{{
-0.10157766193151474,0.000693905574735254,0.15837223827838898},
{
0.0098210908472538,0.011194138787686825,0.12109579145908356},
{
0.1240522712469101,0.1687052994966507,0.07699473947286606}
},
{{
-0.05952545255422592,0.06990058720111847,-0.05859893187880516},
{
0.03090394288301468,-0.02524692192673683,-0.3274967074394226},
{
0.16963908076286316,0.2015606164932251,0.14148575067520142}
},
{{
-0.09958507865667343,-0.012751724570989609,-0.010958081111311913},
{
0.11099791526794434,0.08422578871250153,-0.1212165579199791},
{
0.046216078102588654,-0.02275226265192032,-0.16570645570755005}
}
},
{{{
-2.3494170052869883e-40,-7.762282648357675e-40,8.138517273044246e-40},
{
5.032959616407586e-40,-5.987748338059943e-41,-2.23069899938939e-40},
{
-2.3948751274696854e-40,-7.410949097382157e-40,-8.099196838135291e-40}
},
{{
0.011026378720998764,0.006982016377151012,-9.144800424110144e-05},
{
0.018566742539405823,0.009765338152647018,0.002125251106917858},
{
0.013017413206398487,-0.0003490673843771219,0.0019721530843526125}
},
{{
0.01313199382275343,-0.07141007483005524,-0.0559411495923996},
{
-0.11026225239038467,0.038553424179553986,0.031065838411450386},
{
-0.033005207777023315,0.1426289975643158,0.037994544953107834}
},
{{
-0.00037406489718705416,-0.001082307193428278,-0.001115702441893518},
{
-0.006195372436195612,-0.007666879799216986,-0.005786631256341934},
{
-0.018835360184311867,-0.02438177540898323,0.003916604910045862}
},
{{
-0.09980543702840805,0.009796872735023499,-0.2132473587989807},
{
-0.17046958208084106,-0.10157383978366852,-0.23730257153511047},
{
-0.10623384267091751,-0.07695503532886505,-0.10675190389156342}
},
{{
0.0407048799097538,-0.05173905938863754,-0.01900165155529976},
{
0.062443606555461884,-0.07879527658224106,-0.11621855199337006},
{
0.029665427282452583,-0.06861229985952377,0.10614330321550369}
},
{{
0.059031892567873,0.09064579755067825,0.1545863002538681},
{
0.053093262016773224,0.0331663154065609,0.0018711870070546865},
{
0.1899411380290985,-0.06306267529726028,-0.1366271823644638}
},
{{
-0.03606939688324928,0.028197424486279488,-0.05837612599134445},
{
-0.09138155728578568,0.11566931009292603,0.0369696170091629},
{
-0.075977623462677,-0.0001646635791985318,0.010313063859939575}
},
{{
-0.07992088794708252,-0.11605963855981827,-0.10253629088401794},
{
-0.07710828632116318,0.03099682927131653,-0.06395488977432251},
{
0.02802261710166931,-0.019081709906458855,0.09259295463562012}
},
{{
-0.22240416705608368,-0.08103932440280914,-0.034299977123737335},
{
0.05007034167647362,0.11285444349050522,0.08123671263456345},
{
-0.03421763330698013,-0.03326140716671944,0.09639157354831696}
},
{{
0.02175130322575569,0.07680226862430573,0.116428904235363},
{
-0.12039822340011597,0.06298902630805969,-0.02854921668767929},
{
-0.006777624133974314,0.016189362853765488,-0.14066343009471893}
},
{{
-0.02614057995378971,0.0031706569716334343,-0.03006950207054615},
{
-0.06810568273067474,-0.17571386694908142,-0.28744298219680786},
{
-0.10323085635900497,-0.11381959170103073,-0.045692328363657}
},
{{
-9.596012151751241e-30,-1.2706289104320762e-28,1.574526980484651e-40},
{
-6.006357581666177e-40,8.426007665985125e-42,3.0797597519084397e-40},
{
-7.102453240461049e-40,7.160747256576961e-40,-7.700443347127021e-40}
},
{{
0.13224691152572632,0.16337868571281433,0.12981528043746948},
{
-0.055882666260004044,-0.16884489357471466,-0.033174220472574234},
{
-0.10534705966711044,-0.1380094438791275,0.005726208444684744}
},
{{
0.13129566609859467,-0.22198714315891266,0.06378988921642303},
{
-0.05845760554075241,-0.0024664143566042185,0.17293663322925568},
{
0.0524105429649353,0.018670758232474327,-0.07719659060239792}
},
{{
0.0033430138137191534,-0.09105285257101059,-0.18519924581050873},
{
0.011264204047620296,-0.18285539746284485,0.14904333651065826},
{
0.02895171381533146,0.08844256401062012,0.07451508939266205}
}
},
{{{
-9.298708323597335e-40,-3.277623095071104e-40,-8.620437827910193e-40},
{
1.1037229263361919e-39,2.8171844456632555e-40,-6.76328296015587e-40},
{
-1.8016073966284876e-40,6.318146489978449e-40,-5.802734901815138e-40}
},
{{
-0.004056958947330713,0.021669207140803337,0.0004941230872645974},
{
-0.0030004638247191906,0.020706266164779663,-0.003611889434978366},
{
-0.0003582514764275402,0.010930503718554974,-0.0010143461404368281}
},
{{
-0.045834075659513474,0.0022545570973306894,-0.014852686785161495},
{
0.0951676294207573,0.021292297169566154,-0.07788106054067612},
{
-0.006240353919565678,-0.10050273686647415,-0.16312067210674286}
},
{{
-0.00467463256791234,-0.0022202851250767708,0.0034111766144633293},
{
-0.0003502697800286114,-0.0018668696284294128,0.001192314550280571},
{
0.00010170457244385034,-0.00018627768440637738,0.0003995513543486595}
},
{{
0.004266136791557074,0.01860440894961357,0.08194885402917862},
{
-0.009131831116974354,-0.013143574818968773,-0.05769578367471695},
{
-0.4028855264186859,-0.265682578086853,-0.1655823290348053}
},
{{
-0.045076292008161545,-0.038430437445640564,-0.12324052304029465},
{
0.0865013599395752,-0.06208629533648491,-0.186552032828331},
{
-0.02118866518139839,-0.24539510905742645,-0.25357529520988464}
},
{{
-0.16188853979110718,-0.13190938532352448,0.12428425997495651},
{
-0.10912676155567169,-0.1913743019104004,0.08964987099170685},
{
-0.17556063830852509,-0.0635690912604332,0.06258053332567215}
},
{{
0.0012514658737927675,-0.14166483283042908,-0.07576090097427368},
{
0.04485505819320679,-0.11692646145820618,-0.007123283110558987},
{
0.028416059911251068,-0.14348538219928741,-0.21255247294902802}
},
{{
-0.02341635338962078,-0.06069597601890564,0.07375328242778778},
{
-0.11136511713266373,-0.08867613971233368,-0.02258443459868431},
{
-0.07543450593948364,-0.07663602381944656,-0.14901594817638397}
},
{{
-0.12073468416929245,-0.10862043499946594,-0.019318239763379097},
{
-0.07725274562835693,-0.13417397439479828,-0.06286400556564331},
{
-0.016255779191851616,-0.2784726619720459,-0.07587646692991257}
},
{{
0.08038949221372604,-0.06744284927845001,-0.0357053279876709},
{
0.18289777636528015,-0.11729303747415543,-0.020477158948779106},
{
0.027650345116853714,0.1334010660648346,0.16364610195159912}
},
{{
0.07242127507925034,0.1011693999171257,0.1441960334777832},
{
-0.07403647899627686,-0.14483997225761414,-0.015245744958519936},
{
0.0023127186577767134,0.08576717972755432,0.165806382894516}
},
{{
-6.254527016728216e-17,-1.3863923996050272e-15,-3.4891715699683087e-17},
{
-8.416613785280488e-20,-1.7513286304654416e-17,-6.589917234367252e-20},
{
-1.4406655900854682e-23,-2.39421083337441e-23,-7.3875919188727e-30}
},
{{
-0.04194165766239166,0.022582709789276123,-0.0031631190795451403},
{
0.0017802376532927155,0.09605322033166885,0.009005722589790821},
{
-0.03981313109397888,0.09760860353708267,0.008750731125473976}
},
{{
-0.04554677754640579,0.11073784530162811,-0.07868201285600662},
{
-0.10646872967481613,0.041800837963819504,-0.2456061691045761},
{
-0.110591821372509,0.09402056783437729,0.07009057700634003}
},
{{
0.02101166732609272,0.019781213253736496,-0.030662303790450096},
{
0.04683255776762962,-0.03762679547071457,-0.031812142580747604},
{
-0.06680572777986526,-0.00441284803673625,-0.062378548085689545}
}
},
{{{
-1.570631370753828e-40,-9.09989209747893e-41,-9.885123704947984e-40},
{
6.068827467205777e-40,-7.79452652602179e-40,3.130991223764155e-40},
{
6.995464102709849e-40,5.40524257942476e-40,9.697826152206329e-40}
},
{{
0.04823432117700577,-6.270194717217237e-05,-2.7554642656468786e-05},
{
0.04701928049325943,-3.182849832228385e-05,-2.2604230252909474e-05},
{
0.03425721824169159,-0.00024686602409929037,-1.8701082808547653e-05}
},
{{
-0.0135255828499794,-0.1900385618209839,-0.2425779551267624},
{
0.10376383364200592,0.07265063375234604,-0.03150764852762222},
{
-0.053614452481269836,0.04479009658098221,0.03123435750603676}
},
{{
-0.00019582806271500885,-0.00036543869646266103,-7.865804946050048e-05},
{
-0.004418156575411558,0.004192669410258532,-0.021142538636922836},
{
-0.000995665555819869,0.003698869375512004,-0.010284898802638054}
},
{{
-0.001179731683805585,-0.004877515137195587,0.0028755825478583574},
{
0.042959701269865036,-0.09466889500617981,-0.08408040553331375},
{
-0.12019588053226471,0.07029066979885101,0.06794791668653488}
},
{{
-0.06471525132656097,0.041897252202034,0.10353083908557892},
{
-0.06583903729915619,-0.07032030075788498,-0.003989183343946934},
{
-0.0006787593010812998,0.03113616444170475,0.018808387219905853}
},
{{
0.12478972971439362,0.026345929130911827,0.11438246816396713},
{
0.2238989770412445,0.053816214203834534,0.06376390159130096},
{
0.28791937232017517,0.0668480396270752,0.12679541110992432}
},
{{
0.056582167744636536,0.08184992522001266,-0.1554415076971054},
{
0.12444472312927246,0.14369995892047882,0.012160344049334526},
{
-0.02871210128068924,0.0026948328595608473,-0.08256430923938751}
},
{{
-0.06799449026584625,0.007490088231861591,-0.024104885756969452},
{
-0.03697686269879341,-0.010065481998026371,-0.07697069644927979},
{
0.09131713956594467,-0.019474726170301437,-0.02787945047020912}
},
{{
0.17820046842098236,0.08570652455091476,0.06790825724601746},
{
0.08215561509132385,0.20235687494277954,0.13545309007167816},
{
0.06895813345909119,0.15801018476486206,0.1666359305381775}
},
{{
0.04875091835856438,0.13012123107910156,-0.04893966764211655},
{
-0.05709568038582802,0.01022365316748619,-0.018848571926355362},
{
0.0428132563829422,-0.12247063219547272,-0.004442885518074036}
},
{{
0.21616391837596893,0.2437843382358551,0.22486360371112823},
{
0.005649788770824671,-0.06696627289056778,0.06917489320039749},
{
-0.05885494500398636,-0.22355349361896515,0.001969205215573311}
},
{{
-3.0248008261376204e-40,-6.126070509473446e-40,-1.2024542122371255e-40},
{
-5.007329867495085e-40,-1.5474959331078252e-40,3.0511312242822837e-40},
{
2.105352851755535e-40,-1.3608149516904731e-40,1.980455119630264e-40}
},
{{
-0.008822023868560791,0.05279303342103958,0.020471116527915},
{
-0.03703544661402702,0.09302861988544464,0.1072983592748642},
{
-0.11099018156528473,-0.02894047275185585,0.018006479367613792}
},
{{
0.12978288531303406,-0.06859002262353897,-0.0014393009478226304},
{
0.1306699514389038,0.13842853903770447,-0.07172637432813644},
{
0.04153973609209061,-0.02634662762284279,-0.16657599806785583}
},
{{
-0.08861450850963593,-0.0448170080780983,-0.02739875018596649},
{
0.0254973154515028,-0.0986618921160698,-0.14824962615966797},
{
0.02920633926987648,-0.013392078690230846,-0.10709123313426971}
}
},
{{{
7.7462517939258e-40,5.048892379946959e-40,8.16303999616993e-40},
{
-1.867930852944981e-40,8.297802869484048e-40,2.6729768206995886e-41},
{
8.672804351522012e-40,2.2273498960596535e-40,-7.844468803290326e-40}
},
{{
0.0024502319283783436,-0.006155356764793396,-0.006671264301985502},
{
0.008332503959536552,-0.002778870752081275,0.00442469073459506},
{
0.0013519482454285026,-0.0017181967850774527,-0.0033601170871406794}
},
{{
0.06528686732053757,0.1422133445739746,0.059145085513591766},
{
-0.05283834785223007,-0.16205880045890808,-0.024686692282557487},
{
0.19506621360778809,0.06721895933151245,-0.035786863416433334}
},
{{
-0.0027283665258437395,-0.005619161296635866,0.013959630392491817},
{
-8.779179188422859e-05,-5.776519901701249e-05,1.4269742678152397e-05},
{
6.116203439887613e-05,0.00016883318312466145,-0.000418793351855129}
},
{{
-0.03661532327532768,-0.026238668709993362,0.03453017398715019},
{
-0.35306933522224426,-0.17794272303581238,0.27215448021888733},
{
0.019581029191613197,-0.011219567619264126,-0.027448926120996475}
},
{{
0.18310360610485077,0.11019416153430939,-0.019216351211071014},
{
0.01595243439078331,0.024229198694229126,-0.04781724512577057},
{
-0.019096827134490013,-0.18822133541107178,0.03332161903381348}
},
{{
-0.3199923038482666,-0.10482105612754822,-0.036316558718681335},
{
-0.07187725603580475,0.0589882992208004,-0.03355031460523605},
{
-0.05338579788804054,0.11521324515342712,0.003790741553530097}
},
{{
-0.07384903728961945,0.014459733851253986,-0.00824818667024374},
{
-0.10480894148349762,0.04225511848926544,-0.013377089984714985},
{
-0.027842652052640915,0.030859272927045822,-0.13220827281475067}
},
{{
0.020156698301434517,0.04855020344257355,-0.028906365856528282},
{
-0.06461188197135925,0.043813105672597885,0.04158814996480942},
{
-0.0481497086584568,-0.02477828785777092,-0.06283260136842728}
},
{{
0.12425379455089569,0.09009335935115814,-0.05155343934893608},
{
0.12208078056573868,0.0587167926132679,-0.09481249749660492},
{
0.15678149461746216,0.03967376798391342,-0.12435568869113922}
},
{{
-0.16048790514469147,-0.24758122861385345,0.022783450782299042},
{
0.0651702955365181,-0.01197951752692461,-0.0017131454078480601},
{
0.09778061509132385,0.08264263719320297,-0.10458480566740036}
},
{{
-0.023522919043898582,0.01499841921031475,-0.006520603783428669},
{
0.014932791702449322,-0.02696814388036728,-0.08095473796129227},
{
-0.2376045286655426,-0.17750334739685059,-0.1864563524723053}
},
{{
9.196161301978045e-41,3.961596875508047e-40,3.95397381186212e-40},
{
5.7768198485353e-38,8.448436442514655e-28,5.531615351057715e-22},
{
1.30807820502438e-38,6.387067551181608e-30,4.0286178872104434e-27}
},
{{
0.05018308013677597,-0.0016865398501977324,0.048351578414440155},
{
0.21170450747013092,-0.10128259658813477,-0.2848997414112091},
{
0.16632422804832458,-0.010014188475906849,0.04159748554229736}
},
{{
-0.07228095084428787,0.176073357462883,-0.09828899800777435},
{
-0.09534839540719986,0.014329269528388977,0.08981454372406006},
{
-0.010323124937713146,-0.01067203376442194,-0.1094796285033226}
},
{{
0.15022002160549164,0.10024787485599518,-0.0913061872124672},
{
-0.04802153632044792,0.15347890555858612,0.056680042296648026},
{
-0.13034187257289886,-0.008839922957122326,0.16138900816440582}
}
},
{{{
-1.0195146977195207e-40,2.4676585697067164e-40,6.527836792180014e-40},
{
9.644086356099472e-40,-1.1168348760668792e-40,-3.1645523219847344e-40},
{
9.160848580677059e-41,3.2821913280648028e-40,-5.616908712461024e-40}
},
{{
-0.005241799168288708,-4.973798581886513e-07,7.746380674689135e-07},
{
-0.0066457814536988735,-3.961361471738201e-06,5.505282842932502e-06},
{
-0.010982061736285686,-4.153196186962305e-06,9.254345059162006e-06}
},
{{
-0.06058653071522713,-0.12261165678501129,-0.2966909110546112},
{
-0.07438670843839645,-0.21140459179878235,-0.23473186790943146},
{
-0.14726907014846802,0.09315390139818192,0.06682458519935608}
},
{{
0.0009951379615813494,-0.0005344431265257299,-0.0002484149590600282},
{
-5.364002208807506e-05,-0.0002529531775508076,-0.00011869613081216812},
{
-3.414963430259377e-05,-0.002164482604712248,-0.000999485608190298}
},
{{
0.044595591723918915,-0.20440629124641418,-0.45763465762138367},
{
-0.08336444199085236,-0.04398693889379501,-0.24739691615104675},
{
-0.25695446133613586,-0.1059427410364151,-0.2527816593647003}
},
{{
0.08906985074281693,0.014753080904483795,-0.08312655240297318},
{
0.01836732216179371,-0.15046341717243195,-0.13870319724082947},
{
-0.11570316553115845,-0.07849141210317612,-0.06104155257344246}
},
{{
-0.1046026200056076,0.14719495177268982,-0.06329413503408432},
{
-0.12368016690015793,0.10645595192909241,-0.08061108738183975},
{
-0.20157645642757416,0.09599237889051437,-0.11882022023200989}
},
{{
0.016082629561424255,-0.06553521007299423,0.0486290343105793},
{
-0.019011106342077255,-0.0162909347563982,0.026741866022348404},
{
-0.08258909732103348,-0.0044559999369084835,0.07968775182962418}
},
{{
0.2069660872220993,0.1496107131242752,0.06254102289676666},
{
0.0710015818476677,0.015013437718153,-0.10677141696214676},
{
0.03752359002828598,-0.008710537105798721,-0.13943761587142944}
},
{{
-0.20092402398586273,-0.14822490513324738,0.0507240816950798},
{
-0.24379844963550568,-0.17432552576065063,-0.07428688555955887},
{
0.10150495916604996,0.0779016986489296,0.15281303226947784}
},
{{
-0.17084857821464539,-0.19568532705307007,-0.003133998718112707},
{
-0.21483497321605682,0.06860141456127167,0.16482146084308624},
{
-0.25246477127075195,-0.05316820740699768,0.107732392847538}
},
{{
-0.03657868504524231,0.12206003069877625,0.005741369444876909},
{
-0.18751400709152222,-0.160073921084404,-0.08566717803478241},
{
0.09409859031438828,-0.012184612452983856,-0.11905615776777267}
},
{{
1.2367720116284403e-40,-3.5971471709064487e-40,-1.992534312392744e-40},
{
-6.4806971118401275e-40,3.609316887549724e-38,5.562482575033276e-26},
{
-5.191964953154523e-40,-2.263252081967448e-35,-3.6787828958023124e-38}
},
{{
0.11058291047811508,0.03704751655459404,0.13686031103134155},
{
0.1304028183221817,0.08327174186706543,0.04874812439084053},
{
-0.1701337695121765,-0.19916079938411713,-0.04622584208846092}
},
{{
0.12613247334957123,-0.11264682561159134,-0.19617676734924316},
{
0.052142757922410965,-0.06783062219619751,0.02894545905292034},
{
-0.0926455557346344,-0.03957653418183327,-0.007481263484805822}
},
{{
-0.0026808292604982853,-0.16370642185211182,-0.07416407018899918},
{
0.011840707622468472,-0.25295332074165344,-0.1958693265914917},
{
0.10670433938503265,-0.004458281677216291,-0.01464596576988697}
}
},
{{{
-1.0434979209364399e-39,8.003656308837625e-41,-6.45723937554733e-40},
{
-1.0349429938117369e-39,-7.690382024153169e-40,-5.3279609691172465e-40},
{
7.941845033576258e-40,-8.272845743834423e-40,-7.1735831505101765e-40}
},
{{
0.004534212872385979,-0.0025440510362386703,9.808560571400449e-05},
{
-0.0005275110015645623,0.00040615303441882133,-0.0015896409749984741},
{
0.01600716821849346,-0.0014873156324028969,0.0009922581957653165}
},
{{
-0.02420130930840969,0.1602642685174942,-0.09647548943758011},
{
0.025205189362168312,0.03836668282747269,-0.16346000134944916},
{
-0.22707641124725342,0.001217317534610629,0.05107785388827324}
},
{{
0.0020517611410468817,0.001854250906035304,0.0032269894145429134},
{
-0.0004973890609107912,-0.001029175124131143,-0.0006301354733295739},
{
0.0011221787426620722,0.0014262549811974168,-0.0010837719310075045}
},
{{
-0.041499365121126175,-0.12684333324432373,-0.21184402704238892},
{
0.00531034404411912,-0.011947882361710072,-0.02925473265349865},
{
-0.276075541973114,0.06879957765340805,-0.02640063315629959}
},
{{
-0.1689726859331131,-0.1258426159620285,-0.054309964179992676},
{
0.004469025880098343,-0.023850688710808754,-0.03697367012500763},
{
-0.11916735768318176,-0.006208390463143587,0.15338347852230072}
},
{{
0.25526008009910583,0.06209001690149307,-0.20531904697418213},
{
0.24568520486354828,-0.045748014003038406,-0.2840813398361206},
{
0.2569906413555145,-0.1399199217557907,-0.25687694549560547}
},
{{
0.12601864337921143,0.12080644816160202,-0.009843293577432632},
{
-0.12454814463853836,0.06900355964899063,0.07059424370527267},
{
-0.13123498857021332,-0.028457729145884514,-0.03425388038158417}
},
{{
0.061777736991643906,0.0755457803606987,0.04228734225034714},
{
0.06990843266248703,0.014819316565990448,-0.1005130186676979},
{
0.07244867086410522,-3.113535058218986e-05,-0.014672543853521347}
},
{{
-0.04461441934108734,0.04478120803833008,0.1796945482492447},
{
-0.06269916146993637,0.026343483477830887,0.07270540297031403},
{
-0.11540970206260681,-0.04977677762508392,0.039558179676532745}
},
{{
0.02504226379096508,-0.148737370967865,-0.10621825605630875},
{
-0.2228541374206543,-0.0016793542308732867,0.12965168058872223},
{
-0.05347001180052757,-0.1766577512025833,-0.09674118459224701}
},
{{
0.012052010744810104,-0.11174868792295456,-0.013984915800392628},
{
-0.11639414727687836,-0.04422762244939804,-0.017975617200136185},
{
0.0020400648936629295,-0.08172750473022461,-0.09478258341550827}
},
{{
1.8673843465438945e-40,6.462522270757835e-40,2.1810930337522913e-40},
{
-3.0286403839298704e-40,-4.166943152470206e-40,5.853055529669042e-40},
{
-4.821101673637526e-37,-1.1752409960599376e-40,6.422333030800999e-40}
},
{{
-0.09403550624847412,0.05006271228194237,0.19011825323104858},
{
-0.09197833389043808,0.04947682097554207,0.06450829654932022},
{
-0.09225009381771088,-0.027857773005962372,-0.009089979343116283}
},
{{
0.10994561016559601,-0.001917912159115076,-0.1998252421617508},
{
0.06256654113531113,-0.016320938244462013,0.06778062880039215},
{
-0.08469600975513458,0.11031300574541092,0.08027869462966919}
},
{{
0.0024854731746017933,0.00028554676100611687,0.06553294509649277},
{
0.11881796270608902,-0.0720440149307251,-0.21869632601737976},
{
0.07484972476959229,-0.051576949656009674,0.02966957911849022}
}
},
{{{
1.7271984481728398e-40,-1.5279057805765643e-40,7.751310481382012e-40},
{
-9.655717133353368e-40,-3.082604387791019e-40,-1.0368851934832911e-39},
{
1.183340501183735e-40,-8.913617492616232e-40,-1.366686392255994e-41}
},
{{
0.004546552896499634,-0.0040475125424563885,-0.0056569320149719715},
{
0.0037453025579452515,-0.01865309476852417,-0.003024791833013296},
{
0.007832937873899937,-0.023636212572455406,-0.0011388093698769808}
},
{{
-0.08730758726596832,0.0380210317671299,0.07185418158769608},
{
-0.04052827134728432,0.18548668920993805,0.03692532703280449},
{
0.008842534385621548,-0.09106827527284622,-0.13221687078475952}
},
{{
-0.018025143072009087,-0.013941711746156216,-0.0013702890137210488},
{
-0.0006939214654266834,0.0007562722312286496,-0.004758430644869804},
{
-0.0004374061245471239,0.0016259712865576148,0.00044042500667274}
},
{{
-0.12793593108654022,0.015606842935085297,-0.06121044605970383},
{
-0.2350485473871231,-0.08823632448911667,-0.06994457542896271},
{
0.038020335137844086,0.07205430418252945,-0.03665892407298088}
},
{{
-0.15811030566692352,-0.07184826582670212,0.09266727417707443},
{
-0.0776897519826889,0.09220733493566513,0.20850206911563873},
{
-0.21126967668533325,-0.042925313115119934,0.13962818682193756}
},
{{
-0.17217525839805603,-0.17423532903194427,0.0008429726003669202},
{
-0.18929940462112427,-0.04618358612060547,0.06443475931882858},
{
-0.28159067034721375,-0.04185507073998451,0.07073423266410828}
},
{{
-0.028439803048968315,-0.0643930658698082,0.10058589279651642},
{
0.013990870676934719,-0.2767675220966339,0.02019125036895275},
{
0.057412583380937576,-0.2317364662885666,-0.03585168346762657}
},
{{
0.018845461308956146,0.18871550261974335,0.2167878895998001},
{
-0.07947546988725662,0.05857172608375549,0.10191913694143295},
{
-0.09488218277692795,-0.13148769736289978,-0.024797922000288963}
},
{{
0.1746453493833542,-0.10960221290588379,-0.04020102694630623},
{
0.15244093537330627,-0.02761574648320675,-0.17677751183509827},
{
-0.03339202702045441,-0.04056873545050621,-0.1531287133693695}
},
{{
0.047142647206783295,0.03762362152338028,0.0829952210187912},
{
0.2685213088989258,-0.1025974377989769,-0.16552700102329254},
{
0.1755610853433609,-0.05512610822916031,-0.07560481131076813}
},
{{
-0.05681541934609413,0.00604797899723053,-0.15790680050849915},
{
-0.024377841502428055,-0.07771730422973633,-0.284282922744751},
{
0.3395976424217224,0.3073047697544098,0.17340508103370667}
},
{{
-5.977310099987964e-21,-5.868810823077404e-27,-1.9393970746255468e-42},
{
-2.6791367269408007e-22,-4.06830557179675e-24,-1.94329268435637e-40},
{
-3.657398970319798e-23,-8.735163173149714e-32,3.3725610660291102e-40}
},
{{
0.06707297265529633,-0.10021332651376724,-0.019048064947128296},
{
-0.04185260459780693,0.002940770238637924,0.034213416278362274},
{
-0.0049673751927912235,0.1789710521697998,-0.03646482527256012}
},
{{
-0.31291109323501587,0.19272106885910034,-0.014337832108139992},
{
-0.15435262024402618,0.25575876235961914,-0.10135340690612793},
{
-0.0031584221869707108,-0.07641623169183731,0.020049910992383957}
},
{{
-0.044105302542448044,-0.0196455717086792,0.1131800189614296},
{
-0.153115913271904,0.21665924787521362,0.019526775926351547},
{
-0.11012589186429977,0.12978217005729675,0.03230888023972511}
}
},
{{{
-7.747106585989038e-40,7.492252434282283e-40,1.3387290865942497e-39},
{
1.650973416907427e-39,-1.1286786506873526e-39,8.439165858565135e-40},
{
-1.1493001588883566e-39,-4.271718238647772e-40,1.3152993762707387e-39}
},
{{
-0.005422416143119335,0.014414392411708832,-1.3081577684428362e-14},
{
-0.002215815708041191,0.01414839830249548,1.6455147600653722e-16},
{
-0.004461981821805239,0.008153951726853848,1.1498296499640572e-15}
},
{{
-0.14154045283794403,0.022067585960030556,-0.031922269612550735},
{
-0.06242857873439789,0.046399861574172974,0.07492676377296448},
{
0.048973340541124344,0.06367677450180054,0.08071790635585785}
},
{{
-4.560231579467609e-40,-4.8180845098880185e-40,1.840854422367236e-32},
{
0.015292724594473839,0.016119377687573433,0.006884437520056963},
{
-3.5447891288953315e-09,-6.84168777187466e-10,-1.978936268187681e-07}
},
{{
-0.17486149072647095,-0.14274898171424866,-0.16904006898403168},
{
-0.02258198708295822,-0.017891334369778633,-0.002927663503214717},
{
0.10710498690605164,0.04614824056625366,-0.11471186578273773}
},
{{
0.08928336948156357,0.19796398282051086,0.09500548988580704},
{
0.014128332957625389,0.12879678606987,0.00985601544380188},
{
-0.19522465765476227,-0.13650985062122345,-0.20246188342571259}
},
{{
-0.2245621234178543,-0.0457812175154686,0.04989788681268692},
{
-0.27085989713668823,-0.23445074260234833,0.007483439054340124},
{
-0.17791466414928436,-0.05864418298006058,0.04067441448569298}
},
{{
0.07451962679624557,0.005403505172580481,-0.018269717693328857},
{
0.06332903355360031,-0.06333481520414352,-0.19433480501174927},
{
-0.08470644056797028,-0.15574581921100616,-0.2612147331237793}
},
{{
-0.23107615113258362,-0.30393296480178833,-0.3206871747970581},
{
-0.14028245210647583,-0.17438773810863495,-0.2757713198661804},
{
-0.1463698446750641,-0.15141496062278748,-0.17601655423641205}
},
{{
0.0004306869814172387,0.03625216335058212,-0.05144069343805313},
{
0.09561554342508316,0.12115214020013809,0.017793765291571617},
{
-0.059944037348032,0.023234587162733078,-0.04483611509203911}
},
{{
-0.17437338829040527,-0.13267803192138672,-0.017990700900554657},
{
-0.02012769691646099,0.024502314627170563,0.07921230792999268},
{
-0.0070174699649214745,0.08960704505443573,0.1150214746594429}
},
{{
-0.054968178272247314,-0.00801517628133297,0.016677796840667725},
{
-0.18151094019412994,-0.2551395297050476,-0.1406400054693222},
{
-0.08170457184314728,-0.06789342314004898,-0.03296467661857605}
},
{{
-6.711140644298344e-40,7.233810958506857e-40,-6.373161467687841e-40},
{
3.677679793651196e-40,5.264412083760116e-40,-1.1268617618058694e-33},
{
-4.256626254186994e-40,5.351502783317903e-40,-1.190645560952095e-22}
},
{{
0.06911268085241318,0.2019335776567459,0.16348764300346375},
{
-0.03746285289525986,0.01659020408987999,0.1162584200501442},
{
-0.24397455155849457,-0.06970510631799698,-0.08227882534265518}
},
{{
0.012118121609091759,0.1552138477563858,0.08279494196176529},
{
-0.07646967470645905,0.0154991140589118,-0.03930006921291351},
{
-0.09562735259532928,-0.03417373448610306,-0.062281228601932526}
},
{{
-0.184392511844635,-0.009462638758122921,-0.01579275354743004},
{
-0.15386460721492767,0.022105293348431587,0.07731372863054276},
{
0.017278803512454033,-0.04277661815285683,0.07518314570188522}
}
},
{{{
-5.482047748254403e-40,-2.406828203370376e-40,-7.776155503154491e-40},
{
-4.1935257843384476e-40,1.199315303677038e-40,-8.272004964755828e-40},
{
6.858655333637817e-40,-7.097702838666988e-40,3.923313401462693e-40}
},
{{
0.007981834933161736,0.01472590584307909,-8.925978909246624e-05},
{
0.006627977825701237,0.011466475203633308,-0.00017265489441342652},
{
0.0042822230607271194,0.010729290544986725,-4.1494677134323865e-05}
},
{{
-0.07520384341478348,0.04839245602488518,-0.052332665771245956},
{
-0.025750789791345596,0.20072238147258759,-0.02281121537089348},
{
-0.041221629828214645,-0.08169519156217575,-0.06138957291841507}
},
{{
0.004536493681371212,0.00010503781231818721,0.007661658339202404},
{
-0.00409009400755167,0.01673954539000988,0.024505889043211937},
{
-0.0030599934980273247,-0.007224588189274073,0.007843109779059887}
},
{{
0.07134588062763214,-0.055667728185653687,0.0022676466032862663},
{
0.024722523987293243,-0.0963241383433342,-0.28442493081092834},
{
-0.05929992347955704,-0.13176816701889038,0.13965663313865662}
},
{{
-0.10172326117753983,-0.0851263552904129,-0.06786075234413147},
{
0.05676833167672157,-0.08843154460191727,-0.06778225302696228},
{
-0.005971076898276806,-0.006680428050458431,-0.13225002586841583}
},
{{
0.10842331498861313,0.022328028455376625,0.1396048665046692},
{
-0.004090125672519207,0.09725957363843918,0.1180814653635025},
{
-0.13870489597320557,0.013691335916519165,0.06079560145735741}
},
{{
0.0011499825632199645,-0.04249667748808861,-0.07385115325450897},
{
0.02642209827899933,-0.15098018944263458,0.0856560617685318},
{
0.058869149535894394,-0.02498173527419567,0.00440289918333292}
},
{{
0.14225032925605774,-0.08192837983369827,-0.07930436730384827},
{
0.06692207604646683,0.0017866804264485836,0.06152794882655144},
{
0.02865159884095192,0.0681755468249321,0.058478135615587234}
},
{{
0.13708965480327606,-0.174381285905838,0.20882393419742584},
{
0.17402371764183044,-0.11932219564914703,0.11332755535840988},
{
0.06509493291378021,-0.17434990406036377,-0.029504604637622833}
},
{{
-0.0016153163742274046,0.10451791435480118,0.08839988708496094},
{
-0.08403845131397247,-0.0565376877784729,-0.03317038714885712},
{
0.13634367287158966,-0.03206419199705124,0.018852269276976585}
},
{{
0.06265472620725632,0.01795157976448536,0.020417241379618645},
{
-0.007702349219471216,-0.07560104876756668,-0.12074673920869827},
{
0.05006057769060135,0.15175826847553253,0.07407435774803162}
},
{{
7.078842100405585e-26,4.612247778463346e-40,-6.469024295632302e-40},
{
-2.71879928048301e-41,3.6422970074269943e-40,4.087447490589059e-40},
{
6.853106191719091e-40,5.295394792806338e-40,-2.2533159566035923e-40}
},
{{
0.0474359430372715,-0.017182201147079468,0.12415555864572525},
{
-0.07681955397129059,-0.1097567081451416,0.06583655625581741},
{
0.08900108933448792,0.019569823518395424,-0.06226995959877968}
},
{{
-0.14497855305671692,0.15546943247318268,-0.07353552430868149},
{
-0.1844208985567093,0.08473968505859375,-0.13269861042499542},
{
-0.007828176021575928,0.08091390132904053,0.10179384797811508}
},
{{
0.08704189211130142,-0.018755197525024414,0.010471662506461143},
{
-0.031891364604234695,0.15762858092784882,-0.2273053228855133},
{
-0.07737893611192703,-0.008031895384192467,-0.1055786982178688}
}
},
{{{
6.523128429339883e-40,-1.825065132921285e-40,-9.589926170453318e-40},
{
-3.055671431306696e-41,-8.508684275380289e-42,3.3737661827084296e-41},
{
-5.043189095197157e-40,8.703604891767871e-40,9.117702600960498e-40}
},
{{
-0.006466988939791918,-0.01538213063031435,-7.89528158406938e-08},
{
0.003931150771677494,-8.708102541277185e-05,2.9686802349715435e-08},
{
0.00908298697322607,0.00047805102076381445,2.2291276309260866e-06}
},
{{
0.038198597729206085,0.12882910668849945,0.05879687890410423},
{
0.007244977634400129,-0.06036227568984032,-0.24002417922019958},
{
-0.009666531346738338,-0.05683509260416031,0.2369421124458313}
},
{{
