// List of model parameters:
//
// static const unsigned int conv_0_weight_rows      ( =    3 )
// static const unsigned int conv_0_weight_columns   ( =    3 )
// static const float conv_0_weight[3][3]                             #       size =     0.04 kB
// static const unsigned int conv_0_bias_size        ( =    1 )
// static const float conv_0_bias[1]                                  #       size =     0.00 kB
// static const unsigned int conv_1_weight_rows      ( =    3 )
// static const unsigned int conv_1_weight_columns   ( =    3 )
// static const float conv_1_weight[3][3]                             #       size =     0.04 kB
// static const unsigned int conv_1_bias_size        ( =    1 )
// static const float conv_1_bias[1]                                  #       size =     0.00 kB
// static const unsigned int conv_2_weight_rows      ( =    3 )
// static const unsigned int conv_2_weight_columns   ( =    3 )
// static const float conv_2_weight[3][3]                             #       size =     0.04 kB
// static const unsigned int conv_2_bias_size        ( =    1 )
// static const float conv_2_bias[1]                                  #       size =     0.00 kB
// static const unsigned int dense_0_weight_rows      ( =   10 )
// static const unsigned int dense_0_weight_columns   ( =  784 )
// static const float dense_0_weight[10][784]                         #       size =    31.36 kB
// static const unsigned int dense_0_bias_size        ( =   10 )
// static const float dense_0_bias[10]                                #       size =     0.04 kB
//                                                                                    ----------
//                                                                    # Total Size =    31.52 kB

static const unsigned int conv_0_weight_rows    = 3;
static const unsigned int conv_0_weight_columns = 3;
static const float conv_0_weight[3][3] = {{
     0.21612819,       0.7303208,      -0.5535089}, {
     0.49592993,       0.5597975,     -0.13946865}, {
    -0.59592766,    0.0011764728,      0.29110616}
};

static const unsigned int conv_0_bias_size = 1;
static const float conv_0_bias[1] = {
    0.023355937};

static const unsigned int conv_1_weight_rows    = 3;
static const unsigned int conv_1_weight_columns = 3;
static const float conv_1_weight[3][3] = {{
      0.8104825,      0.46710578,     0.018418515}, {
     0.21020855,      -0.1332291,       0.2648676}, {
    -0.52025235,    -0.111782715,     -0.32457033}
};

static const unsigned int conv_1_bias_size = 1;
static const float conv_1_bias[1] = {
     0.18842874};

static const unsigned int conv_2_weight_rows    = 3;
static const unsigned int conv_2_weight_columns = 3;
static const float conv_2_weight[3][3] = {{
     -0.6998596,     -0.27946687,      0.43442377}, {
    0.046536677,      0.70188683,       0.5378364}, {
   -0.014852313,     0.025878498,      0.32844415}
};

static const unsigned int conv_2_bias_size = 1;
static const float conv_2_bias[1] = {
    -0.16766767};

static const unsigned int dense_0_weight_rows    = 10;
static const unsigned int dense_0_weight_columns = 784;
static const float dense_0_weight[10][784] = {{
    0.056225304,     0.055422936,     0.020270629,     0.048174426,     0.077563755, 
        0.06437,       0.0372013,      0.03866628,      0.07649347,      0.07058814, 
     0.07348815,     0.092296265,     0.111913055,      0.10594684,      0.12836508, 
      0.0925006,      0.12617917,      0.07599024,     0.046847582,      0.04989989, 
     0.03233061,     0.044418275,      0.05460953,     0.041882016,     0.062824644, 
    0.028651584,     0.018744173,      8.8953e-41,      0.06197536,      0.05988629, 
    0.056921978,     0.026971312,     0.060839057,       0.0455669,     0.031047259, 
     0.07504618,     0.094118915,      0.11337483,      0.16429347,      0.18618566, 
     0.19116487,      0.06716274,     0.067750044,      0.14899585,      0.23832445, 
      0.2680542,      0.22783804,      0.18964887,      0.12074094,     0.010213941, 
     0.06331152,     0.084253035,     0.055510014,      0.04397879,     0.069807276, 
    1.37757e-40,     0.031265467,      0.04270605,      0.02942714,     0.050833605, 
    0.011553002,     0.013716013,    0.0073870886,    0.0025121581,    0.0037191976, 
    0.029995112,     0.104369655,      0.20262633,      0.19951029,      0.19617134, 
     0.18542087,      0.05156841,      0.15519018,      0.25197822,      0.22867133, 
     0.08592455,      0.06845831,      0.05290837,     0.022331623,     0.017668173, 
     0.03826352,     0.090853505,       0.0744684,   -1.125187e-39,     0.028881857, 
     0.09151743,      0.11347219,       0.1086968,     0.060029626,     0.049702287, 
    0.081225894,     -0.03448738,      -0.1022976,     -0.10276023,    -0.021534093, 
  -0.0062836637,     -0.03218347,     0.031294525,       0.0782766,     -0.12923017, 
    -0.09584268,     -0.23172109,      -0.3221912,     -0.08988075,      -0.1036481, 
    -0.19945008,      0.05992183,      0.11179413,     0.074066974,     0.045939814, 
    0.067443796,    -2.62724e-40,     0.036105376,      0.10501118,      0.08862473, 
     0.13697015,     0.115745656,      0.06994621,     0.016032021,      0.06605887, 
     0.12718475,     -0.05689739,     -0.10647435,     0.011408045,     -0.06413095, 
   -0.054390103,    -0.067512564,       -0.177557,    -0.035925485,   0.00045701218, 
    -0.17073353,     -0.12590615,     -0.06818992,     -0.17340745,     -0.11720376, 
     0.08867451,      0.15063138,       0.1693925,      0.14778723,     0.013500378, 
    0.045872714,     0.039195277,     0.109056376,      0.10356593,      0.00908246, 
    -0.19804521,     -0.36221236,     -0.39446005,     -0.20933865,    -0.058314193, 
   -0.008734901,    -0.064570665,     -0.16775337,     -0.14617278,     -0.08824131, 
    -0.13870053,      -0.1534348,    -0.050708897,    -0.099088036,     -0.17413074, 
    -0.30398318,      -0.3572134,     -0.37186667,     -0.18818305,      -0.1072036, 
    -0.05013023,    -0.055932365,      -0.0464159,     0.051646907,     0.046766747, 
    0.046199907,      0.05199223,     -0.20353208,      -0.3206552,     -0.41783592, 
    -0.36047137,     -0.20888752,    -0.086710535,      -0.1454921,     -0.08096373, 
    -0.14551239,      -0.1623323,     -0.13767721,     -0.18409753,     -0.08582937, 
   -0.030456949,     -0.18321866,     -0.15653919,    -0.083857074,     -0.23851015, 
     -0.2747499,    -0.115142874,     -0.13586038,     -0.23199679,     -0.20426942, 
   -0.039958652,      0.02324032,     0.010887648,   -0.0036746527,     -0.07427053, 
    -0.16872746,     -0.31988275,     -0.20684424,     -0.09198823,    -0.120356694, 
    -0.15587594,     -0.16029021,     -0.09466571,     -0.14921306,     -0.16275935, 
    0.030773725,      0.03920308,    -0.061978754,   0.00012317217,   -0.0018414181, 
   -0.009136912,     -0.06534886,    -0.016477866,     0.052962787,     -0.12743947, 
    -0.37480187,      -0.5673849,     -0.52681506,      -0.2662283,      0.04775709, 
     0.09690123,     0.056741267,    -0.120836295,     -0.30334416,      -0.1743342, 
    0.028766396,     0.017579408,     -0.07437822,     -0.21491462,     -0.21366054, 
   -0.069678694,     -0.17837572,      -0.1140077,       0.1045501,     0.042663496, 
   -0.015796445,     0.016025249,      0.03132553,      0.06871818,     -0.04098098, 
    -0.16649015,     0.012357729,     -0.08888413,     -0.20202003,     -0.37615347, 
    -0.37348914,     -0.14779668,      0.08877486,      0.18709412,       0.1971976, 
   -0.026593395,     -0.40823904,      -0.4007064,     -0.20401837,    -0.011351603, 
    -0.12215688,     -0.15508278,   0.00077983644,    -0.039250895,      -0.1392305, 
    0.050349984,     -0.05694333,      -0.0293842,      0.11554001,      0.17109306, 
     0.07243257,     -0.01831573,     -0.10926881,    -0.030725377,    0.0010426688, 
   -0.053745322,     -0.09838536,     -0.31602693,     -0.25305256,      -0.1573656, 
    0.093139865,      0.09861721,     0.051048014,     0.042132262,     -0.14554939, 
    -0.17796408,     -0.15279894,     -0.17921644,     -0.16478267,     0.012863071, 
   0.0104719335,     -0.05493119,     -0.07706797,    -0.098699056,    -0.121120505, 
   -0.008923038,      0.13039799,      0.14946522,      0.10649562,      0.09048096, 
    0.101230145,     0.045768395,     -0.14968513,     -0.11057181,      -0.1190632, 
      -0.548786,      -0.4632226,     -0.20196684,       0.0746573,      0.04928867, 
   -0.055034664,    -0.013101244,     -0.10717016,      -0.0704888,     -0.09826964, 
    -0.23242018,     -0.17089269,     -0.16024034,     -0.10365279,      -0.2653781, 
    -0.15546294,     -0.04814873,      -0.0695639,     -0.06852783,      0.05454324, 
     0.11263633,      0.13689844,     0.052688044,      0.06164365,     0.011617746, 
    -0.07344757,     0.016335618,     0.023653366,      -0.3609427,      -0.5076881, 
    -0.13772151,       0.0700316,      0.14034216,     0.019104159,     -0.26418456, 
     -0.2549435,     -0.16281824,     -0.17902426,     -0.28081042,     -0.16496359, 
    -0.06420088,     -0.15872869,     -0.22737136,     -0.18382412,     -0.16344318, 
    -0.21497366,      -0.3328184,     -0.25770128,    -0.112203375,     -0.02184453, 
   -0.014351225,     -0.01021459,       0.1734243,     -0.01728835,      0.02782163, 
    -0.08747419,     -0.54789543,      -0.6081348,     -0.14946757,      0.08264174, 
       0.133199,    -0.008232332,     -0.42423737,      -0.3844239,      -0.3077636, 
    -0.09670599,     -0.12640817,     -0.08799069,     -0.15466334,     -0.16474858, 
     -0.1016332,     -0.20153667,     -0.23219556,       -0.289586,      -0.4826405, 
     -0.3428089,      -0.1069129,    -0.035105325,     -0.20053196,       0.0324332, 
     0.13161653,      0.08023575,      0.12231824,    -0.053551827,     -0.19510043, 
    -0.41919857,     -0.31654373,      0.06986445,      0.09527504,     -0.02506428, 
      -0.383483,     -0.26340124,     -0.07442706,      0.02706037,     0.042856712, 
    -0.13709693,    -0.118261985,      -0.0816493,      -0.0259577,     -0.07881977, 
    -0.17338426,     -0.47441465,      -0.5782156,     -0.46931547,       -0.046203, 
   -0.062241465,     -0.10567014,     0.080489814,   -0.0073400233,    -0.027491884, 
     0.12807724,      0.32578847,    -0.059016045,      -0.4122834,    -0.023467474, 
    0.032321423,      0.05331397,     -0.09924975,      -0.3232874,    -0.088521734, 
    0.064413585,      0.18513405,         0.13759,      0.02667307,     0.026065744, 
   -0.016180433,     0.022197733,     0.044042006,     -0.27132058,      -0.5333969, 
     -0.6456715,      -0.6810998,     -0.16779715,     -0.15546921,     -0.04179587, 
   -0.075173505,     0.011195082,      0.18623544,      0.24768235,      0.25126156, 
    0.113476634,     0.008565138,     -0.09254887,     0.079569615,     0.101826556, 
    -0.16596346,     -0.27488568,     -0.07404939,      0.14971484,      0.15307602, 
     0.24254352,      0.06819295,      0.08476933,    0.0014181413,   -0.0010011558, 
    -0.05984324,     -0.28834844,      -0.5631926,      -0.6500289,      -0.5726383, 
     -0.3041922,    -0.047618423,    -0.072348095,    -0.074304454,     0.047768503, 
     0.11205454,      0.17553027,      0.20940493,      0.04434474,     -0.19650362, 
   -0.032016512,     0.061754692,    -0.008295191,     -0.08285724,     -0.21074323, 
    0.055750128,      0.28337273,      0.15013677,      0.09932195,      0.14599425, 
      0.0805701,    -0.012302626,      0.03713094,    -0.022998681,      -0.4376421, 
     -0.6534168,      -0.7620586,       -0.533516,     -0.20961365,      -0.1055423, 
    0.009598475,      0.07608693,      0.10005317,     0.039837606,      0.14302243, 
     0.15772189,     -0.03132196,     -0.25229603,    -0.049522985,      0.06868133, 
    -0.02157442,      -0.2478129,     -0.19035402,      0.16933134,       0.2676728, 
     0.11646537,     0.119204246,      0.24196823,      0.23029593,      0.14460795, 
    0.111230984,     -0.17262313,      -0.5223907,     -0.52807266,      -0.4004252, 
    -0.24390613,     -0.10013367,      0.03639525,      0.08600747,      0.08503108, 
     0.04562916,      0.02240658,       0.2272522,     0.051400658,     -0.11596803, 
    -0.07280639,    -0.058825497,      0.06827338,    0.0041328776,     -0.20259036, 
      -0.227522,      0.03253167,      0.19477737,       0.0768186,      0.09888631, 
     0.17502294,       0.3026698,      0.34980494,      0.22359951,     -0.20178182, 
    -0.58024544,     -0.47214133,     -0.30093154,     -0.19315481,    -0.012699613, 
     0.06936319,    0.0066513116,    -0.011856822,      0.06537793,     0.022727692, 
    0.117856085,      0.08606292,     -0.13115095,      -0.2257398,     -0.04263895, 
    0.060335323,      0.11151274,    -0.039358612,     -0.22782518,    -0.042389948, 
     0.07389509,      0.05914597,     0.048338577,      0.20393007,      0.41187453, 
     0.42134634,       0.2698262,     0.016514784,     -0.27098665,     -0.28981432, 
    -0.11593211,     0.043545175,      0.11522011,     0.026394697,      0.09425441, 
      0.1723721,      0.06806925,      0.11970616,       0.1353727,   -0.0009382295, 
    -0.02495273,     -0.15405473,  -0.00012429453,      0.05297274,     0.119406015, 
     0.01636526,    -0.032402646,    -0.057087813,     0.027247077,      0.15255104, 
     0.19373712,      0.16234048,       0.2187202,      0.25067335,      0.26175332, 
     0.14263941,      -0.1020864,     -0.27807087,     -0.12736839,     -0.01945315, 
   0.0042051934,     0.098357745,     0.074040204,     -0.06242656,    -0.021341274, 
     0.25283942,      0.12129784,     -0.27737984,     -0.29096097,      -0.2109426, 
   -0.006835138,      0.04298363,     0.039448824,    -0.026818637,     -0.19300197, 
    -0.09389326,       0.1357233,      0.17130482,      0.11686259,      0.12121044, 
     0.23716861,      0.24144861,      0.25601763,       0.3008887,      0.05594065, 
      -0.160951,    -0.060313456,      0.04990442,      0.10590953,    -0.037892256, 
   -0.053826038,     -0.04447347,      0.10630791,      0.19274636,    -0.108125426, 
     -0.1711288,     -0.20700012,     -0.04104496,     0.005733267,     0.043784164, 
     0.06569095,      -0.1470532,     -0.26521787,     -0.18682222,    -0.018436002, 
     0.05392171,      0.13376564,      0.19450329,      0.23875415,       0.3044477, 
     0.36878595,      0.30682266,      0.13922487,      0.06902549,      0.11989276, 
     0.10068816,      0.07644224,     0.061565317,    0.0058239554,      0.06804483, 
       0.161474,     0.041647498,     0.055427104,     0.020890642,    -0.103372484, 
    0.111177884,   1.5703023e-05,     0.072416134,     0.028795514,    -0.033775352, 
    -0.25682417,     -0.25222468,      -0.1228767,     0.033193633,     0.025950711, 
     0.07187747,      0.19251935,      0.30445755,      0.33029425,      0.21818647, 
     0.15551512,      0.13518912,     0.043075133,      0.10298561,      0.14544055, 
   -0.006483365,     -0.22864676,     -0.17261884,     -0.08052319,        0.268501, 
      0.2158621,     -0.11038554,     -0.21793891,     0.059931107,    -0.019072466, 
    0.056605622,     0.035784986,      0.03538671,    -0.055693574,      -0.2035791, 
    -0.01920732,      0.09386804,     0.023580715,    -0.044193868,      0.02850556, 
     0.21308811,      0.26410097,      0.18967073,      0.15755197,      0.12542704, 
      0.1330931,      0.14489163,      0.18000771,     -0.14233729,     -0.11710245, 
    -0.11965684,     -0.20171386,    -0.024797421,     -0.24072525,     -0.21432361, 
    0.009507631,       0.0898015,  -0.00020111543,     0.030017624,     0.078906015, 
     0.08056041,      0.03372672,    -0.005948119,      0.06107336,    -0.038043417, 
   -0.045192953,     -0.07220685,     -0.12464595,     -0.21399322,     -0.14632906, 
    -0.23073114,     -0.24549623,      -0.3248105,     -0.55647093,      -0.7833004, 
     -0.5108923,      -0.5661872,       -0.768925,      -0.8172357,     -0.49367386, 
    -0.16211213,     -0.11741556,     -0.06950929,     0.054915477,      0.11105829, 
   -9.20182e-40,      0.06696455,     0.123397246,      0.09870913,     0.101438954, 
     0.16442624,    -0.018955851,     -0.16851006,    -0.120469905,     -0.15287179, 
    -0.44627282,     -0.51133513,     -0.34764746,     -0.47067246,     -0.59439796, 
     -0.9992452,      -1.0780195,      -0.9496174,      -0.6139001,        -0.76336, 
     -0.6838734,     -0.46805355,     -0.49742472,     -0.17416836,     -0.01454008, 
     0.09358429,     0.094915815,     0.086088456,     8.00146e-40}, {
     0.32329625,       0.3213831,      0.31066105,      0.33506614,      0.31030577, 
       0.330018,      0.33940035,      0.35266742,      0.36614898,      0.35140756, 
     0.29726824,      0.24651077,      0.17336135,     0.116278104,       0.1290554, 
     0.12272549,      0.19974974,      0.30903408,      0.34806523,      0.31898898, 
     0.35475037,      0.34497154,      0.29418522,      0.29505888,      0.32735705, 
      0.2934759,       0.2842573,      2.3923e-41,       0.3396693,      0.20315525, 
     0.22108513,       0.2343377,      0.21045469,      0.21320762,      0.22275235, 
     0.16944635,         0.18744,       0.1867182,      0.09407939,       0.0979777, 
     0.07208403,    -0.036760908,     -0.02563051,    -0.029134009,    -0.017308202, 
    -0.01942534,      0.10528599,      0.25317475,      0.27202675,      0.28008372, 
     0.27182916,      0.21645214,      0.20532466,       0.2176584,      0.20659135, 
    9.66798e-40,       0.3227439,      0.18997507,      0.18261161,       0.1978658, 
     0.22407807,      0.22860403,      0.21483158,        0.191516,      0.10170291, 
    -0.06814064,    -0.064901315,      -0.1492863,     -0.18304299,     -0.25069025, 
     -0.2507855,     -0.28490728,     -0.15715885,     -0.18291835,    -0.097101286, 
    0.041650504,      0.22410561,       0.2716395,      0.30935565,      0.29790485, 
     0.27961582,       0.2709238,      0.21823773,     -8.8958e-40,      0.34248886, 
     0.17652974,      0.21101634,      0.20244937,      0.18843745,      0.24851906, 
     0.25037956,      0.16090727,      0.13369064,      0.09765422,     0.027153915, 
    -0.12024807,     -0.09846199,     -0.27076945,     -0.27941754,    -0.009893667, 
   -0.050469536,     -0.14880326,     -0.11610925,     -0.18789177,     -0.03721722, 
   -0.034545023,     0.017842324,      0.14125887,      0.21214469,      0.27890185, 
     0.26757088,     3.46194e-40,      0.30570748,      0.22632043,      0.22672203, 
     0.20966221,      0.16353239,      0.20265195,        0.244111,      0.28182727, 
     0.14428912,    -0.048517127,    -0.099308096,     -0.20352903,     -0.16075377, 
    -0.04641082,     -0.19749722,     -0.27504298,      0.16282389,      0.27502418, 
     -0.2740658,     -0.45525154,     -0.29934007,      -0.3675209,     -0.44773224, 
     -0.2974999,     -0.10188999,     -0.07105132,     0.062283155,    8.320873e-32, 
      0.3535665,      0.25573316,       0.2697946,      0.28871167,      0.26896495, 
     0.16130118,      0.13998254,     0.074809745,      0.14281297,      -0.0738929, 
    -0.36754176,      -0.5279774,     -0.32588196,     -0.09197131,     -0.15899193, 
    -0.18729626,     -0.17872676,     -0.20666955,      -0.4916894,     -0.50215745, 
     -0.2038474,      -0.3309815,     -0.36593297,     -0.30076197,     -0.39936885, 
     -0.4299611,      -0.2729538,     -0.18844706,      0.32966098,      0.25368547, 
     0.22955965,      0.34305435,      0.34196472,      0.36371616,      0.32143214, 
    0.048426837,     -0.11169975,     -0.17906302,     -0.29328376,     -0.24889727, 
    -0.23636684,     -0.19017293,     -0.22633135,     -0.28559205,     -0.21973912, 
    -0.21876733,     -0.31148484,     -0.12715454,    -0.027361935,     -0.16365638, 
     -0.2598941,     -0.14020534,      -0.2894581,      -0.4059575,     -0.33957207, 
    -0.34237933,      0.28679767,      0.18830152,      0.19898267,      0.25898233, 
     0.28727204,      0.19316992,      0.09741344,    -0.056041572,     -0.16855374, 
    -0.22915006,      -0.2548945,      -0.2898287,     -0.37339947,     -0.24923724, 
    -0.28549364,     -0.27387714,      -0.1429736,     -0.35250822,     -0.38885313, 
    -0.16633865,     -0.22862832,     -0.27975848,     -0.15117079,     -0.05248149, 
    -0.09483543,     -0.16329809,     -0.16653553,     -0.08732257,      0.32854295, 
     0.14718676,     0.053199846,      0.10318194,      0.24344741,      0.11637508, 
    -0.13826574,     -0.40101436,     -0.43159518,     -0.24287006,    -0.011405709, 
     -0.1884812,      -0.1617596,     -0.14954627,     -0.28955823,     -0.26064903, 
     -0.3095665,     -0.32135606,        -0.24456,     -0.16626662,     -0.09353614, 
    0.021446537,     -0.14046751,     -0.20207374,     -0.32579607,     -0.60890853, 
    -0.38827068,     -0.07520572,      0.27414373,      0.09598812,    -0.024722552, 
   -0.029741848,      0.11241592,      0.08274523,     -0.08256376,     -0.14004382, 
    -0.20984448,     -0.16416907,     -0.20397848,     -0.24514088,     -0.24668258, 
    -0.15304294,     -0.12289039,     -0.27413142,     -0.32211033,     -0.29570928, 
    -0.21758954,     -0.21709138,    -0.035112087,     -0.14456727,      -0.2144525, 
    -0.32024443,      -0.3921769,     -0.79379773,      -0.4681981,      -0.1881108, 
     0.31492817,     0.062239666,     -0.05591897,    0.0033330158,     -0.02192653, 
    -0.14498669,     -0.10227726,      0.08050769,     0.055694725,     -0.06143412, 
    -0.10593953,     -0.10088285,     0.050981358,     0.015791707,    0.0002943985, 
   -0.025116205,     -0.20357521,     -0.22667465,     -0.09450169,      -0.1713807, 
    -0.21562624,     -0.16606745,     -0.16566086,     -0.30127865,      -0.5276465, 
     -0.5104419,     -0.24489744,      -0.2887541,       0.2818472,     0.121358715, 
    0.008984066,    -0.045028463,     -0.11371881,      -0.3528729,     -0.28487256, 
   -0.060867794,      -0.0182181,    -0.123533875,      -0.0658929,    -0.002400174, 
  -0.0011196742,     0.039532334,      0.14070877,      0.08355901,     -0.16019437, 
    -0.16487925,      -0.1346537,     -0.17541894,     -0.24165066,      -0.2001363, 
   -0.051658824,      -0.1549692,      -0.4976308,      -0.5697789,     -0.05794356, 
    -0.17250185,      0.33326945,        0.128033,    0.0036174941,    -0.018779613, 
    -0.12025551,      -0.2591644,      -0.3975656,     -0.27580124,     -0.28470817, 
    -0.28172445,     -0.19528773,      -0.1415497,     -0.08007646,      0.05749687, 
      0.1756575,      0.23739335,    -0.019019386,     -0.13737509,      -0.2904344, 
    -0.21072574,      -0.3012092,      -0.1973202,     -0.12977967,     -0.38876763, 
    -0.39000618,     -0.24037643,     0.099614106,     -0.11429941,       0.3140525, 
     0.17720751,      0.12956983,     0.060562477,    -0.024486518,     -0.14115973, 
    -0.38060737,      -0.2440347,     -0.16828269,     -0.26530504,     -0.23439768, 
    -0.15247376,      -0.0368496,       0.1698304,       0.2954599,      0.30093962, 
    0.087505296,     -0.22406538,     -0.22069196,     -0.19853318,     -0.22415286, 
    -0.07373267,     -0.19100098,    -0.032556187,      0.04658107,    -0.017414046, 
     0.06315456,     -0.13370396,       0.3396655,      0.20998773,      0.17475791, 
     0.19541775,      0.20345147,     0.095293954,      -0.0935487,    -0.043880213, 
   -0.083998434,    -0.096735045,     -0.19969733,       -0.231936,     -0.16649227, 
     0.07876297,       0.2615601,       0.3510982,    0.0042638625,     -0.29159793, 
    -0.20019116,      -0.3145883,     -0.43286833,     -0.35262227,     -0.05807873, 
    -0.16938707,    -0.109428555,       -0.087021,   -0.0155466255,     -0.14874876, 
      0.3146873,      0.19497775,      0.24201639,      0.34479105,       0.3421414, 
     0.11063027,     0.025052464,     0.063357055,     -0.07966767,     -0.15402332, 
    -0.32212773,     -0.36757153,      -0.1636494,      0.10670311,       0.2966271, 
      0.3454525,     0.025846517,     -0.17517138,      -0.3083378,     -0.54029995, 
    -0.37682015,     -0.23740382,     -0.20033756,     -0.12416161,      -0.0866182, 
     0.05873052,       0.1481233,    -0.008798926,       0.3172485,       0.2147144, 
      0.2776485,      0.36029482,      0.34907597,    -0.010151856,      -0.1786865, 
    -0.14415888,    0.0062985457,    -0.034994688,      -0.3889604,     -0.41800204, 
   -0.011010546,      0.25464892,      0.35408974,      0.27296743,     0.034164794, 
    -0.03693084,     -0.48469523,      -0.7719123,      -0.6042104,     -0.37755105, 
    -0.28047112,     -0.15208797,    -0.059317246,    -0.013790411,       0.1014786, 
    -0.09747893,        0.330279,      0.23687342,      0.23981097,      0.28542033, 
     0.17137833,     -0.14840962,     -0.29200646,     -0.09169357,      0.16403571, 
    0.088594235,     -0.29520532,     -0.22122513,      0.17740685,       0.2611074, 
     0.32061535,      0.21331804,     -0.00503801,     -0.22073379,     -0.67753047, 
     -0.8652248,     -0.45063326,      -0.3221757,     -0.23167072,     -0.25346547, 
    -0.22134833,    -0.088004194,     -0.02655379,     -0.08151999,       0.3277819, 
      0.1904192,      0.15111373,      0.14624365,      -0.1084939,     -0.32757908, 
     -0.3877391,     -0.16648692,      0.03790669,     -0.09812815,     -0.34905198, 
    -0.21166214,      0.06892577,      0.24420668,      0.34183082,      0.24263066, 
    0.075782955,     -0.63361096,     -0.74804884,     -0.64355475,     -0.26582658, 
    -0.17270735,    -0.076389335,     -0.14924529,     -0.11677441,     -0.10295658, 
   -0.118164964,     -0.24522072,      0.31130776,      0.17492713,       0.1306684, 
   -0.045176696,     -0.22160485,      -0.5118825,      -0.6585389,      -0.5543011, 
     -0.2736391,     -0.21907768,       -0.318795,     -0.16904534,      0.10158432, 
     0.27745733,       0.3936613,      0.26663315,     -0.16396235,      -0.7808296, 
    -0.23833045,     0.031263795,     0.057496414,     0.022911543,     -0.13366316, 
      -0.221237,     -0.15645072,     -0.17380777,    -0.015266126,    -0.033084758, 
      0.3459789,      0.20246337,      0.11168138,    -0.048073325,     -0.46988165, 
     -0.6825114,      -0.5333526,    -0.012909085,      0.14261061,      0.07666871, 
   -0.076434225,    -0.024930725,      0.04964921,      0.21831724,      0.33610132, 
    0.094856046,     -0.31962845,      -0.4295626,     0.011113051,     0.050362725, 
     0.10998972,     0.042623743,     -0.10255891,     -0.20137872,      -0.1571764, 
    0.036119927,      0.31219766,    -0.027800987,       0.2880944,      0.23334838, 
     0.32111508,      0.17729501,     -0.19039147,      -0.5296321,     -0.42161766, 
   -0.006050524,       0.1781962,      0.11721748,     0.036558624,     -0.09872773, 
    0.107203074,       0.3122535,      0.34250987,      0.06087377,     -0.10665219, 
    -0.02294537,      0.08427723,      0.21931674,      0.14303504,      0.09576383, 
    0.014273242,      0.06838058,      0.23202105,      0.33487245,      0.37020773, 
   -0.045309562,      0.29342735,       0.2624108,      0.31765696,       0.3417039, 
     0.24818535,      0.07384616,      0.08785646,      0.17604333,      0.13788259, 
     0.04787148,     -0.06948175,    -0.071851164,   -0.0070101353,     0.094099864, 
    0.092549115,     0.024823328,     -0.06992855,     -0.16709885,     0.024811212, 
     0.16249129,      0.11828774,     0.037504017,    0.0020228326,     -0.06526848, 
    0.080663286,      0.26029325,      0.38324812,     0.057113737,      0.28742325, 
     0.17234105,      0.22194152,       0.2949714,      0.25526333,      0.29106715, 
     0.28581536,      0.25391802,      0.12786692,     0.047587845,     0.071443774, 
   -0.023855774,    -0.097129375,    -0.100435875,     0.002924059,     0.040323086, 
  -0.0034753853,    -0.023936514,      0.17276838,      0.15135421,       0.0980135, 
      0.1256195,      0.05469951,      -0.1983824,      0.15951014,       0.5185428, 
     0.38237062,  -4.8242182e-08,      0.30168015,      0.18235375,     0.120978594, 
    0.084720664,      0.13682975,      0.21362612,       0.2112348,     0.052494552, 
    -0.06612375,     0.021135801,       0.1306307,      -0.0309558,     -0.11294623, 
   -0.024896955,      0.07888228,     -0.06511665,    -0.046611413,        0.153555, 
     0.21680741,     0.085031785,     0.048315015,      -0.0970867,       -0.324013, 
     -0.1844734,     -0.08914242,     0.046911817,      0.26641613,      0.10452813, 
     0.34461027,      0.21425118,      0.14892265,    -0.021411534,     -0.13168028, 
  7.2993156e-05,      0.10200215,   -0.0052243816,        -0.01882,      0.04349374, 
    0.031524867,     -0.06394567,    -0.081866376,    0.0035241742,    -0.108076826, 
   -0.029470047,     -0.08135343,    -0.105409026,     -0.12383827,      0.05362078, 
      0.1415225,     -0.15341413,     -0.23330922,     -0.20537896,    -0.002555491, 
     0.15066233,       0.1882055,     0.010601781,      0.34029675,      0.18155709, 
     0.16497885,   -0.0044465647,     -0.17918512,     -0.11275457,     -0.10398131, 
    -0.18279697,     -0.09202408,     -0.12888679,     -0.15141447,     -0.35146838, 
    -0.17113039,     -0.16230507,     -0.21695714,     -0.28736508,     -0.31157866, 
    -0.22123367,     -0.15266094,    -0.041131057,     -0.25814787,     -0.22427434, 
    0.077717006,      0.10107873,      0.13873582,       0.2168471,       0.2672574, 
    1.04791e-39,       0.2650371,    -0.063904814,     -0.11517069,      -0.1900459, 
      -0.367948,       -0.397973,     -0.41103306,      -0.3238557,      -0.3208636, 
    -0.26034877,     -0.69077796,      -0.9639531,     -0.45424554,      -0.5257489, 
    -0.64598846,     -0.65359336,      -0.6364911,     -0.46948227,     -0.55270714, 
      -0.461766,     -0.44126093,     -0.33634067,     -0.18509191,      -0.1836369, 
    -0.11545915,    -0.061247557,    -0.096190564,    -1.41541e-40}, {
    -0.14013101,     -0.14080957,     -0.13367258,     -0.16583808,     -0.12060655, 
    -0.13524166,     -0.10500104,     -0.08594995,     -0.06853916,     -0.05364779, 
     0.04065812,     0.064943805,      0.10878703,      0.19610514,      0.11120275, 
    0.040165804,    -0.084965445,    -0.107553765,     -0.10923715,    -0.083989024, 
    -0.11684086,      -0.1663477,     -0.18426201,       -0.155706,      -0.1844401, 
    -0.16472182,       -0.132881,     4.57862e-40,     -0.13278559,     -0.15474142, 
    -0.15330924,     -0.09954518,     -0.07821537,     -0.10731732,     -0.06664977, 
   -0.016843755,     0.055324692,       0.1117213,      0.09847449,      0.09017486, 
     0.23202108,      0.33720475,      0.43156055,        0.508206,       0.3569572, 
     0.23863667,      0.09373641,    -0.037533123,     -0.04654076,     -0.07451168, 
    -0.16811512,     -0.11910464,      -0.1359629,     -0.13356915,     -0.17559437, 
   -7.94779e-40,     -0.11489574,     -0.15891482,     -0.16718778,    -0.104462825, 
    -0.08535575,   -0.0071073314,    0.0027498617,     0.035462514,      0.08886961, 
     0.23929703,       0.2493661,      0.26790676,       0.1505592,      0.24583648, 
     0.51563406,      0.75061756,       0.8361336,      0.47688177,     0.090022124, 
     0.03674801,     -0.05733656,     -0.12954336,     -0.12341041,    -0.114729926, 
    -0.16149066,     -0.12423273,     -0.14630292,     6.87658e-40,     -0.14489143, 
    -0.17639096,     -0.17133644,     -0.12164402,     -0.07916447,    -0.041128892, 
     0.09663138,      0.23809458,      0.19649509,      0.22678293,      0.20286387, 
     0.31796166,      0.48433205,      0.28462097,      0.25513756,      0.24953558, 
     0.18225516,      0.22439952,     -0.09201783,     -0.30116668,     -0.11501266, 
    -0.22517236,      -0.3186606,     -0.19751087,     -0.03132931,       -0.087047, 
    -0.15603475,    1.495976e-39,    -0.117461786,     -0.18829447,     -0.16967702, 
    -0.11429447,    -0.083643205,    -0.086006224,    0.0039813486,       0.2879098, 
     0.34608576,      0.42853916,      0.32993546,      0.21702129,       0.2735374, 
     0.32635757,      0.31069845,       0.2182927,      0.13949613,    -0.061679628, 
    -0.09794262,      -0.1239455,     -0.21562397,     -0.21933007,     -0.16574474, 
    -0.37152117,     -0.16077994,     0.030109037,   -0.0057434873,  -2.7046247e-25, 
    -0.13879015,     -0.14019583,     -0.20454963,      -0.2512889,     -0.21215764, 
   -0.023621896,     0.094930775,       0.2584464,      0.24295352,      0.24240407, 
     0.29875404,      0.23087516,       0.1292995,      0.15770811,      0.17755218, 
    0.110277586,     0.087903365,     0.073797144,      0.06529938,    -0.035472926, 
    0.025315488,     -0.19171812,      -0.2957775,       -0.345873,      -0.2535463, 
   -0.041440472,   -0.0022264516,   -0.0029392154,    -0.124073066,     -0.10196858, 
    -0.11021386,     -0.10043031,     -0.13569151,     -0.07534328,     0.073603705, 
     0.20534104,      0.13212726,      0.11068489,      0.19928312,     0.085828565, 
   -0.021036867,    -0.026750455,      0.07825727,      0.08974353,      0.07146337, 
    0.054921545,     0.023788072,    -0.017662141,     -0.06451468,   -0.0026354077, 
     -0.1336751,      -0.4554556,      -0.3296611,      0.09015876,     -0.02267584, 
     0.08797333,     -0.14574462,    -0.111190096,    -0.006787052,     0.027098073, 
      0.1256215,      0.16548973,      0.09141229,     0.019491324,     -0.03284969, 
   -0.012133757,     0.013759949,      0.08469833,      0.08665664,      0.10182542, 
   0.0075109336,     0.019625505,    0.0029437535,      0.08594259,     0.076846555, 
  -0.0011181401,   -0.0022441864,    -0.040789288,     -0.14221449,     -0.33111805, 
     -0.4596496,     -0.25113657,    -0.096511744,    -0.010357972,     -0.13521458, 
    -0.17454441,     -0.12056286,   -0.0075891586,      0.09755894,     0.037582573, 
  -0.0039887885,      0.09742373,      0.07074464,      0.06383706,      0.08347466, 
    0.012025501,    -0.014365694,      0.11401976,      0.12797742,     0.042603757, 
    0.059638556,    -0.020498168,    -0.113175854,       -0.105706,    -0.092188336, 
     -0.1114644,    -0.033690892,     -0.47678894,     -0.89108443,     -0.38326025, 
   -0.052333172,      0.08951226,    -0.097052865,      -0.1696635,     -0.07318147, 
     -0.1058152,     0.015013632,    -0.017245594,    -0.113641806,     -0.13131438, 
   -0.031546436,     0.059591305,     -0.02616381,     0.018185455,     0.083614685, 
     0.06194286,      0.16331731,      0.11253476,     -0.06312706,    -0.105542615, 
     0.06767659,      -0.1135225,     -0.14007436,     0.059882365,      0.08832619, 
    0.013670367,     -0.63054353,      -0.4766367,     -0.20996383,    -0.088696815, 
    -0.15202098,     -0.11023471,     -0.06735947,    -0.041084815,     0.110665925, 
     0.12154898,      -0.0693672,     -0.19787769,     -0.09926255,     0.015178867, 
    0.043872327,     0.051683497,     -0.07658507,     -0.06197386,     0.124970526, 
    0.058687147,      0.09901292,      0.12750916,     0.016077168,     -0.04105528, 
    0.006699015,     0.013226869,      0.04033453,     -0.04658935,     -0.32786295, 
     -0.5696651,     -0.42634946,    -0.048023965,     -0.10786467,     -0.10315855, 
    -0.07260785,    -0.060253125,     0.060586933,      0.04771385,     -0.05914574, 
    -0.05669408,    -0.079641156,     -0.08502832,    -0.047014784,    -0.009151644, 
   -0.067366615,     -0.01578631,      0.06517005,      0.12190793,     0.030003497, 
    0.004270973,     0.047748823,      0.08548488,     -0.04635365,     -0.12535222, 
    -0.03448676,     -0.23226234,     -0.64578813,     -0.73419356,     -0.27139604, 
   -0.028585779,     -0.11832504,     -0.22782597,     -0.24064265,     -0.07079509, 
   0.0015334402,      0.08475007,     0.101464644,    -0.052660193,     -0.04868694, 
   -0.019841408,    -0.094976574,     -0.10043203,     -0.21569362,     -0.33793563, 
     -0.3894097,     -0.26263088,     -0.17723802,    -0.081152916,     -0.09845633, 
    0.019331466,     0.025498692,     0.023724118,    -0.025095465,     0.061071847, 
    -0.12352847,     -0.32145143,     -0.17274977,       0.1846416,     -0.15046062, 
    -0.21333143,      -0.3063599,     -0.17363742,     0.028792847,      0.22761635, 
    0.023026148,      -0.2083756,     -0.22663626,     -0.19325201,      -0.3356519, 
    -0.39883858,      -0.5024545,       -0.566723,     -0.41602945,     -0.33523512, 
    -0.21728063,     -0.13627021,     -0.12430645,     -0.11690426,     -0.01809131, 
    -0.11634807,    -0.039278038,     0.012643404,     -0.35327384,      0.18367244, 
     0.58649707,      0.34197906,     -0.09926123,     -0.18890569,     -0.32784662, 
    -0.38419738,     -0.35583216,      -0.2787193,     -0.48111013,      -0.6224236, 
     -0.6013463,     -0.40502357,     -0.36401835,     -0.18841799,     -0.16803059, 
    -0.04830048,     -0.09667807,       -0.261854,      -0.2434884,    -0.098699786, 
    -0.13663964,   -0.0050468086,    -0.044854052,     -0.10946139,    -0.046233036, 
    -0.15040554,     -0.04720748,       0.5092263,      0.61994606,      0.73324984, 
     -0.0977468,     -0.16708556,     -0.30290037,     -0.55090636,      -0.8314481, 
    -0.85004044,     -0.65149903,     -0.54950464,     -0.16850547,    -0.011339509, 
     -0.1888724,       -0.085983,      -0.0559983,     -0.08597623,      0.01013562, 
   -0.052577317,     -0.16243868,    -0.121138975,     -0.13323721,    0.0046905964, 
    -0.07101216,     -0.02657323,      -0.1498403,     -0.10286541,      0.15553285, 
     0.57083595,       0.6982718,       0.7231104,     -0.10134301,     -0.16393869, 
    -0.20759073,      -0.3882659,      -0.5895919,     -0.50636977,     -0.19359581, 
    -0.14569616,    -0.016399482,    -0.064872324,    -0.096841075,    -0.057893254, 
    -0.12923291,     -0.12128657,    -0.084025495,     -0.19714488,     -0.19783482, 
     -0.2242807,      -0.1543014,    -0.022767289,    0.0038508163,     -0.15598115, 
    -0.09451617,      0.06636845,      0.25768363,      0.47946888,      0.52546245, 
      0.6857298,     -0.10525807,    -0.043273065,     0.052023925,      0.12473056, 
     0.07095968,    -0.026036195,    -0.035014994,     -0.09330662,     -0.12657103, 
   -0.024366463,      0.03378458,     -0.04833153,     0.053214114,      0.14711882, 
     0.08608519,     0.037777647,     0.019911695,    -0.039659686,  -0.00017558112, 
     0.02693874,    -0.017321087,     -0.04445643,   0.00062416703,     -0.16005753, 
     0.28382438,      0.57559764,        0.852197,       0.6934209,     -0.15231748, 
    0.020899482,      0.27964202,      0.50911546,      0.40096822,      0.12147108, 
     0.06612367,     -0.04213359,      -0.1810242,     -0.10168757,      0.04669384, 
    0.105471544,      0.20172566,      0.16556175,      0.03371188,    -0.035540618, 
    -0.03468821,    -0.001358411,     0.045713466,     -0.05961748,     -0.03435018, 
     0.07136818,     0.047372207,      0.09927894,      0.22023594,      0.33517504, 
     0.72059894,       1.0847328,       -0.140664,    -0.101084344,      0.15489069, 
      0.3468618,      0.27548176,      0.16591497,      0.13849062,     0.056745313, 
    -0.07651067,    -0.027485903,    0.0018015286,     0.021461552,      0.15086015, 
     0.27131498,      0.09426054,     0.016319396,     0.022997776,      0.05568104, 
   -0.027093375,    -0.067661494,    -0.053102992,      0.05134206,     0.061369095, 
    -0.05566868,      0.18747313,       0.7671472,       0.9978603,      0.73408556, 
    -0.14486162,     -0.13155977,     -0.07333404,     0.012151712,       0.1105739, 
     0.17397049,      0.06299702,    -0.027921561,    -0.017003246,    -0.020705495, 
    0.061976887,      0.00894758,      0.12037627,      0.21712273,      0.19087692, 
     0.10472893,      0.09756564,      0.12589276,       0.1985417,      0.05903191, 
    -0.10279399,   -0.0054646283,   -0.0064427326,     0.095392905,       0.3208676, 
      0.4685283,       0.6742774,       0.5585598,     -0.14471675,    -0.100458056, 
   -0.118624255,     -0.11089151,      0.11121018,       0.1501748,     0.048117895, 
    0.041784108,     0.050964184,     0.026576605,       0.1287421,     0.057283808, 
     0.14613082,      0.15985928,     0.052236166,    -0.005169321,     0.090898015, 
     0.09629523,     0.003944287,    -0.041312877,      0.13896659,      0.12953603, 
     0.11364235,     0.116608225,     0.036899213,       0.4422357,       0.6393426, 
     0.13606863,     -0.11033986,     -0.07727581,     0.009037592,       0.0784656, 
     0.16896935,     0.057838123,     0.042487994,      0.11021801,     0.119239375, 
    0.025039697,       0.0517145,      0.03493489,     0.035787366,    -0.035669487, 
    -0.03973088,  -0.00079535856,      0.16400693,      0.03341835,     0.014267243, 
     0.09637583,      0.05074749,      0.11669362,      0.17684658,     0.111229055, 
     0.27921948,      0.69838023,      0.13679872,     0.062405873,     -0.13914523, 
   -0.073123574,     0.109346874,      0.22243035,      0.21779117,      0.11168906, 
    0.109738305,      0.13880564,      0.06353366,     0.049891453,      0.17969804, 
     0.14006478,      0.06586754,     0.034976453,    -0.027698115,      -0.0779349, 
    0.003386434,      0.09455615,     0.107188135,      0.16393584,      0.14080311, 
     0.10087503,    0.0022758201,      0.06342981,      0.10543509,       0.1709277, 
    -0.22781676,      0.02885039,     -0.12421279,     -0.12365127,    0.0018645218, 
     0.09954462,     0.026304424,      0.04600599,      0.08123044,     0.080231786, 
      0.1045707,      0.07148109,      0.08698734,      0.02174106,    -0.009714683, 
   -0.016964734,      -0.1263567,     -0.17273477,     -0.14843567,    -0.048226394, 
  -0.0073774788,      0.07123829,      0.06487847,      0.20959902,      0.31363094, 
     0.24893877,      0.35867593,      0.32898208,    0.0024571302,        0.140844, 
    -0.13584173,     -0.15566657,     -0.20169115,     -0.25054288,     -0.27587005, 
    -0.27747786,     -0.18659371,     -0.06547579,     -0.08038315,    -0.018643606, 
   -0.025539681,     0.012919168,     0.083525784,       0.0361511,     0.019112814, 
   -0.072010465,       -0.060688,     -0.05970589,      0.06311506,      0.11271038, 
     0.13634224,      0.15035732,      0.24040598,      0.09950462,      0.27561608, 
     0.29709792,      0.11629281,     0.080310024,     -0.12506744,     -0.15449801, 
    -0.19743836,     -0.35654268,     -0.41382012,     -0.42091447,      -0.3732224, 
    -0.29306066,      -0.3210865,       -0.237705,      -0.2889647,     -0.34657547, 
    -0.18948959,      -0.1798848,     -0.29428253,     -0.10096344,     -0.12115677, 
   -0.046905562,  -0.00080602884,    -0.047026534,     -0.34018916,     -0.20727032, 
     -0.3441901,      -0.4990497,     -0.22718719,    -0.113620594,     -0.15999857, 
  -1.157111e-39,    -0.119575836,     -0.06627392,     -0.15402512,     -0.27308646, 
    -0.36754686,      -0.4173887,     -0.27577624,     -0.25843906,     -0.53819793, 
     -0.8641736,      -0.8899246,      -0.7691172,     -0.45206726,     -0.50708103, 
    -0.64123607,     -0.57914704,     -0.85196024,     -0.73008186,      -0.7733345, 
     -0.6876778,      -0.5803426,     -0.36154348,     -0.34873858,     -0.24614424, 
  -0.0016266627,    -0.020473184,    -0.113024056,    -5.51456e-40}, {
    -0.28237793,     -0.27720448,     -0.25007597,       -0.276755,     -0.28360966, 
    -0.24564373,      -0.2403357,     -0.24208716,     -0.25275165,     -0.22164658, 
    -0.25382495,     -0.28631786,      -0.2977689,      -0.2845052,     -0.27070108, 
    -0.26195934,     -0.25422546,     -0.26830694,     -0.23773518,     -0.26126048, 
    -0.24189384,      -0.2533114,     -0.22702111,     -0.25622785,     -0.26839074, 
     -0.2708171,     -0.26117408,    -6.86461e-40,     -0.26681402,     -0.16397215, 
    -0.21232007,     -0.22698003,     -0.18929619,     -0.16858257,     -0.12785056, 
    -0.15529278,    -0.123822376,     -0.15132871,       -0.144472,     -0.16812816, 
     -0.2563262,     -0.26005778,     -0.29929218,     -0.34116754,     -0.26169735, 
    -0.22708073,     -0.22218272,     -0.19463508,     -0.23267698,     -0.20957822, 
    -0.17416333,     -0.12566712,     -0.17191724,     -0.20065871,     -0.20278984, 
   -7.71782e-40,      -0.2982361,     -0.22546527,     -0.21086664,     -0.22203802, 
    -0.14966314,     -0.13740616,    -0.060011216,      0.05225984,      0.12369044, 
    0.073884614,    -0.031400185,     -0.10845179,     -0.21137185,     -0.20551841, 
    -0.21116975,     -0.17413135,     -0.19227739,     -0.24017884,      -0.2768674, 
    -0.18881167,     -0.17079742,     -0.22057073,     -0.22995688,     -0.18687186, 
    -0.12952682,     -0.15543295,     -0.17846401,    1.414956e-39,     -0.26135767, 
    -0.17178875,     -0.16673616,     -0.17009853,    -0.111951865,     0.026033783, 
    0.020216644,      0.08751547,      0.20693798,      0.39009416,       0.2960806, 
      0.3005746,      0.22571014,      0.21330966,       0.1652046,      0.03511674, 
    0.085640535,     -0.19123504,     -0.24412042,      -0.3678103,     -0.25592914, 
    -0.15048817,     -0.15961666,      -0.2631286,     -0.23142117,     -0.16691607, 
    -0.17550234,    1.574443e-39,     -0.28078553,     -0.20304297,     -0.17229186, 
   -0.098927885,    -0.046754017,      0.12669474,      0.10777959,      0.15405881, 
     0.22467464,      0.30849814,      0.37737232,      0.42468983,      0.42712194, 
      0.3388392,       0.3264077,      0.30247444,      0.21203724,     0.051830973, 
   -0.038094554,     0.009476433,      0.04029649,     -0.40095228,     -0.53092223, 
    -0.41165054,      -0.2998604,     -0.18775362,      -0.1473734,   5.8162555e-28, 
    -0.26346618,     -0.21969973,     -0.24431586,     -0.07801881,      0.14759192, 
     0.22566612,      0.31981185,      0.18825519,      0.31025267,      0.30976978, 
     0.29400113,      0.29810184,      0.24694578,      0.13925755,      0.14537823, 
     0.16529495,      0.11136157,    -0.008438101,     0.040992353,      0.12112441, 
     0.18293498,      0.18303044,    0.0039479802,     -0.46524692,       -0.533088, 
    -0.27948186,     -0.16758636,   -6.055986e-05,     -0.24500254,     -0.23827118, 
    -0.16147095,    -0.015649008,      0.17955333,      0.40869233,      0.30425715, 
     0.19144022,      0.18433668,        0.191449,        0.173304,       0.1836202, 
     0.21978098,      0.16897534,      0.13776879,      0.06525505,      0.05268543, 
   -0.054507785,     -0.14938308,    -0.021244057,     -0.09216902,     -0.19963866, 
    -0.21596175,     -0.17021188,      -0.3711217,     -0.44629532,     -0.22395691, 
   -0.005322004,     -0.24980286,      -0.2190894,     -0.12950078,     0.031897802, 
     0.23204184,       0.2422584,      0.23016687,      0.20892882,      0.13598919, 
     0.17894158,      0.25775114,      0.17369317,      0.08266515,      0.09948707, 
      0.1493377,      0.12609313,     0.123259224,     0.005252665,    -0.040139396, 
  -0.0045200693,     -0.13083121,     -0.16063349,    -0.098559484,    -0.100563645, 
   -0.046674673,     -0.14161968,     -0.07552474,    -0.025894757,      -0.2704464, 
    -0.20884284,    -0.022015532,      0.10577609,      0.22779368,      0.23679489, 
     0.21170436,      0.06425627,     0.045220893,      0.10121247,      0.13342004, 
     0.14371027,       0.1841485,     0.115915954,      0.09389576,      0.10354855, 
     0.10810871,      0.07799681,     0.037421968,     -0.01731325,     -0.10713723, 
    -0.18647765,     -0.20985791,     -0.24801004,     -0.18916872,    -0.034744278, 
    -0.10326126,   -0.0138651505,     -0.25339055,     -0.17985535,    -0.059495777, 
     0.16231646,      0.24822055,      0.31649795,      0.17312984,     0.002987544, 
     0.01353162,     0.058567144,     0.068905324,     0.081969194,      0.12121661, 
     0.18501152,      0.19279514,      0.21069363,       0.0940352,     0.026138311, 
     0.05234863,    -0.005742548,   0.00083678035,     -0.10844847,     -0.14845838, 
    -0.21634872,     -0.35193554,     -0.46283454,     -0.37301958,    -0.015295015, 
    -0.26646125,     -0.15388262,    -0.018657438,      0.13256638,      0.21379152, 
      0.1347708,  -0.00023829498,      0.07364597,     0.068181664,     0.022793112, 
     -0.0396783,    -0.022265956,      0.14465488,      0.21082759,      0.14179042, 
     0.16169393,      0.13755122,       0.0658619,      0.08515671,      0.11480253, 
    0.102378905,      0.07105655,     0.021490037,    -0.066460446,      -0.3543598, 
    -0.87799305,     -0.41685635,    -0.013621645,     -0.29455128,     -0.07623048, 
      0.1102426,      0.30360729,      0.25647092,      0.05065819,    -0.005741815, 
    0.037807968,     0.066761464,      0.09927087,     0.071302034,    -0.022879079, 
   -0.045752045,    -0.027196396,      0.13963096,      0.29785845,      0.17243679, 
     0.13970068,     0.039433617,      0.07079936,      0.14573598,      0.07883744, 
   -0.009943799,     -0.06484248,      -0.4464499,     -0.83531064,     -0.38071945, 
    -0.03354082,     -0.24228652,     -0.13519518,      0.09887898,      0.41796178, 
     0.25842667,     0.092677005,     0.025500642,    -0.013669344,     -0.12695606, 
    -0.20530236,       -0.247614,     -0.23250122,     -0.14918704,      0.12597018, 
     0.26547357,      0.24088395,      0.19854802,      0.11528888,       0.1681579, 
     0.12082643,      0.13833852,    -0.010627221,      0.15718628,       0.1645858, 
    -0.52682495,     -0.80797344,      -0.4455886,   -0.0031587712,     -0.25102043, 
    -0.21372135,     0.020533852,      0.25802216,      0.18445651,    -0.001046383, 
    0.008774648,     -0.12680876,      -0.2546428,     -0.32283932,     -0.19296037, 
     -0.0754952,      0.05667123,      0.28874856,       0.2616604,       0.1923052, 
     0.14629725,      0.09256638,     0.072442904,    -0.035614938,    -0.039359912, 
    -0.09132861,     -0.08983768,     -0.08480396,       -0.407712,     -0.41645283, 
    -0.24169123,  -0.00018403909,       -0.311264,     -0.20033194,    -0.041932777, 
     0.11419021,    -0.023423806,      -0.2073455,     -0.09954375,     -0.17866771, 
    -0.16667353,     -0.09630434,    -0.015356369,    -0.054303568,    -0.028529046, 
     0.14521897,       0.2777446,      0.27445427,      0.10608156,      0.05590937, 
     0.13820657,   0.00015061582,      0.05468895,      -0.2792291,     -0.40858412, 
     -0.3575466,      -0.3703128,     -0.26656306,     -0.12614836,   8.7548774e-10, 
    -0.28742942,     -0.13806225,   -0.0043867473,      0.27151176,      0.05826953, 
    -0.17957528,     -0.36141217,     -0.29460853,     -0.19782953,    -0.034215257, 
    -0.13130154,      -0.1798953,     -0.05191404,      0.13720034,      0.20251884, 
      0.0827438,   -0.0025074591,     0.024360197,       0.0905663,       0.0716648, 
     -0.2565407,       -0.375531,      -0.3890146,     -0.31992608,      -0.2564163, 
     -0.3021127,     -0.26935884,    -0.011184585,     -0.24295942,     -0.14826046, 
     0.06451507,      0.16757612,     0.060056437,      -0.1487273,      -0.2089911, 
    -0.22414866,     -0.14913607,    -0.005572652,     -0.09417543,     -0.09050977, 
   -0.060397316,       0.1262657,      0.14234783,     0.041439217,     0.043922298, 
     0.09821427,     0.107174866,     -0.13566436,     -0.16894437,     0.005654597, 
    -0.17917186,     -0.20562917,     -0.18061328,     0.016707541,    -0.022813356, 
     0.02063667,     -0.21735227,     -0.09614839,      0.17713486,      0.29975656, 
    0.109730154,    0.0083040185,     -0.14723462,     -0.14401785,     -0.20459299, 
    -0.23679912,     -0.15306042,     -0.17010303,     0.057395395,       0.1356455, 
    0.066283025,    -0.015829057,    -0.053027183,     -0.13699418,    0.0060639773, 
   0.0031633277,     -0.06113871,      -0.1004025,     -0.31249556,     -0.34040204, 
   -0.082263276,      0.27327374,      0.13658103,    -0.016932681,     -0.21647131, 
   -0.045600783,      0.21083869,       0.2972613,      0.19864593,      0.18758173, 
   -0.040752754,     -0.14884202,     -0.21563011,      -0.2640926,     -0.22924057, 
    -0.18148288,     -0.08226436,     0.005396866,     0.007306766,    -0.012676236, 
    -0.15510257,     -0.09050479,     0.005783362,     0.007254204,     -0.05400106, 
     -0.1811376,     -0.29635763,     -0.33474255,     0.007320414,    -0.043671925, 
    -0.36830574,     -0.05641661,      -0.2641171,    -0.024575975,       0.3379925, 
       0.522023,      0.32797536,      0.12997234,    -0.023556868,     -0.11807385, 
    -0.15248434,     -0.36209944,     -0.31999886,     -0.35304102,     -0.20494144, 
    -0.06684018,      -0.1894882,      -0.2497382,     -0.13381267,      0.06535414, 
   -0.032828066,     0.030848172,     -0.03807789,     -0.12376561,    -0.112904534, 
    0.079296574,     0.057988618,      -0.8259799,     -0.54081285,    -0.021836499, 
    -0.26615542,     -0.09422959,      0.16563167,       0.4556119,      0.36055258, 
     0.19648202,      0.10109479,    -0.051949646,       -0.199355,     -0.28977993, 
    -0.36562413,     -0.35849604,     -0.32526067,     -0.16987754,     -0.17056935, 
    -0.07402494,     0.092939004,       0.1111738,     0.043189734,     -0.01717043, 
   -0.024812922,    -0.066256516,    -0.027653316,      0.04370343,     -0.12199356, 
    -0.70762366,     -0.35103902,    -0.007478084,     -0.28521296,     -0.19312221, 
     0.11101812,      0.32023412,      0.25508562,       0.1676047,       0.1322357, 
     0.08717694,    -0.053815823,     -0.07451831,    -0.055272434,     -0.23630597, 
    -0.28220218,     -0.16104338,     -0.16653737,     0.009917646,      0.03332841, 
     0.03529375,     0.043513767,     0.027647454,     -0.08260986,     -0.05374404, 
    -0.06114269,    -0.061052036,     -0.21612144,     -0.51616544,      -0.3306573, 
  -0.0036110505,      -0.2776217,     -0.13610974,     0.024906443,      0.20118655, 
     0.24388918,       0.1751252,      0.09276538,      0.03936103,     -0.05975176, 
  -0.0025040798,     -0.12535839,     -0.19714114,      -0.2178323,     -0.12766834, 
   -0.016139554,   0.00034145176,     0.024226446,     0.121507615,      0.06395882, 
    -0.03617657,    -0.045688856,     -0.04339943,     -0.22758457,     -0.08553465, 
    -0.48009023,     -0.80296576,     -0.39451817,    -0.009534475,     -0.25535095, 
   -0.116428584,     0.007560489,      0.14928563,      0.19530152,      0.12758131, 
     0.06256703,      0.10315182,     0.013171985,     0.024358936,    -0.087856896, 
    -0.20317325,     -0.21647938,     -0.19502066,     -0.07716151,    -0.040122688, 
    0.040131927,      0.06630136,     0.098767065,       0.0502161,    -0.047823988, 
    -0.13457051,    0.0066844113,     0.001926514,      -0.5014333,     -0.50967574, 
     -0.3004126,    -0.059856832,      -0.2940756,     -0.10865233,      0.09701483, 
     0.28511623,      0.27022204,      0.24681377,      0.19682196,      0.17940901, 
    0.059725445,    -0.072938405,    -0.028805085,     0.031731036,   -0.0154124675, 
   -0.053861175,    -0.024075216,    -0.012954887,     -0.03132534,    -0.054288127, 
      0.0025395,      0.07613879,    -0.032200396,   -0.0015300137,    -0.046119165, 
     -0.3649371,     -0.51529825,     -0.13047884,    -0.108118586,    -0.009539037, 
    -0.26765788,     -0.10954609,     0.115768306,      0.37578288,      0.39395833, 
     0.26111543,       0.1953943,      0.19936635,     0.114648566,   -0.0025801957, 
    0.046649627,     0.005445802,     -0.12155581,     -0.12953262,    -0.015682628, 
     0.05527453,   -0.0017125189,     0.016084088,      0.15805219,    -0.050621282, 
    -0.19778223,     -0.15146981,     -0.07245708,     -0.12211034,     -0.17319147, 
    -0.10791378,     -0.19574702,    -0.008799256,      -0.2686271,     -0.18474904, 
    -0.07696023,      0.12011159,      0.16119792,     0.027753226,      0.11940695, 
      0.2894461,      0.27897713,      0.19679259,      0.28780127,      0.24683468, 
     0.13098976,      0.12675083,      0.21416359,    -0.026999304,    -0.046359554, 
     0.08244627,    -0.032401282,    -0.112248585,     0.029709587,   -0.0030793443, 
    -0.27882916,     -0.12073181,     -0.20625845,    -0.107626684,     -0.14782362, 
  -1.138217e-39,     -0.24223284,     0.035326235,      0.10489358,      0.13742219, 
    -0.02490047,    -0.016167186,      0.17451759,       0.2383344,       0.0601217, 
      0.0834451,   -0.0012791405,    -0.043433946,     0.064815454,      0.01718964, 
   -0.113166936,     -0.12786318,      0.08927854,    -0.042786837,    0.0072363173, 
      0.2518786,      0.14541788,     -0.27125263,   -0.0055291764,     0.018664692, 
     0.08626643,      0.06196128,     0.100621276,    1.021495e-39}, {
     0.17668225,      0.21080315,      0.17502883,      0.19178538,      0.22336313, 
     0.22296093,      0.26027796,       0.2672037,      0.25324774,      0.25172046, 
       0.257304,       0.2868037,      0.25157553,      0.18724398,      0.13490808, 
     0.13135508,      0.18590039,      0.20665282,      0.21536039,      0.18408965, 
     0.20310761,      0.20336667,      0.19009715,      0.21147583,      0.21383217, 
     0.21861319,      0.21550146,    -5.58125e-40,      0.23037075,      0.21351391, 
     0.22794078,      0.26005554,      0.23438025,      0.20226032,      0.24773464, 
     0.22967054,      0.21419846,      0.23487121,      0.21165633,      0.21715048, 
     0.15819329,      0.16457291,     0.049069047,    0.0069379928,     -0.04480462, 
   -0.075394936,     0.002457884,     0.037032314,      0.14447309,      0.17892939, 
     0.20364603,      0.18470044,      0.25973502,      0.23866832,      0.21793954, 
    4.60994e-40,      0.19252932,      0.18004124,       0.2320963,      0.20466252, 
     0.23642023,      0.18612897,      0.11820222,     0.033128563,     0.012777333, 
     0.04752996,     -0.08115528,     -0.27927566,     -0.48364764,     -0.68598247, 
     -0.7030735,     -0.56215245,     -0.58876485,      -0.5153442,      -0.3932653, 
    -0.28058174,     -0.17289644,     -0.10750562,    -0.036376383,      0.07066913, 
     0.12307076,      0.17991346,      0.22378656,       7.837e-41,       0.2068848, 
      0.1810066,      0.19160223,      0.17834042,      0.20658088,      0.09225582, 
   -0.039409287,     -0.29777887,      -0.4080925,     -0.54197854,      -0.7113997, 
     -0.9242837,      -1.0579892,      -1.1816919,      -1.1412619,      -1.1656985, 
     -1.1784779,      -1.0675273,      -0.6481535,      -0.5760265,     -0.49410847, 
    -0.34257728,     -0.19626158,     -0.12426912,  -0.00047285954,      0.17635214, 
     0.15805249,   1.4619541e-34,      0.20615433,        0.179949,      0.12681048, 
     0.09966346,     0.052898597,       0.0183651,      -0.1894936,      -0.5788078, 
    -0.71593106,      -0.8155388,     -0.99192655,      -0.9395813,      -1.1666319, 
       -1.24074,      -0.9380675,     -0.91628915,       -0.981091,     -0.73906446, 
    -0.58283585,      -0.5291188,     -0.62118447,      -0.4086424,     -0.24592777, 
   -0.112908185,     0.017591812,      0.22865434,      0.21206649,   -0.0007446361, 
     0.23751317,      0.18169403,      0.18082438,    0.0032346859,    0.0052165664, 
    -0.08281254,     -0.24557655,     -0.24991865,     -0.37357485,      -0.6432276, 
      -0.638199,      -0.3847961,     -0.22699684,     -0.41233602,     -0.55972147, 
     -0.5531345,     -0.28079745,     -0.18419343,      -0.3047073,      -0.3649786, 
    -0.10559358,      0.19914752,       0.2687548,      0.10689514,     0.050903153, 
     0.21447755,       0.3136469,     0.010704669,      0.21189293,      0.17197405, 
     0.16850017,      0.10996268,     0.046420738,     -0.26288506,     -0.39230844, 
     -0.2354146,    -0.020160474,     -0.20280081,     -0.32843763,     -0.33746526, 
    -0.22494337,     -0.13252483,      -0.2779079,     -0.28373483,     -0.21786991, 
    -0.08775983,       -0.136884,    -0.043082118,    -0.012902979,      0.12165958, 
     0.21885368,      0.23024577,       0.2536149,      0.29669443,      0.16575392, 
    -0.22137533,      0.24932289,      0.18040891,      0.20043762,       0.1476247, 
    0.051579382,     -0.08528212,       -0.296884,     -0.26642758,    -0.093836814, 
    -0.21165486,     -0.29379305,     -0.40843302,     -0.47251132,      -0.3936933, 
    -0.50696766,      -0.5047329,     -0.25065145,      -0.3428221,     -0.38021168, 
    -0.12784632,    -0.071687765,     -0.10550833,     0.017476166,      0.17783993, 
     0.08941852,     -0.19489871,    -0.056550995,    -0.007561494,      0.24304238, 
     0.23030831,      0.18844447,        0.097173,      0.17304623,     0.076769575, 
    -0.17958763,     -0.22125903,     -0.18360238,     -0.16573618,     -0.23372237, 
    -0.37238726,      -0.3159833,      -0.3839869,     -0.44131652,     -0.50576717, 
    -0.44464284,     -0.31746036,     -0.27019712,     -0.26403043,     -0.29920727, 
    -0.24651453,     -0.11280562,      0.25888085,       0.1675514,    0.0025942272, 
    0.057263527,      0.12553392,      0.20695944,      0.22684866,      0.13921668, 
    0.116203174,     0.086327516,      0.14783078,     -0.03511541,     -0.09299143, 
    -0.14402282,    -0.109962024,     -0.26432744,     -0.31083876,      -0.3017265, 
    -0.42425102,      -0.3807727,     -0.36806247,     -0.39536014,     -0.27499932, 
     -0.2582586,     -0.10204875,     0.038378682,     -0.11372672,     -0.15261759, 
    0.052370217,     0.035044443,      0.21902193,      0.39325684,      0.34759173, 
      0.2278397,      0.18385734,      0.05003078,    -0.052209944,     -0.15560561, 
    -0.05879211,     -0.12921599,     -0.16825667,     -0.09792282,     -0.14070807, 
    -0.29190528,       -0.269934,     -0.32868853,     -0.33263984,      -0.2518518, 
    -0.30046767,     -0.31117928,      -0.3169012,      -0.1868785,     -0.12708488, 
    -0.24871029,     -0.16302545,     -0.12163419,     -0.11978392,      -0.1397225, 
    -0.11358858,      0.03790587,     -0.29177982,      0.22765788,      0.10085701, 
    -0.12756892,     -0.29531375,     -0.30829683,     -0.07241442,     -0.21878433, 
    -0.15748551,        -0.02576,     -0.04848191,     -0.19983181,     -0.18155444, 
    -0.28206417,      -0.3112082,     -0.38921484,      -0.4558348,     -0.36003664, 
    -0.16426954,     -0.15416376,     -0.19171214,     -0.10251967,      0.04161089, 
  -0.0051317476,    -0.009418162,     -0.28118962,      -0.3240518,       -0.198299, 
    -0.30453965,       0.2097335,      0.10034409,     -0.11030944,     -0.28577992, 
    -0.24110164,    -0.107846886,     -0.19464839,      0.03592094,     0.051326435, 
     0.08514954,     0.061849196,    -0.024406217,    -0.084200524,      -0.2578509, 
    -0.49169415,      -0.4729656,     0.060212824,    -0.050889794,     -0.06325664, 
    0.077607736,     0.017497968,     -0.20502774,     -0.18076661,      -0.3007527, 
    -0.45323658,     -0.41348314,      -0.4578141,     -0.34059367,      0.20916289, 
     0.10369268,     -0.13242497,     -0.22360322,     -0.15377957,     -0.18092465, 
    -0.13904092,     0.054685444,      0.08173993,      0.17522483,      0.22105454, 
     0.20071107,      0.27703467,      0.11761548,     -0.34494144,      -0.3373928, 
    0.022237163,      0.07260277,    -0.023254476,    -0.031119248,    -0.051992808, 
    -0.15713234,    -0.029577224,     -0.20351067,     -0.13952321,     -0.24808396, 
    -0.20735495,      -0.2023774,      0.21779205,      0.06920047,     -0.13812904, 
    -0.23620175,     -0.18627732,     -0.14192237,      0.11016913,      0.19998065, 
      0.2670657,       0.2990085,      0.32070553,      0.20040238,      0.20776175, 
    0.001973211,       -0.335794,    -0.057825774,      0.20746446,       0.1636696, 
   -0.040750127,     0.017686492,     0.044746954,      0.23443857,     0.096554935, 
     0.00351191,      0.18973762,     0.010274173,     -0.15549982,      -0.2429584, 
     0.23471521,      0.07689549,    -0.053964872,     -0.11280355,     0.050486892, 
     0.12460239,        0.300399,       0.2062313,      0.16805391,      0.20099345, 
      0.1549681,      0.17256527,      0.20206931,   0.00092880445,     -0.24061206, 
    0.028369738,       0.2624627,      0.15538515,      0.17848761,      0.06557753, 
     0.17461641,      0.29688466,      0.07265523,     -0.10019291,     -0.21556717, 
    -0.20662917,     -0.16931257,     -0.45244724,      0.19072977,      0.12773202, 
   -0.010714159,     -0.11796112,      0.16556534,      0.23655072,      0.22275183, 
     0.16192357,      0.17846715,      0.17899622,      0.15193045,       0.3370331, 
     0.31275153,     -0.08982049,    -0.124178104,     0.105401605,      0.25032884, 
     0.25451615,      0.15916117,     0.092599414,      0.16214648,    -0.016433338, 
     0.06622293,     -0.12772912,      -0.3746099,     -0.31087798,     -0.06305037, 
    0.009111162,      0.18975347,      0.15162763,    -0.049708538,     -0.17231378, 
    -0.12652151,     -0.21160492,    -0.028509613,      0.12961987,      0.20707628, 
     0.15844245,     0.105105095,      0.17189178,    -0.027636709,     -0.10302248, 
     -0.0844576,      0.09673322,      0.38244462,      0.34759638,      0.13089237, 
     0.13797589,     0.095860645,      0.20330195,      0.27819484,     0.065818414, 
    -0.30040917,     -0.52938604,      -0.3147173,     -0.12109722,      0.25308025, 
     0.09315117,     -0.21821341,      -0.4126324,     -0.43888596,     -0.24868663, 
    -0.12780277,      0.07806364,     0.121959694,      0.10141175,     0.088553995, 
     0.08332199,   -0.0022119791,     -0.12163709,     -0.06343916,      0.23020998, 
     0.34450257,       0.2518514,      0.14095512,     0.024733098,    -0.055641368, 
     0.15402618,      0.12409903,    -0.016012033,     -0.26029918,      -0.5191452, 
    -0.26184475,     -0.31875515,      0.19215645,     0.019756759,     -0.25429183, 
    -0.44031686,      -0.3091181,     -0.12052271,     -0.05625728,      0.08306526, 
     0.20218207,     0.050595798,     0.042227853,     -0.02769792,     -0.09908309, 
     0.03693086,      0.20995773,      0.24967322,      0.24123316,      0.11805582, 
    0.011173076,    -0.049848493,     0.016195754,     0.102970295,      0.10609278, 
     0.07061309,    -0.044101372,     -0.21901925,      -0.3226457,     -0.31125358, 
     0.15916215,      0.07606069,    -0.069232665,      -0.1169634,     -0.10926053, 
    -0.13470517,     -0.07812017,      0.06783881,      0.07532558,     0.010131879, 
    -0.19218501,     -0.20546603,     -0.20185095,     -0.16360578,    0.0063097533, 
     0.15594652,      0.17895477,    -0.029825808,     -0.06867091,     -0.08544599, 
    -0.13559452,     -0.12998436,     -0.09177004,    -0.067316145,     -0.39779046, 
    -0.55793816,     -0.08976935,   -0.0051537063,       0.1688101,      0.10820125, 
     0.11123483,     0.045933235,    -0.053666506,      -0.1887589,     -0.09717196, 
    -0.10571611,    -0.072098844,     -0.12592784,      -0.2904472,     -0.27126944, 
    -0.15487847,     -0.03958734,       0.1282299,      0.26067936,      0.14199407, 
    0.032974944,    -0.087394156,      0.02223589,      0.02606394,     -0.14263767, 
     -0.5338957,     -0.92127687,     -0.74267954,      -0.3229689,     -0.10070259, 
    -0.05432916,      0.22598457,       0.1925712,      0.15507947,     0.049352616, 
    -0.15417795,      -0.3400439,     -0.24612352,     -0.19427134,     -0.24407957, 
   -0.082401946,     -0.18248211,     -0.19123255,    -0.098615855,     -0.15785757, 
    -0.02890489,      0.14715831,      0.06779317,    -0.012147295,    -0.029878266, 
    -0.11614229,      0.02670184,      0.02040641,     -0.15028495,      -0.1662408, 
    -0.06913413,    -0.085661225,      0.12708543,      0.03202828,      0.21087736, 
     0.19335158,      0.08289839,   -0.0051017227,     -0.22412439,     -0.32461178, 
    -0.39260596,     -0.43807533,     -0.32800832,      -0.2136952,     -0.26540986, 
    -0.15100212,     -0.04440044,     -0.18963178,     0.060388524,      0.13653268, 
    0.023858998,      0.02693883,      0.11422794,    -0.052010145,     0.001616213, 
     0.12345621,      0.12368167,     0.026430478,    -0.038408622,    -0.013695262, 
     0.19908184,    -0.004100422,      0.19245915,      0.21106835,      0.14557377, 
    -0.07680519,    -0.119988285,      -0.2280963,     -0.27794513,     -0.08886062, 
     0.13827358,     0.024463648,     -0.08035963,      0.02494822,     0.059468266, 
   -0.011231774,   0.00043449338,      0.07813354,     0.012004672,      0.16267532, 
      0.1125942,      0.07907772,      0.16196993,      0.12165654,      -0.0713279, 
     -0.1917232,    -0.033613455,     -0.07080106,      0.24465457,      0.02244839, 
     0.23761196,      0.17754944,      0.17854926,      0.07888755,    -0.018946528, 
    -0.14292935,     -0.07838379,     0.052304156,      0.12360345,     0.059414487, 
    0.073917605,     0.027587581,    -0.021135475,    -0.004187032,      0.09029032, 
   -0.020235073,      0.02056545,      0.14892443,     0.090843976,      0.21769044, 
     0.08275828,        0.209747,    -0.013981845,       0.0329471,     -0.05596922, 
     0.21135248,      0.30577645,   -9.828526e-06,      0.22566909,      0.18942688, 
     0.22202718,      0.22095333,       0.2095037,      0.08443682,    -0.011311015, 
    -0.11435656,     -0.24903792,      -0.1443147,     0.031756297,    -0.025847571, 
   -0.097743206,    -0.037593074,     0.051299427,     0.077244826,       0.0981389, 
    -0.09741864,     0.029906102,      0.05337215,      0.05502095,        0.034925, 
     0.15603875,      0.14271231,      0.14668423,      0.35958314,      0.21282707, 
    -8.0597e-40,      0.23144506,      0.19706479,      0.22176965,       0.2858745, 
     0.24436276,      0.06959018,     -0.09740512,     -0.29350254,     -0.47063705, 
    -0.29281104,     -0.13025111,     -0.32982144,      -0.4732019,      -0.3750448, 
     -0.3397545,     -0.30830774,     -0.37660652,      -0.6219736,     -0.16065758, 
      -0.542173,       -0.433927,     -0.15154842,     -0.09616767,     -0.13948658, 
     0.06717835,      0.17339444,      0.15649964,    1.079775e-39}, {
      0.1517455,      0.11267231,      0.14255981,      0.15895168,      0.10269514, 
     0.15145978,     0.099908255,      0.16040058,       0.1531129,      0.12911749, 
     0.12508243,      0.17208306,      0.13738258,      0.16983241,      0.18082394, 
     0.16590741,      0.15663865,      0.15534848,      0.14031751,      0.16734724, 
     0.15604627,      0.17732331,      0.14376035,      0.10671742,      0.15251257, 
     0.16116647,      0.15226947,     2.01175e-40,      0.12669958,    -0.088595584, 
    -0.10096419,     -0.09634273,     -0.08596264,     -0.12518162,     -0.07938683, 
    -0.13950288,    -0.100535296,     -0.11699382,     -0.14482808,     -0.06778272, 
   -0.025836712,    -0.019584022,     0.060243126,      0.08041674,      0.10051168, 
     0.12396813,      0.07014017,      0.07800813,    -0.024570528,    -0.083493166, 
    -0.03851664,    -0.089409254,     -0.06560497,     -0.09103817,    -0.084938444, 
   1.107574e-39,      0.13248172,     -0.08153328,     -0.09661633,    -0.081993334, 
    -0.12554064,     -0.19525336,     -0.16617177,     -0.26046014,     -0.26088822, 
    -0.29901978,     -0.11209087,     0.062270407,      0.27367014,       0.5072268, 
     0.52754647,      0.38761106,      0.20317547,      0.16684316,      0.15464894, 
     0.02150841,     0.061959304,      0.09447857,    -0.031051502,    -0.081560366, 
    -0.08744644,     -0.09911496,      -0.0695534,      -1.298e-40,      0.10203375, 
    -0.08221303,     -0.10623756,     -0.13198087,     -0.14613599,     -0.19679822, 
    -0.17188103,     -0.13893852,     -0.16772428,     -0.12597784,    -0.011736833, 
     0.21676818,      0.46096224,      0.59212375,      0.63722044,       0.5706326, 
     0.35289487,       0.1654457,      0.10418064,     0.062130302,    -0.045603648, 
    -0.04505138,      0.07166474,    -0.003369767,    -0.004230517,     -0.05322035, 
    -0.09188769,     -7.4701e-40,      0.13469477,     -0.10229949,    -0.099554606, 
     -0.1264287,     -0.13545957,     -0.19110636,     -0.10825165,     -0.15904684, 
    0.040851854,      0.28725553,      0.22911446,      0.16619092,     -0.11544077, 
    -0.14299317,     -0.12831275,     -0.06662001,    -0.052847594,      0.04455848, 
     0.18814626,      0.23046118,      0.30784854,      0.47094253,      0.21598145, 
      0.0969505,     0.015380462,     -0.13165423,    -0.106352635,  -2.0449566e-05, 
     0.13606411,     -0.07768725,    -0.008037501,     -0.08813187,     -0.20720914, 
    -0.13100223,     -0.11792705,       0.0516101,     -0.01982879,    -0.093408115, 
    0.031245682,     0.111076035,     0.056126554,      -0.0768387,    -0.036855336, 
     0.10416791,      0.17549816,      0.14811406,      0.15342253,      0.14652038, 
      0.0780431,      0.21943797,      0.35576868,      0.21437807,      0.21307823, 
     0.06773206,     -0.11768204,    -0.014758552,      0.12760307,     -0.07382107, 
  -0.0070287194,     -0.08115141,     -0.07577631,     -0.22453187,     -0.24964178, 
    -0.05804698,   -0.0027056881,     -0.13859265,    -0.073231936,    0.0041801548, 
    0.071823895,     0.045777347,    -0.043969132,      0.10612236,      0.17735375, 
     0.13366449,      0.23151174,      0.14292127,      0.06836973,      0.15145276, 
     0.16981812,      0.11305772,      0.19545576,       0.2645536,      0.25487983, 
    0.030116161,      0.12328936,    -0.108889505,     -0.07970268,     -0.11030112, 
    -0.27405524,     -0.11902673,     0.021667583,     0.099733196,      0.07178847, 
   -0.032503832,     0.039093535,      0.01786081,    -0.093153134,     -0.09180199, 
    0.095750056,      0.07968227,       0.0702642,      0.11443583,      0.19588293, 
     0.18327196,        0.147047,      0.19896454,      0.17730385,      0.23213077, 
     0.36029512,      0.43757874,      0.15286745,      0.28962046,      0.12089574, 
    -0.08874589,     -0.20380071,     -0.36795568,     -0.35921702,     -0.14843571, 
    0.037931133,      0.08197926,      0.07581637,     0.069055215,      0.14356746, 
     0.09235644,    -0.023893375,    -0.056434345,     0.047743633,     0.036058098, 
      0.1586154,      0.17291771,     0.116948985,      0.22629072,      0.33522037, 
     0.15980875,      0.10740495,       0.2232283,      0.36195654,       0.2805549, 
      0.2397167,     0.031275287,      0.09701308,    -0.116277486,     -0.28030264, 
    -0.51552784,     -0.49085045,     -0.16358726,      0.07844829,   -0.0061923494, 
    -0.14104065,   -0.0063170437,     0.027326973,     0.010975727,    -0.024810245, 
    -0.12778522,     -0.13283077,    -0.092406824,    -0.042094123,      0.05046905, 
     0.13784254,      0.20444389,      0.13226882,      0.24190028,       0.3231664, 
     0.38200316,       0.5631087,       0.5610259,      0.15295379,    -0.007893712, 
     0.13750234,     -0.09675147,     -0.22026758,     -0.43138322,     -0.41721144, 
    -0.13027138,      0.09997576,     0.024767064,      0.07509662,     0.089978226, 
     0.10512715,      0.08921326,      0.10503282,     -0.06096012,    -0.109148085, 
   -0.088851735,     -0.13058957,     -0.14255075,     -0.06833957,     -0.10039924, 
     0.12773061,      0.21710752,         0.21333,      0.41520226,      0.80148935, 
     0.84668565,      0.21660073,     0.085700005,       0.1301916,      -0.1461532, 
     -0.1680738,     -0.33742055,     -0.23986806,    -0.012933399,     0.028765798, 
      0.0495019,     0.074653044,       0.1461376,      0.12645587,       0.1453739, 
     0.21052471,      0.13926862,     0.017072706,    -0.076259054,     -0.14802994, 
    -0.22114398,     -0.24230644,     -0.27521473,     -0.14655216,   -0.0026597416, 
    0.121941425,       0.3861654,      0.89527005,       1.0833093,       0.5523792, 
     0.13802147,       0.1258929,     -0.15653689,     -0.22736973,     -0.30444115, 
    -0.11716132,     -0.09163275,    -0.041208573,     0.021406231,      0.16821752, 
     0.18426616,      0.19193707,       0.1850728,      0.08002977,     0.032076888, 
   -0.042321797,      -0.0603008,    -0.074197784,    -0.061479617,     -0.13604724, 
     -0.4036964,     -0.46398237,     -0.44580993,     -0.35819936,     0.039433952, 
     0.89786017,       1.3559082,       1.0170076,       0.3054264,      0.14467226, 
   -0.104459554,      -0.2866246,     -0.32796264,     -0.14309669,    -0.014745861, 
    0.034637697,     0.105784774,      0.07639292,     0.054386716,     0.059341468, 
     0.07973539,      0.12900843,     0.085361965,    0.0036754212,     -0.09961806, 
    -0.14298853,     -0.22567715,     -0.11660154,    -0.051907066,      -0.2394541, 
    -0.49648663,      -0.7505503,      -0.6211485,     0.111675516,       0.5404974, 
     0.45165867,      0.41515237,       0.1447824,    -0.109416805,     -0.23239808, 
    -0.21112983,     -0.04464855,     0.046754215,       0.1297172,      0.13998067, 
     0.04040568,    -0.028359963,     0.037917253,      0.15883574,      0.13619432, 
     0.11480829,     0.022569934,     -0.11235981,     -0.25989243,     -0.22976905, 
    -0.17106055,     -0.22736609,     -0.24636868,     -0.24919635,     -0.50286305, 
     -0.8402353,      -0.8915281,     -0.35943392,      0.19786349,     0.083496116, 
    0.110018514,     -0.12306375,     -0.18026991,      -0.1198152,     0.025161844, 
     0.11474966,      0.01598228,      0.06758279,     0.020538349,    -0.003803704, 
     0.12784494,      0.16493812,      0.14671952,      0.03015819,    -0.083978996, 
    -0.19303417,      -0.2608924,     -0.22284786,      -0.2041287,     -0.19583562, 
    -0.17936155,     -0.27899697,     -0.30062702,     -0.12363773,     -0.51520747, 
    -0.44269183,      -0.1497978,     0.030793834,        0.150002,     -0.12854809, 
    -0.13472691,     0.026857506,    0.0045045726,     -0.10546454,      -0.2839608, 
    -0.11857734,      0.05864334,      0.06650782,      0.14915842,     0.067991026, 
    0.105055474,     0.075074285,     -0.12684757,     -0.21527615,     -0.28271475, 
    -0.33022782,     -0.22375867,    -0.063869014,      -0.1582029,      -0.2810127, 
    -0.31763694,     -0.43089697,      -0.3797073,     0.005720479,     -0.19383007, 
   -0.049770094,      0.09688854,     -0.13513063,     -0.19247392,    -0.049209934, 
    0.073738284,     -0.11510579,     -0.20337294,     -0.22645193,     -0.16212232, 
   -0.052454356,      0.03989838,     0.072077915,    -0.034391224,     -0.01697262, 
    -0.13890292,     -0.24581721,     -0.31175524,     -0.38194475,     -0.24534072, 
    -0.17883301,     -0.11434864,     -0.13884884,     -0.12013278,      0.10166602, 
     0.20645767,    -0.052404094,      -0.4319451,     -0.19804963,      0.14062424, 
    -0.11932446,     -0.08279362,    -0.005279904,    -0.008984711,     0.020949775, 
     0.15322955,   -0.0091888625,     -0.23477866,     -0.20600916,     -0.14589772, 
   -0.025320876,     -0.13262442,     -0.19243239,      -0.4378277,     -0.43469384, 
    -0.33743045,     -0.18280794,     -0.08419572,    -0.008952989,    -0.025546474, 
    -0.11396414,    -0.014511249,     0.004242253,      0.23005162,     -0.10395702, 
     -0.7339187,     -0.18017958,      0.12631626,     -0.04767266,     0.013911183, 
     0.09558876,      0.06353631,     0.039782282,      0.12334271,    -0.017955825, 
    -0.11371273,     -0.13290711,     -0.16916323,     -0.18053816,      -0.2071078, 
    -0.14835957,       -0.141663,      -0.1447514,    -0.116465315,    -0.119401895, 
   0.0053096204,     -0.01807191,      0.09030993,    -0.049068026,    -0.016425502, 
    0.030641425,      0.11452902,     -0.14948714,      -0.4977678,     -0.06266213, 
     0.14193346,    -0.023300318,       0.1609508,      0.23834023,      0.18111843, 
    0.094399035,     0.041480627,    -0.018265422,    -0.049862776,     -0.16505405, 
    -0.16137548,     -0.13146357,     -0.13679156,     -0.25049022,     -0.13949423, 
    -0.12456069,    -0.086297736,    -0.057998404,     -0.05420587,     -0.01692803, 
   -0.053537708,     0.015097955,     0.008365568,     0.085287854,       0.1389893, 
     0.09219971,     -0.43998405,     -0.08507078,      0.15519796,   -0.0038598003, 
    0.094922364,      0.18530406,      0.14373636,     0.036544528,      0.05933269, 
   -0.034771092,    -0.068521045,      -0.1352852,     -0.08396024,    0.0151789095, 
    -0.10563061,     -0.20577475,     -0.21280064,     -0.09627409,    -0.105247736, 
    0.008776687,     0.053054426,    -0.022240467,     0.040648155,     0.030998502, 
    -0.05331977,      0.18280555,      0.21338493,       -0.371462,     -0.42862788, 
    -0.08779271,      0.12887251,     -0.06989422,     0.009028921,     0.029761784, 
    -0.11175128,     -0.06049846,     -0.03449467,     -0.11243016,     0.012903105, 
   -0.014046883,    -0.098091766,     -0.06788523,     -0.03437522,    -0.069803625, 
    -0.03192955,     -0.04150547,    -0.044169392,     0.034474663,      0.13971266, 
    0.020788254,      0.05191505,      0.03624579,      0.15283382,      0.21570161, 
    0.043930553,     -0.09159115,     -0.17935294,     -0.19809137,      0.11083582, 
    -0.11258367,    0.0004028349,     -0.04017277,     -0.06584378,    -0.013195593, 
    -0.14699091,     -0.14809924,    -0.000906515,    -0.024462035,    -0.101845466, 
    -0.09303963,    -0.078008376,   -0.0070296316,     0.006083168,    0.0006365986, 
     -0.0805808,        -0.03914,     -0.07026181,       0.0338126,      0.10488817, 
     0.13985546,      0.09718405,      0.13728815,       0.1903475,     0.019045739, 
   -0.046074487,    -0.041511476,      0.09163711,     -0.11256658,     -0.09055856, 
     0.02590045,      0.11919275,       0.0365332,     -0.03568747,    -0.039023317, 
    0.065799035,    -0.002729379,     -0.07850958,    -0.018070199,    0.0020901538, 
   0.0062111598,     -0.05662819,     -0.06500345,     0.013710673,     0.040343378, 
    0.058369394,    -0.121101916,     0.046791565,      0.08547434,    -0.038905587, 
    -0.04673006,     -0.19002344,     -0.18613683,     -0.13434789,     -0.08388193, 
      0.1311804,     -0.12096959,    -0.048927624,   -0.0055764993,     0.052577168, 
    -0.06541202,     -0.14273852,    -0.107668884,   -0.0068483995,      0.06510041, 
   -0.000439393,     0.014711397,     0.010049886,      0.03185041,     0.022555755, 
    0.047985084,   -0.0017080485,     -0.05095836,    -0.092056714,     0.028827159, 
     0.05073027,      0.07760326,      0.07624869,      0.10604107,     0.087883875, 
    -0.11047734,     -0.16131721,    -0.010331506,     0.102801666,     -0.09580627, 
   -0.077890754,     -0.12176826,    -0.096474595,    -0.053079892,     -0.16601063, 
    -0.27359593,     -0.14942327,     0.048572604,     0.048176643,      0.02015872, 
   -0.044766672,   -0.0008198792,      0.04577229,     0.002245161,      0.11987891, 
     0.07890302,      0.10117382,      0.15504438,      0.21768302,      0.22099066, 
     0.16745755,      0.34014198,       0.3127883,     0.041160192,    -0.052765362, 
   -7.01287e-40,    -0.026896743,      -0.6606284,     -0.68567085,     -0.69474125, 
     -0.6898186,      -0.6142206,      -0.5101088,     -0.44445577,     -0.38679487, 
    -0.32160777,     -0.21975842,      -0.2820214,     -0.07725817,     0.054837845, 
    -0.28462043,     -0.35987523,     -0.10630532,     -0.24564461,     -0.16014197, 
    -0.19319795,     -0.12928294,    -0.010524762,        0.150972,      0.12443866, 
    -0.57662016,     -0.72439563,      -0.7197805,     8.13567e-40}, {
     0.10145403,     0.090164185,      0.10264125,      0.04506741,     0.074062765, 
     0.05412136,    -0.012829133,    -0.052061968,     -0.20864698,     -0.26867664, 
     -0.3630663,     -0.36965325,       -0.410298,      -0.3856945,     -0.29290292, 
     -0.1695517,     -0.13290587,     -0.09960397,     -0.08353778,     -0.07299281, 
   -0.068550505,     0.037668895,     0.022412151,      0.07126865,     0.058643438, 
     0.08929137,     0.061345678,     1.43552e-40,      0.06804835,      0.09675307, 
    0.073405005,     0.113700755,      0.04845046,      0.07259491,   -0.0051820213, 
    -0.07118545,     -0.20986165,     -0.40012887,     -0.47432062,     -0.60131645, 
     -0.7452226,     -0.65229505,       -0.648081,      -0.7427702,     -0.52294993, 
    -0.34749463,     -0.25820625,     -0.17246406,     -0.10852002,    -0.025646187, 
    0.012781083,     0.006358556,     0.016745092,      0.08288647,      0.13948302, 
    1.65575e-39,      0.07136343,      0.11800979,      0.10187554,       0.0753248, 
     0.08617372,     0.055843752,     0.039208774,      0.06624817,      0.03278533, 
     -0.2382466,     -0.31450164,     -0.39103696,     -0.35764807,     -0.35679033, 
     -0.5382447,      -0.6699719,     -0.64614666,     -0.20050146,      0.19152507, 
     0.24424127,       0.1298946,      0.13524082,       0.1709687,      0.14702734, 
     0.14021894,        0.081907,      0.08163849,    -8.30649e-40,       0.0891611, 
    0.110164665,      0.11855184,      0.09912878,      0.02704675,      0.08524182, 
     0.13585542,      0.26791933,      0.27796644,      0.20660107,      0.16086265, 
    -0.05318713,     -0.20709296,    -0.021809585,     0.024676178,   -0.0067635006, 
     0.13557537,      0.21153288,      0.41339388,       0.8718178,       0.7970155, 
     0.75119054,      0.57275385,      0.32687548,     0.027363978,     0.016178649, 
     0.13063145,    2.242702e-18,      0.08391204,      0.13509594,      0.10030522, 
    0.122893915,      0.04708106,      0.03946017,      0.14977507,      0.27893054, 
     0.14660521,     -0.07303211,      0.03334449,    -0.023502192,    -0.035463557, 
   -0.042083703,   -0.0043353727,      0.07701991,     -0.07954466,    -0.018888287, 
    0.061078988,     0.072406836,       0.1295565,      0.18670702,        0.449998, 
      0.4868375,      0.17466712,     -0.13574308,    -0.018571084,    -0.009312367, 
     0.05616005,      0.11517869,     0.076356515,     0.061157946,   -0.0019057275, 
   -0.014016652,      0.09167286,     0.039428834,     -0.11157106,    -0.026399711, 
    -0.09705433,     -0.20681769,     -0.14937879,     -0.17759123,     -0.14822592, 
    -0.11838252,     -0.09741365,    -0.056959935,    -0.011067154,      0.02873678, 
     0.07424529,     0.048314735,     0.056826957,      0.23504847,      0.09581994, 
    0.034546036,      0.20555353,      0.07232087,      0.11218296,      0.08831972, 
    0.017868625,    -0.052507028,     -0.09534446,     -0.14309047,    -0.059242092, 
    -0.21064417,     -0.28341767,    -0.092999466,    -0.048295565,     -0.24189515, 
    -0.23553255,     -0.32118225,     -0.25642374,     -0.20578393,     -0.15373205, 
   -0.050264236,      0.10306175,      0.11744043,      0.14765655,       0.2817219, 
     0.30623242,      0.35129422,      0.24754258,    -0.013194788,     -0.15337564, 
     0.10161725,      0.06453068,      0.08883622,    -0.049311567,     -0.12362542, 
    -0.16265887,     -0.19433278,     -0.23386714,     -0.30893496,     -0.17615433, 
   -0.018575167,     -0.19681613,      -0.3382423,     -0.31686187,       -0.341249, 
    -0.29097638,     -0.10457025,     -0.13824493,     -0.08261969,     -0.05229503, 
    0.042307746,      0.12772927,      0.11829365,      0.05767119,      0.15178162, 
      0.0949498,      0.08350186,      0.16551434,     -0.14309792,      0.07853007, 
     0.08891821,    -0.047820367,     -0.19554235,     -0.29256487,     -0.35054773, 
     -0.3670919,     -0.22498445,     -0.09756542,     -0.21543176,     -0.27595973, 
    -0.21485247,     -0.18612954,      -0.1467614,      -0.2574953,     -0.09967747, 
    -0.21682614,     -0.12660702,    -0.020851286,    -0.020427255,    -0.050195567, 
     0.10532663,      0.08133858,       0.0808239,      0.16774572,     0.066426896, 
  -0.0013796528,     -0.08947479,     0.062746845,       0.0754349,    -0.042358495, 
    -0.26050887,      -0.2747337,     -0.24396636,     -0.32272986,     -0.13215168, 
    -0.17983454,     -0.23758473,      -0.2387123,     -0.16540082,     -0.15756057, 
    -0.24029262,     -0.21359791,     -0.21070251,     -0.24681583,     -0.28658938, 
    -0.21492867,     -0.28541958,     -0.14336945,     -0.08969048,     -0.08823148, 
    -0.22017573,    -0.005825853,     -0.22794048,    -0.105244964,      -0.0764423, 
     0.09935808,     0.060544297,    -0.010928573,      -0.1423247,      -0.1826238, 
    -0.27557838,     -0.23925531,     -0.14445156,     -0.16864187,     -0.26394266, 
    -0.24004652,     -0.19109786,     -0.22138916,     -0.19060777,     -0.22918782, 
   -0.114578344,     -0.27229792,     -0.19910708,     -0.26610222,     -0.29290867, 
    -0.16942054,     -0.09584346,     -0.13629135,      -0.4783785,     -0.69831157, 
     -0.7069486,    -0.039191093,     -0.23684698,      0.10516354,      0.06506884, 
   -0.016085995,     -0.18321192,     -0.24572471,      -0.3622004,     -0.23545192, 
    -0.12704821,     -0.15758282,     -0.15766297,      -0.2742313,     -0.22981383, 
    -0.16932093,     -0.31332335,     -0.24559614,     -0.30885223,     -0.39906386, 
     -0.4056472,     -0.34794185,     -0.21203299,     -0.05404607,     0.010122903, 
    -0.15125287,     -0.33768326,      -0.2550974,      -0.2907414,     -0.23277739, 
    -0.15494494,     0.088927984,     0.111967616,      0.04294678,      -0.1439414, 
    -0.35823044,     -0.47065967,     -0.26835343,      -0.0869245,     -0.10969141, 
    -0.13161133,     -0.13948154,      -0.1157209,      -0.1870658,     -0.26243895, 
    -0.14837103,     -0.15944949,     -0.23332416,     -0.32195678,     -0.28788358, 
      -0.261407,    -0.012706901,      0.12561709,       0.0480996,     0.012128297, 
    -0.09372978,     -0.38351154,     -0.32011124,     -0.46746436,     0.073719926, 
     0.11950553,      0.16263105,    -0.061440133,     -0.25825986,     -0.30003193, 
     -0.2862354,     -0.06470044,   -0.0004329008,    -0.070203274,    -0.023458144, 
    -0.16055356,    -0.112422384,    -0.038742635,     -0.07871544,     -0.31862798, 
    -0.23262966,    -0.055287167,     -0.24693014,     -0.18483004,      0.05219635, 
     0.06852417,   -0.0033730648,      0.44750214,      0.22276337,     -0.23556831, 
    -0.45497704,      -0.5130469,      0.09844418,     0.081066206,     0.103246555, 
   -0.051994063,     -0.09481857,     -0.13815449,      -0.0945948,     0.021570994, 
    0.008822078,     0.017032223,      -0.1330544,     -0.13549177,     -0.11648882, 
    -0.10409128,     -0.15840448,     -0.33660734,     -0.06598272,     -0.09578452, 
    -0.18709835,      -0.0665092,     0.019925073,      0.06491495,      0.22505565, 
     0.40258005,      0.18749207,     0.008371989,     -0.52033854,      -0.5625604, 
     0.09392704,      0.07609686,      0.06780578,     -0.23603764,     -0.28177828, 
   -0.051833834,     0.035047125,     0.005020376,    -0.040276133,    -0.090371065, 
     0.08357946,     0.054304305,     -0.06321976,     -0.02841602,     -0.22812755, 
     -0.2423959,     0.026611911,     -0.09295698,     -0.15012798,    -0.024219977, 
     0.07952844,      0.10761764,      0.17362435,      0.26666638,      0.41216117, 
   -0.032668628,     -0.59978807,      -0.5066106,     0.101163276,      0.08910472, 
   -0.042670753,      -0.2562247,     -0.35035166,     -0.05799585,      0.05246799, 
     0.08329156,      0.03687085,     0.048235938,      0.07916751,   -0.0009618216, 
    -0.10893167,     0.004947334,     -0.15587911,     0.013433337,     0.007038869, 
    -0.14322506,     -0.14729227,    -0.032362986,    -0.036171604,     0.098637186, 
     0.13586828,       0.3059527,      0.35702997,     0.002412919,     -0.23271053, 
    -0.71372944,      0.06603691,       0.0743154,     -0.13040128,     -0.40237606, 
     -0.4507832,     0.014102716,      0.14401685,      0.07295964,     0.073102266, 
     0.14341801,       0.2093115,      0.12938833,        0.070872,    -0.072885305, 
     -0.1556923,     -0.04736715,      0.03860685,    -0.013547883,    -0.047760442, 
    0.001242044,       0.0457373,     0.056898274,      0.14306349,      0.16652134, 
     0.12442627,      0.07971654,     -0.27949396,     -0.62124854,      0.11323016, 
     0.05526399,     -0.19521563,     -0.57152385,     -0.60385484,     -0.14628398, 
     0.06932719,     0.065300256,      0.09653728,      0.16140477,      0.19595124, 
     0.38190663,       0.2714405,     -0.13600309,    -0.063332714,     0.021758238, 
    -0.08783922,     -0.13020463,    -0.052603036,      0.13881615,     0.039410982, 
     0.14809066,       0.1641993,      0.24035534,      0.04311186,       0.1643674, 
     -0.1548898,      -0.7831739,     0.057621285,      0.07750096,     -0.17075022, 
    -0.61496234,      -0.6405213,      -0.2571272,    -0.053338487,   -0.0048800004, 
    0.062399834,      0.19187406,       0.3034144,      0.37461582,      0.13378273, 
    -0.16292174,     0.056815345,     0.024589898,    -0.001702422,     0.023316521, 
     0.04001908,      0.16029039,     0.116141066,      0.21041314,      0.14228831, 
     0.13065228,      0.12180735,      0.16822264,     -0.13071167,     -0.31080374, 
    0.091816306,      0.02939202,     -0.09608562,     -0.51498324,      -0.5013567, 
     -0.2816213,     -0.06381381,     0.043316927,     0.045550555,      0.10562044, 
     0.30891138,      0.38937387,      0.38951015,      0.31924644,      0.16276498, 
     0.03815382,   0.00022472873,      0.07976757,      0.08033941,      0.16186395, 
     0.17417613,      0.11035295,      0.13890913,      0.09840123,      0.12400509, 
     0.10792633,     -0.19283022,      -0.4259125,     0.059084464,    0.0030637651, 
    -0.14361477,      -0.4168123,     -0.48823935,     -0.35293365,     -0.14764494, 
   -0.004721133,     0.028258545,     0.026146242,      0.24314976,      0.32953787, 
      0.3129302,      0.22198045,      0.20127939,       0.2005578,       0.2594493, 
     0.25979218,      0.27514198,      0.10766858,     0.059735075,      0.13192011, 
     0.25920418,      0.23122416,       0.1523576,      0.20846304,    -0.019354679, 
     0.06779604,     0.057683397,     0.043309238,    -0.050072055,     -0.28667098, 
     -0.5825638,       -0.659928,     -0.41052076,     -0.10334273,     -0.03028357, 
   -0.024101071,      0.24644437,      0.31427604,      0.31801227,       0.2715845, 
     0.24242635,       0.2286284,      0.10149717,      0.15510845,      0.16387145, 
     0.20172308,      0.14742783,      0.12158174,    -0.012167065,     0.005831737, 
     0.12980908,    -0.017950712,     0.030988833,      0.02330343,     0.055058494, 
     0.09099014,     0.007279375,     -0.16514058,      -0.5732394,     -0.87092364, 
    -0.61893356,     -0.32099634,      -0.1339292,    -0.002428125,      0.12409972, 
     0.22796857,      0.23618886,       0.1979178,       0.2284655,      0.12888432, 
     0.08872147,       0.1277451,      0.03641699,     0.048148245,     0.028470902, 
     -0.0515167,       0.1051313,     -0.11743519,     -0.33670542,     -0.18460995, 
     0.19726636,   -4.484369e-08,      0.10242497,      0.08679305,      0.06649526, 
   -0.027460594,      -0.2623117,     -0.64608884,     -0.78716975,      -0.4016376, 
     -0.1368863,      -0.1668738,     -0.02639813,   -0.0067436486,     0.040827632, 
      0.1267411,     -0.04688422,      0.02019874,      0.19489038,    0.0054963017, 
 -0.00024520583,      0.17648952,      0.21517539,       0.2422565,     0.046028428, 
   -0.101174854,    -0.065214105,    -0.067138486,       0.1174095,  -3.1231246e-16, 
     0.06450826,      0.09023081,     0.072586074,     0.048073214,    -0.015377203, 
    -0.19043036,     -0.44091743,      -0.5091724,      -0.3503865,     -0.24982633, 
    -0.34782073,      -0.3925576,     -0.13546675,     -0.16901419,     -0.27202827, 
    -0.33629686,     -0.28648156,     -0.37691274,    -0.122863606,     -0.18484405, 
    -0.27552152,     -0.11624724,     -0.15091904,     -0.17032333,     -0.04867764, 
     0.08192123,      0.14512034,  -0.00043887275,      0.08478171,     0.083033346, 
    0.092637114,      0.06507708,      0.10086456,     0.024502516,     -0.08482506, 
    -0.21492821,     -0.28129777,      -0.2299245,     -0.42874226,     -0.44755268, 
    -0.09340261,     -0.09774378,     -0.29875144,     -0.49701753,     -0.47916603, 
    -0.46751347,      -0.4451309,     -0.43198147,      -0.2051218,     -0.05159563, 
    -0.01376645,     -0.01234736,     0.041042656,      0.10477176,      0.10126717, 
     -6.878e-42,      0.09133921,      0.14203073,      0.13467531,      0.12586986, 
     0.11314952,      0.12188278,     0.097900055,     0.012874084,    -0.096627295, 
     -0.1491528,     -0.16702075,     -0.13858145,      0.09020532,     -0.06713838, 
    -0.19333518,     -0.09310934,      -0.0350992,     -0.12920499,     -0.18462498, 
    -0.14339758,     -0.08097608,    0.0065527842,     0.086853534,      0.13317215, 
     0.12761267,      0.14396045,       0.1301546,    1.850182e-39}, {
      0.1606822,      0.13265279,       0.1616251,       0.1607957,      0.11612709, 
     0.11513438,      0.13693054,      0.16019785,      0.17571656,       0.1523999, 
     0.19139016,      0.18062614,      0.17961408,      0.18698007,       0.1398052, 
      0.1352545,      0.13334493,      0.11225375,      0.13460872,      0.15478076, 
     0.13621111,       0.1321848,      0.15757664,      0.13373715,      0.14748076, 
     0.17180115,      0.17297985,      3.2241e-41,       0.1717048,    -0.049994506, 
   -0.052710295,    -0.019277357,     0.011781979,     0.004015982,      0.00467212, 
  -0.0028659874,     0.050399244,     0.007973901,     0.012627559,     0.018775368, 
    0.060356166,     0.019767016,      0.02219732,  -0.00029439072,    0.0026918924, 
   -0.022701142,    -0.025506787,    -0.003547756,     -0.04197395,    -0.005748822, 
   -0.014200839,    -0.034643304,    -0.030948501,     -0.02077417,    -0.053508915, 
   -4.36241e-40,      0.14404589,    -0.036629483,    -0.030104265,      0.02862927, 
    0.026543152,     0.013547287,      0.04565204,      0.09491663,     0.102919824, 
     0.13545367,      0.12264966,     0.026716722,     -0.05435685,    -0.017933134, 
     0.03616085,     0.023743222,     0.076723985,      0.04237945,     0.029229473, 
   -0.037030935,    -0.013691275,   -0.0073237377,    0.0050559584,     -0.01135673, 
   -0.026106967,   -0.0012827811,    -0.049316276,   -1.376486e-39,      0.11535134, 
   -0.023006799,     -0.03381459,      -0.0190543,     0.030144565,     0.008390797, 
     0.02445292,      0.07963716,        0.107188,     0.044139247,      0.08772759, 
     0.18278393,       0.0647024,     0.014939945,      0.03289486,   -0.0126420455, 
   0.0032782226,     0.030120187,     0.030013148,      0.04346717,      0.09364115, 
      0.0582579,      0.01644198,    -0.015278183,     0.005703988,    -0.035994753, 
 -0.00038577753,      6.4531e-40,      0.14413753,     -0.03190014,    -0.010422977, 
   -0.025067579,     0.009230787,     0.103702135,      0.12854777,  -0.00091727794, 
    -0.16050678,     -0.23284335,    -0.094082154,     0.014751946,      0.08612626, 
     0.21583688,      0.12970982,   -0.0028637352,     -0.15325859,     -0.17477657, 
    -0.09326478,     -0.10437755,    -0.050221454,     0.010257878,    -0.008088539, 
