// List of model parameters:
//
// static const unsigned int conv_0_weight_rows      ( =    3 )
// static const unsigned int conv_0_weight_columns   ( =    3 )
// static const float conv_0_weight[3][3]                             #       size =     0.04 kB
// static const unsigned int conv_0_bias_size        ( =    1 )
// static const float conv_0_bias[1]                                  #       size =     0.00 kB
// static const unsigned int conv_1_weight_rows      ( =    3 )
// static const unsigned int conv_1_weight_columns   ( =    3 )
// static const float conv_1_weight[3][3]                             #       size =     0.04 kB
// static const unsigned int conv_1_bias_size        ( =    1 )
// static const float conv_1_bias[1]                                  #       size =     0.00 kB
// static const unsigned int dense_0_weight_rows      ( =   10 )
// static const unsigned int dense_0_weight_columns   ( =  144 )
// static const float dense_0_weight[10][144]                         #       size =     5.76 kB
// static const unsigned int dense_0_bias_size        ( =   10 )
// static const float dense_0_bias[10]                                #       size =     0.04 kB
//                                                                                    ----------
//                                                                    # Total Size =     5.88 kB

static const unsigned int conv_0_weight_rows    = 3;
static const unsigned int conv_0_weight_columns = 3;
static const float conv_0_weight[3][3] = {{
     0.22181122,      0.13795279,     -0.65036136}, {
      0.5436728,       0.7238452,     -0.43133858}, {
      0.5513981,      0.18812479,      0.14268325}
};

static const unsigned int conv_0_bias_size = 1;
static const float conv_0_bias[1] = {
    -0.02037932};

static const unsigned int conv_1_weight_rows    = 3;
static const unsigned int conv_1_weight_columns = 3;
static const float conv_1_weight[3][3] = {{
    -0.49814838,      0.09279347,      0.62545764}, {
     0.47275025,       1.0280576,      0.53148824}, {
      0.0680018,     -0.09102264,       0.3462841}
};

static const unsigned int conv_1_bias_size = 1;
static const float conv_1_bias[1] = {
    0.022179414};

static const unsigned int dense_0_weight_rows    = 10;
static const unsigned int dense_0_weight_columns = 144;
static const float dense_0_weight[10][144] = {{
     0.02100958,     -0.40318072,      0.03251344,     0.079505295,     -0.11860245, 
    -0.07706463,     -0.11533045,    -0.073912844,     -0.22208498,      -0.1619779, 
    -0.16086593,     -0.18258697,     -0.28926307,      -0.3693666,    -0.055868935, 
    -0.10734631,    -0.011459264,    0.0004468593,      0.06207577,      0.07742188, 
     0.08476672,     0.021429716,      0.21802592,      -0.3177548,    -0.056771196, 
    -0.09191939,     -0.20780376,     -0.03184194,     -0.11445231,    -0.064101145, 
    0.106738165,       0.1325302,      0.15498078,    0.0039753667,      0.03282061, 
    0.026873538,     -0.06394334,     -0.11935239,      -0.1873432,      0.07165067, 
    0.035613358,      0.07517209,      0.10770318,       0.2549154,      0.26481777, 
     0.04035938,     -0.05069876,    -0.057938293,      -0.4357027,     -0.24800174, 
   -0.081447795,    -0.122421876,     -0.14918128,     -0.17133409,     -0.31483164, 
    -0.21430293,    -0.032496512,    -0.038023267,      0.21027648,     0.044282828, 
    -0.79084903,     -0.04247212,      0.12406466,   -0.0043943725,     0.069454506, 
  -0.0028517693,     -0.61794317,      -0.5785975,     -0.13437237,    -0.031370383, 
     0.13288486,       0.3163161,     -0.54251325,      0.05812746,      0.22394043, 
     0.15432757,      0.17894863,      0.11665435,      -0.9592531,     -0.24539156, 
    -0.07888352,    -0.027626844,      0.13922696,      0.17721297,      -0.4086437, 
    0.058726553,      0.12782355,      0.11154382,      0.10397259,      -0.3268785, 
     -0.6149061,    -0.042468235,      0.11967946,     0.030502254,     0.108564824, 
    -0.03333752,     -0.11722454,      0.07048157,    -0.041511167,      0.14454259, 
     0.23584396,     -0.08214767,     -0.13437764,       0.1671656,    -0.008147713, 
     0.04395272,    -0.054379642,     -0.09879624,    -0.029218659,     -0.03800582, 
    0.014299997,     -0.08377885,       0.3159988,      0.07925259,    -0.051964823, 
   -0.023139603,     -0.06301874,     -0.14006968,     0.096774206,     -0.19442296, 
    -0.26221925,     -0.17629218,      0.14357072,     0.033721685,      0.24893945, 
     0.23975295,      0.08376589,      0.12742269,    -0.008996362,     -0.06080839, 
    0.028193206,     -0.12985787,     -0.48798326,     -0.28809112,    -0.096470706, 
    -0.21694516,      -0.2660602,     -0.14150153,     -0.30675137,      -0.4086946, 
     -0.5507621,      -0.8212944,     -0.39252082,      -0.7057547}, {
      0.3433866,       0.2531604,     0.018308897,     -0.17945762,      -0.3765862, 
   -0.060590513,      0.16968587,     0.035757925,     -0.18688133,    -0.080813356, 
     -0.1253305,     -0.35587597,      0.18935075,      0.26187363,     -0.16579972, 
    -0.17791355,     -0.13116471,     -0.07679784,    -0.016334875,     -0.13210557, 
    -0.10871024,      0.09109119,      0.20155992,     0.093673766,    -0.029544523, 
     0.06409895,      -0.2184221,     -0.33975384,     -0.19209367,      -0.1814252, 
    -0.27063277,     -0.41287103,    -0.092330724,    -0.073804654,     -0.12926906, 
    -0.31026497,      -0.2702207,      -0.4212328,     -0.23321192,     -0.24212994, 
    -0.09497376,     -0.06602302,      0.11777125,       0.1343248,    -0.016680924, 
     -0.2137354,     -0.16564439,      -0.7943706,     -0.13871907,     -0.26887727, 
    -0.20352007,     -0.25399312,     -0.12406325,     -0.15950297,       0.5886736, 
      0.1555666,    -0.014028839,     -0.24844362,     -0.12096017,       -0.555459, 
     0.21584627,     0.067184106,     -0.24226178,     -0.06400392,     -0.65870684, 
   0.0021320002,       0.4760671,       0.0075774,      0.10434752,     -0.22317237, 
     0.13159154,     -0.13256702,      0.62591857,     0.105795145,     -0.08570039, 
    -0.09356183,      -0.3264639,      0.11992922,      0.35708678,     0.055672925, 
     -0.2914151,     -0.79080665,    -0.047198035,     -0.21366619,      0.25741863, 
     -1.0257311,     -0.62010366,     -0.13135988,     -0.17586263,     -0.05515635, 
     0.49534976,     -0.15270528,     -0.55977374,    -0.057110384,      0.08017969, 
    -0.23609233,      0.11192662,      -0.7228676,     -0.34519577,    -0.065813325, 
     -0.1691282,      0.20799473,      0.15246555,     -0.31093314,      0.15737572, 
     0.31538212,    -0.004632619,       0.0824753,       0.1655997,      0.28690505, 
     0.19902742,      0.06139177,     -0.07706548,     -0.13864554,      -0.2379042, 
   -0.030080214,      0.24934702,      0.21617126,  -0.00044239243,      0.22886394, 
     0.03206333,      0.38440493,      0.11080079,    0.0071422006,    -0.055848148, 
     -0.2383531,       0.1224515,      0.19034062,      0.16830555,     0.027612472, 
    -0.23879385,      0.12823944,      -0.3147658,       -0.307519,     -0.27930677, 
    -0.27388403,     -0.23297489,     -0.29250094,     -0.24797778,      -0.2961954, 
    -0.23295021,     -0.08285143,      -0.3281565,      0.10939969}, {
    -0.17779247,     0.061878975,   -0.0043096766,      0.07919072,      0.14815511, 
     0.23632237,      0.08548985,     0.053062413,     0.019730542,     -0.14247648, 
     -0.2141554,      -0.4028267,   -0.0057221274,    -0.012556875,      0.07175965, 
    0.077656284,    -0.043433893,     0.063280985,       0.0623449,       0.1756684, 
     0.06823571,     0.006593365,    0.0062774485,     -0.36329976,    -0.025137406, 
     0.06006591,     -0.06577461,      0.06890112,      0.13237791,      0.09046092, 
     0.04357109,     -0.07157285,    -0.115820356,    -0.060582034,    -0.035964735, 
     -0.5804426,     0.019067459,      0.14949462,     0.044571225,   -0.0004150793, 
    0.086602636,    -0.013911512,      0.14843988,      0.06210565,      0.09979538, 
    0.019974174,     0.013854105,     -0.47024003,    0.0129242055,    -0.035402156, 
     -0.3696581,     -0.43558896,     -0.43558422,     -0.62966347,     -0.50334007, 
     -0.2441392,     -0.06748878,     -0.03701023,    -0.016455421,     -0.19524102, 
    -0.36293015,     -0.64518476,     -0.56291837,       -0.260176,     -0.19519784, 
    -0.22259322,     -0.23440625,     -0.22314972,     -0.10037079,    0.0014415622, 
    -0.11342196,      0.22046666,      0.26701203,     -0.13911675,     -0.10555717, 
   -0.075226955,    -0.015135772,       0.1366555,      0.12759295,    -0.038091924, 
    0.031739485,     0.073249295,     -0.19980533,       0.3569801,       0.3821425, 
     0.22018793,     0.046123244,     -0.07561269,     0.016001495,      0.25290954, 
     0.16484745,      0.08636179,    -0.008383205,    -0.005675028,     0.008399635, 
     0.57194006,      0.02930275,       0.2091509,      0.07650506,     0.092048705, 
     0.17750409,      0.26204196,      0.08242798,     0.108602405,     0.029544706, 
     0.07199635,      0.09034638,       0.3813032,   -0.0006489609,     0.017518407, 
     0.04221259,       0.1015759,      0.04772924,     0.020026073,    -0.049141355, 
     0.06222032,     0.102222905,       0.2349078,      0.14004466,       0.1609115, 
     0.17236006,   -0.0032665431,      0.11632517,      0.15586066,     0.115745716, 
   -0.096444465,     -0.12816747,       -0.089926,      0.17329654,      0.14023565, 
     0.13243823,      0.18252441,     -0.39797726,     -0.52372456,      -0.4640145, 
    -0.58302915,     -0.41333246,    -0.070344955,     -0.10688914,     -0.11633021, 
    -0.05213238,     -0.17177762,     -0.09100439,      0.25909182}, {
    -0.05888812,      0.29743442,      0.30584487,      0.21342376,      0.20426431, 
     0.23210512,      0.21720658,      0.04400491,      0.17158489,      0.10059035, 
     -0.2872662,       -0.508299,       0.2078405,         0.30203,      0.05850328, 
    0.011549712,     0.047839027,      0.09045142,      0.07844248,       0.0517725, 
  -0.0025505698,    -0.073775195,    -0.019029666,      -0.1607619,      0.17051178, 
     0.16872375,      0.02377421,      0.23689157,      0.24550872,      0.11906124, 
    0.072636135,     0.082841404,      0.04209821,     -0.06406965,     -0.12634227, 
    -0.33026966,       0.3708012,     0.115932785,      0.06222796,     -0.14608079, 
    -0.33312237,     -0.22258697,      0.11529973,      0.12360293,      0.15683825, 
     0.24178821,      0.19398026,     -0.40234718,       0.5129138,    -0.115194924, 
    -0.26023233,     -0.16314313,     -0.32863468,     -0.28618056,       0.0881906, 
     0.10457611,     0.060024135,     0.051019885,     0.010340082,      -0.6531954, 
      0.2031998,      -0.3961359,      -0.4097164,     -0.22280656,     -0.14075999, 
     0.17013913,      0.13745488,    -0.062093183,      0.07042812,     -0.22260599, 
     -0.4257867,     -0.34262565,      0.19796659,    -0.115663685,     -0.35950926, 
    -0.16959494,     -0.16155583,    -0.002756555,     -0.06825162,     -0.18401568, 
    0.009867409,    -0.019615002,      0.11473695,      0.24924207,      0.44077653, 
     0.25576144,    -0.056840807,     -0.29776213,        -0.37041,     -0.21758173, 
    -0.12288084,     -0.18524149,      0.11524819,     0.093139395,      0.18770735, 
   -0.029781507,         0.43719,      0.24739708,   -0.0026701298,     -0.05071485, 
    -0.16383946,     -0.31455085,     -0.16607551,      0.17780305,      0.19265796, 
   -0.017423064,      0.14770964,     -0.16999653,      0.23236284,      0.06645804, 
     0.11446798,     0.072295226,       -0.069827,     -0.12414294,     0.057010893, 
     0.14462644,      0.08548621,      0.06928667,      -0.0769189,     -0.25201896, 
      0.2856342,      0.02971884,     -0.06724369,    -0.054735743,    0.0028326022, 
   -0.047885217,    -0.029566063,    -0.030135011,    0.0023850764,   -0.0091162715, 
   -0.076153405,      -0.6406101,      0.78732044,      0.34822175,      0.43808773, 
     0.18810074,      0.28514123,      0.20497705,     0.119203664,    -0.015510469, 
    0.048406333,     -0.16646518,     -0.19543499,     -0.47758037}, {
    -0.37264633,     -0.37407097,     -0.20168479,     -0.41888314,     -0.51343066, 
     -0.3765671,      -0.3116743,     -0.31469172,       0.1119533,      0.10779767, 
      0.1436164,      0.03840942,     -0.17280574,     -0.01900567,    -0.017826097, 
     0.15629114,     0.008873483,    -0.052601766,      0.10013068,    -0.049917586, 
    0.010002344,    -0.012753867,      0.09842029,       0.3162025,      0.08866086, 
     0.20572229,      0.08011929,     0.071027555,    -0.067150615,     -0.17732766, 
    -0.40940422,     -0.38432777,      -0.1582561,     -0.12384652,      0.24917336, 
      0.1665916,      -0.1938708,     -0.10245413,    -0.106111765,     0.024384383, 
    -0.14884616,    -0.109380156,     -0.31161714,     -0.15509406,     0.038819116, 
   -0.008443452,    -0.086740024,     -0.23090975,     -0.45847562,     -0.25144094, 
   -0.053358573,      0.07246223,      0.33114052,       0.1953426,     -0.18338811, 
     0.22033022,    -0.008890549,    -0.097734645,    -0.099315464,      -0.4613947, 
   -0.065534666,      0.08593334,       0.1838218,      0.14039607,      0.34168032, 
     0.28566307,     -0.22906153,       0.2063122,      0.04179689,      0.19893089, 
     0.32093716,     -0.21255782,     -0.05972946,      0.00833959,       0.3397412, 
     0.21451801,      0.23738116,    -0.087061614,     -0.03304801,       0.3956538, 
     0.22116895,       0.2508967,     -0.05217042,     -0.40001768,     -0.38022742, 
    -0.28693083,     0.008570927,     0.042062234,    -0.041010484,   -0.0062441304, 
     0.26946214,      0.25132197,     0.056227833,      -0.1014356,      0.10548573, 
    -0.28432977,      -0.2594406,     -0.36658117,     -0.31891555,     -0.15786922, 
    -0.29461417,      -0.1895059,      0.11595147,     -0.14325675,     -0.23863558, 
    -0.18835223,     -0.23307204,     -0.52013856,     0.006660401,     -0.16340168, 
    -0.28451824,     -0.41624606,     -0.24718527,      -0.2539705,     -0.16622189, 
    -0.13216664,     -0.16920894,     -0.20960058,      -0.2673034,     -0.41779897, 
     -0.3457431,     -0.46447775,     -0.24777223,    -0.062792055,    -0.068346895, 
   -0.015749665,    -0.032026302,      0.08653571,      0.18976797,      0.25688386, 
     0.18053426,    -0.005910337,     -0.28934646,     -0.28101128,     -0.15132865, 
    -0.15580417,     -0.10397077,     -0.24359788,       -0.258181,      -0.2199952, 
    -0.25237876,     -0.26030016,     -0.28821847,    -0.017256835}, {
    0.038112246,      -0.4152871,      -0.3054398,     -0.41592315,     -0.19077085, 
     -0.1658824,     -0.14051807,     0.052511845,      0.15753178,       0.0348299, 
     0.16085148,       0.2329181,     -0.49215692,     -0.27089706,     0.022115493, 
   -0.038997594,     0.058125954,    -0.014452093,    -0.021983992,    -0.051685285, 
    -0.02367941,    -0.030562302,      0.00986478,       0.2687193,      -1.1138686, 
    -0.28652328,    -0.101238534,     0.039678853,      0.03423574,     -0.08701023, 
   -0.096868634,    0.0036064766,      0.10295801,      0.21763486,     0.057419546, 
     0.24293236,      -1.0716761,      -0.4157307,     -0.07432042,      0.23393145, 
     0.15278807,      0.14609508,     -0.15915176,     -0.26678258,     -0.24395618, 
    -0.12987545,     0.024958272,       0.9038587,      -0.4308637,      0.11952498, 
     0.13466118,     0.057282493,      0.10683084,       0.3091643,     0.039835975, 
    -0.12795274,     -0.24395049,     -0.24262147,     -0.65675765,       0.7180666, 
    -0.07276879,     0.051419683,     0.017244121,      0.05003567,      0.13476534, 
      0.2047023,     -0.05539136,     -0.29032466,     -0.18736763,     -0.20745051, 
     -0.7330723,     -0.36856204,      0.20121212,     -0.16551122,      -0.2287957, 
    -0.06561179,      0.12386655,     0.008323078,     -0.29278988,     -0.36617053, 
   -0.124867916,      0.09746498,      0.01850636,    -0.048525583,      0.32668954, 
        0.27064,     -0.05071853,     -0.15647577,      -0.2302671,      -0.3035267, 
    -0.23586494,    -0.019674145,    -0.014697335,     -0.10613806,     0.046719197, 
     0.11196877,      0.33244172,      0.24526972,       0.2008687,    -0.082587294, 
    -0.05883311,    -0.060060393,     0.033846304,      0.12277276,      0.10102244, 
     0.03830406,       0.0049319,     0.030363876,      0.22618008,    -0.030760273, 
   -0.019613907,       0.1376881,     0.092219435,      0.11797249,      0.06700139, 
    0.026622126,      0.12552933,     0.061541684,      0.22521424,      0.09709215, 
     0.31275374,   -0.0021635925,      -0.2065411,      0.04580336,     -0.04449511, 
  0.00027358904,      0.07826926,      0.04881071,    -0.056081884,     -0.06409001, 
    0.046254475,     -0.06336017,      0.38971078,      0.40689087,     0.009543548, 
     0.10311466,      0.14056829,      0.12458093,      0.13411026,       0.0315515, 
   0.0086613605,      0.06599094,       0.1054955,      0.17548184}, {
     0.14747019,      0.16364306,      0.16157396,       0.3088104,      0.21612306, 
    0.121871404,      0.09396268,     -0.07762624,      0.11521792,       0.1884418, 
     0.21988879,      0.10915073,      -0.1457593,    -0.034691643,      -0.2567829, 
    -0.16447046,      -0.2829275,     -0.30600038,     -0.26256052,     -0.13766766, 
   -0.042706605,    -0.043067988,     0.036687948,      0.11177192,     -0.17979003, 
     -0.1578507,     -0.19954833,     -0.19359405,     -0.13948818,     -0.19476621, 
    -0.12853277,      -0.3001225,      -0.2586378,     -0.21800795,     -0.21828888, 
    -0.26842707,     -0.19365448,     -0.14324032,     -0.16281052,      -0.1403176, 
    -0.15712781,     -0.22543542,     -0.24665613,      -0.3815869,     -0.47082046, 
      -0.263394,      -0.2515126,     -0.75268716,     -0.15973732,     -0.24189118, 
   0.0035587891,      0.07078629,     -0.12076421,      0.07881974,     -0.26842374, 
    -0.40407223,     -0.27461994,    -0.032428823,       0.0850009,     -0.19351965, 
    -0.34253132,      0.03309707,      0.17248261,     0.032176528,      0.06394783, 
   -0.027310614,     -0.22698998,     0.034078926,     -0.11185718,    0.0048163645, 
     0.35021123,      0.27025396,      -1.0403141,      0.05049351,      0.18627398, 
     0.15486228,      0.25352883,      0.09421413,       0.1166158,     -0.09861395, 
    -0.16112703,    -0.040104605,       0.1467453,      0.03727769,      -1.0531105, 
    -0.15453462,      0.07751503,      0.12859581,      0.45783368,      0.22426558, 
     0.13167559,    -0.059087683,      0.13091916,      0.06295996,     -0.05751288, 
   -0.036776792,     -0.58016914,      -0.3398129,   -0.0043457733,     0.026056927, 
     0.43796152,      0.22313632,      0.18946168,      0.16884565,      0.21404378, 
    0.034319665,      0.08797446,     0.043694627,     -0.15222877,      -0.5391128, 
    0.028267225,      0.04660683,      0.26947197,      0.49396002,       0.4028195, 
     0.28521553,      0.09753307,     0.007881215,    -0.007754283,      -0.1801527, 
    -0.06889668,     -0.96152425,      -0.5469895,    -0.081026085,    -0.052882105, 
  -0.0049588066,     -0.03920092,    -0.110356614,     -0.19520847,     0.014906474, 
   -0.083780445,     -0.70422274,     0.044084854,     -0.12766974,      -1.0718669, 
     -0.4826235,      -0.8417268,     -0.64305454,     -0.49953237,     -0.29868308, 
   -0.056475528,    -0.009566077,     -0.45364228,     -0.29173526}, {
    0.056196462,      -0.0617666,     -0.28203082,      -0.5868903,      -0.9360235, 
     -0.6859108,     -0.32835603,      -0.4852363,      -0.8536783,       -0.744597, 
    -0.45412847,     -0.00899932,      0.27079415,     0.039017778,     0.114030436, 
     0.14432435,     0.048429187,    0.0014819797,     -0.13621102,     -0.13208103, 
    -0.23722748,     -0.18856107,    -0.105252594,     -0.49529085,      0.42571136, 
    0.026963675,       0.2693156,      0.10855093,      0.18288082,       0.1063733, 
   -0.085787795,       0.0925242,     0.093807384,      0.13728248,     0.061331294, 
    -0.22653893,      0.44824368,      0.08343987,     0.068491116,     0.113129236, 
     0.07188722,      0.21813945,      0.37868562,       0.3338979,       0.2681818, 
     0.12323451,      0.13182206,     -0.11622321,       0.4827572,      0.13883857, 
    0.011488719,    -0.016120208,     -0.11789967,     -0.05241313,      0.24565753, 
     0.33936906,      0.23850992,       0.1342033,      0.12622672,     -0.41650152, 
     0.48875237,     0.021658437,    0.0066275625,     -0.18445316,    0.0031715538, 
     -0.9340539,     -0.45934772,      0.25034294,     -0.06446704,    -0.019502603, 
     0.10479499,     -0.20763406,       0.0573974,    -0.058440864,     -0.08140657, 
   -0.048852306,     -0.10678172,     -0.82495415,     -0.20696014,     0.098802045, 
     0.29405153,       0.2934633,       0.1620616,     0.012077452,     -0.17966919, 
    -0.06440223,     -0.02401232,     -0.10910682,     -0.32378006,     -0.25376874, 
   0.0059742853,    -0.045886632,      0.19188209,    0.0035176494,     -0.07487957, 
    -0.36766928,     -0.08292045,     -0.20272017,     -0.32177565,      -0.3462567, 
    -0.28021902,     -0.06885162,     -0.03757431,     -0.16171566,      -0.1881448, 
     -0.2866893,     -0.17704906,     -0.54147226,     -0.43237546,     -0.24989496, 
    -0.32988057,     -0.25428963,     -0.07546692,    -0.055202115,    -0.072692476, 
     -0.3274737,     -0.35470673,      -0.3433341,     -0.46550745,     -0.48696086, 
    -0.39795458,       0.2398218,      0.17219207,     -0.16397458,     -0.16693261, 
   -0.096187405,     -0.16267367,    0.0066222367,     -0.17802694,      -0.3546881, 
    -0.67437065,     -0.49398255,      0.12909655,       0.3513931,        0.294888, 
     0.25730962,      0.29264158,      0.19659698,      0.32866135,      0.24579394, 
     0.16124405,      0.06125551,     -0.12493594,     -0.15413499}, {
    -0.34474024,      -0.6292659,     -0.28106645,    0.0061319238,     0.014586797, 
     0.08540788,    0.0019856016,     0.025795175,     -0.09632864,      0.09487511, 
    -0.08961769,     -0.18562163,     -0.49373382,     -0.36534342,    -0.012884732, 
    -0.02452479,    -0.041801456,     0.093978226,      0.08532488,      0.14599925, 
   -0.018676769,    0.0045577674,    -0.034839083,     -0.13790767,     -0.17210892, 
     -0.0823315,    -0.052400563,    -0.079774484,    -0.049889974,    -0.018682769, 
    -0.06848328,   -0.0003577383,     0.010345363,     0.041291304,     0.028679155, 
     0.31910083,     -0.18568347,     -0.07933347,      0.02634782,      0.20221536, 
     0.13922043,      0.07687112,     -0.11957894,     -0.16778496,    -0.037047077, 
    0.005916157,    0.0037136208,   -0.0014189795,     -0.14677691,      0.09607042, 
     0.17989053,      0.23382144,     0.084111765,       0.1155708,    -0.063026756, 
    -0.15292913,     0.055581614,      0.10588434,      0.24022742,      0.07353322, 
    -0.14363322,      0.07596056,    -0.005414476,     -0.06104328,      -0.1217398, 
     0.20535885,     0.044214603,     0.018931782,     0.010699173,     0.008027615, 
      0.0472648,      0.11076856,     -0.33095086,     -0.11800382,     -0.34396964, 
     -0.1348393,     -0.14310198,       0.1301979,       0.2194704,    -0.058937483, 
    -0.21678752,     -0.26340404,     -0.39746335,     -0.28816044,      -0.5712441, 
     -0.4025445,     -0.07903696,     0.016030544,      0.21091038,      0.21787143, 
   -0.061081827,     -0.08773817,    -0.109581046,     -0.14387137,     -0.20303881, 
    -0.05875314,      -1.2344154,    -0.108440615,    -0.049814697,      0.05131043, 
     0.13078019,     -0.02955414,     -0.18574826,     -0.06833543,    -0.055488817, 
    0.040242475,      0.05413468,    -0.040587872,     -0.91901135,      0.08341808, 
    0.109079465,     0.033374794,     -0.07122503,    0.0068953857,    -0.063472666, 
   0.0116091855,    -0.031201389,    0.0018544287,      0.09887507,     0.012394885, 
     -0.4851434,     -0.12638125,     0.112676084,        0.064989,     0.004538105, 
     0.23909289,      0.35155818,      0.09878844,     0.068958774,    -0.038147576, 
    0.012294199,     -0.26331386,     -0.48990893,      -0.6226306,      -0.5652781, 
   -0.104662426,     -0.06316489,    -0.053822912,    -0.059603926,     0.020081928, 
     0.15156321,      0.16739868,     -0.16980563,     -0.49104038}, {
     0.14615847,      0.08240037,     -0.38345537,     -0.66263694,     -0.17808135, 
    -0.12419637,     -0.40575057,      -0.7801951,     -0.61273265,      -0.5011177, 
    -0.84821475,      -0.2811419,     -0.14883798,     -0.81508243,     -0.34741867, 
    0.021822061,      0.11349633,     0.049170528,    -0.078661665,     -0.12098655, 
    0.055461805,     0.049741212,     -0.37368324,      -0.6569486,       -0.747571, 
     -0.5553296,     -0.23922531,    -0.100425646,     -0.12863633,      0.08417123, 
      0.4854803,       0.3731512,      0.09237471,    -0.036413483,     -0.02989852, 
    -0.25939208,     -0.48905697,      -0.2292559,     -0.07073573,     -0.08475144, 
    -0.07741804,      0.06905796,    -0.054875575,    -0.098783195,     -0.07744346, 
    -0.10163237,     -0.09364906,     -0.38518637,     -0.45506987,      0.15840615, 
     0.16576146,      0.18651313,      0.23302048,    -0.030741587,    -0.043141022, 
     0.13425295,      0.25809595,      0.17845051,      0.23863642,     -0.14465104, 
    -0.09789401,      0.26272488,      0.17257348,     0.073020756,      0.08751351, 
    -0.32490256,       0.2204599,      0.19422218,       0.2782989,      0.21415575, 
     0.19685811,      -0.5740106,     -0.03430993,     0.048253905,      0.08740647, 
     0.03930266,     -0.08901424,     -0.15294276,     -0.13107453,      0.05893128, 
  -0.0015959337,     -0.06432202,    -0.023380142,     -0.85447514,     -0.54552203, 
    -0.13000782,     -0.07155751,     0.027008383,      0.15237872,     -0.16320954, 
    -0.13835831,      0.19479741,     -0.11899288,      -0.0805401,     -0.14759387, 
     -0.8240703,      -0.9689327,     -0.21762902,    -0.055947546,      -0.1523979, 
    -0.24489205,     -0.29693925,     -0.14402764,     -0.11808992,     -0.16425563, 
   -0.013118417,     -0.21150953,      -0.2790397,       -0.706878,     0.011981841, 
    -0.23264654,     -0.17585786,     -0.25115642,    -0.114438474,      0.05067623, 
    -0.15684775,      -0.1375066,     -0.18633462,     -0.29018888,      0.18435934, 
    -0.47513354,     -0.15567786,     -0.32155564,     -0.08258718,    -0.079644255, 
    -0.15129623,     -0.20772605,     -0.24340646,     -0.15696253,     -0.17718996, 
     0.03549647,      0.46364582,     -0.33977672,     0.030898731,       0.3018193, 
     0.22217852,      0.20918547,      0.14169785,     0.095135726,      0.25780565, 
     0.23301512,       0.3829628,       0.4607705,     0.018827468}
};

static const unsigned int dense_0_bias_size = 10;
static const float dense_0_bias[10] = {
     -0.6991777,        0.185638,      0.54848194,     -0.21682994,      -0.4586017, 
      1.7166828,      -0.3605767,      0.65713066,      -1.3675988,     -0.08905018};

